a118 0.8263827 0.48143548 -0.17492433 -0.55922127 0.60889965 1.2863258 0.7023172 0.15666053 -0.47753385 0.2987685 -0.7004566 1.2246016 1.1954644 0.2116781 -1.5929335 2.1709204 -1.0671446 -0.27262855 -0.97027564 -0.28227592 -0.78056806 -0.97601736 -0.7262061 -1.8772496 0.20834866 2.173204 0.8777017 0.5665615 -0.42956048 0.70002514 -0.94927126 0.48184153 -0.5860592 0.28162262 0.2124424 -0.13049313 1.8406373 0.81786716 0.44734356 0.5307845 0.68051094 -1.6288508 -0.49852622 1.5395949 -0.14319389 1.2660224 -1.4070883 0.7589161 0.6533244 0.17269358 0.53817934 -0.11169771 0.18230513 0.0043463637 -0.43256825 -0.23873079 -2.4351535 -0.5412969 0.24894255 -0.8506322 -0.84294635 -0.34691048 -1.6987768 0.12589322
c2608 0.9806208 -0.6300879 0.8400905 0.7474002 -0.2632786 0.70202965 -0.022858547 -0.38303503 0.85978746 0.043978635 -0.59051126 -0.43314418 -0.06471804 -0.5962267 -0.48387444 -1.0189809 0.48390985 2.1409428 -1.0303041 -0.5048089 -0.32486016 0.825224 0.0044416245 1.1993504 1.9565599 0.05287714 -1.6215997 2.2540808 0.34554854 1.0908774 -0.26319844 -0.33461556 1.3989455 0.119721085 -0.12993619 0.32734582 1.4122853 0.052929685 0.40038976 0.15009363 -0.51981884 0.6247672 0.5030194 0.116251536 -0.43387166 -0.014432837 -0.049843863 -0.0902142 -0.17020619 -0.054711618 -0.5123263 -0.10840908 0.8296372 1.0266978 0.601359 -0.35627607 0.43990305 0.22306618 1.4012026 -0.3700812 -0.101985805 0.12418397 -0.2821493 -0.48556197
a122 0.5965489 -0.99245954 -0.23505706 -0.5516001 0.86475986 1.6907651 1.1031362 -2.3204117 1.3139318 -0.5071789 -0.5723626 1.2951841 1.0019037 -0.9491553 0.9381803 -0.35791722 1.8047987 1.0141287 0.9095039 -0.5147585 -0.20352599 -1.1580648 -0.48622242 1.3955071 1.3864499 0.20339645 -0.46742964 -0.2084729 -1.4374146 -0.76859504 -0.52661335 1.2856905 1.4359769 -0.30324274 -0.95854074 0.8230923 0.029466229 -1.0410807 -0.42624098 0.7055136 0.79584324 0.094958454 1.0092809 -0.66379106 0.561848 -0.2328 -0.34221956 -0.207242 0.00056104024 -1.701069 1.1778876 0.5581887 -1.7482698 -0.7462384 -1.1270756 -0.2676599 -0.28605083 -0.21422546 0.6589151 -0.37317693 1.7306209 -0.3421611 -2.4502618 2.0534716
c80 -0.6352299 0.87367857 -1.0851164 0.52289814 -2.1645222 0.8188321 -0.04205173 -0.73324496 0.05618908 1.136357 -0.419227 -0.76968235 -0.07501789 0.085471265 0.32229748 -0.06246826 0.39701784 -0.502997 0.45503712 0.7163767 -1.003732 0.3527233 -0.9761324 1.1283143 -1.1089259 -0.5887878 0.8974132 0.38170007 0.21891597 0.1445147 1.4968135 -1.1518766 0.5013142 -0.47609782 -0.17847012 -1.1301869 0.20361526 0.526152 -0.14922316 1.4237396 0.75645345 0.060875468 0.9982777 0.5240572 0.55383706 -0.41726795 -1.5833905 -1.2029117 -0.108051345 -0.6931022 -2.0445917 1.1101784 -0.16951309 0.41754138 0.28317836 -0.44833973 0.24330612 0.096308 -0.37190646 0.6445241 0.38955483 -0.047087416 0.6547069 -0.84163874
a14052 0.2049702 1.6347575 1.1620485 -1.8132592 -0.78881806 0.47813392 -0.9014634 -0.94438064 1.0927341 0.96164364 -0.23759098 1.3669688 0.8210381 1.1185025 -0.020517876 1.0748627 -1.597988 -1.0031244 0.5639952 -1.0376836 1.0055895 0.8909133 -0.30787376 0.541452 -0.15260418 0.05263534 -0.31098047 0.67024773 -0.37778333 1.7599598 0.7033711 -0.49030682 -0.37113124 -1.4836315 0.14386392 0.92032063 -1.0765867 0.3536581 0.7125651 0.5517529 0.837765 -0.06333813 -0.81374454 0.7388419 0.24769722 0.3917452 1.5887024 -1.0345523 -0.030418813 0.76318675 1.4602337 0.129078 -0.7643202 0.5405317 0.1272089 -0.48572877 -0.5271757 0.44108522 0.50573313 1.4241875 0.49112532 -1.3750777 -0.22231762 0.18237902
a4085 1.7483953 0.6244345 0.14008924 2.0380116 0.14307377 -0.18295367 0.7495317 -1.0926285 1.1499805 0.36075068 -0.3994432 1.1351949 -2.2991366 -0.14568667 -0.3484369 0.82512146 0.7682117 1.0234367 0.2652062 0.9441292 0.2584784 -0.3530625 -0.34905264 -0.19054289 -1.3443378 -0.72824043 -0.53092116 -0.11035187 1.5635053 0.1383629 -1.0575445 -0.46447337 -0.6481929 1.3099141 -0.9502205 -0.13196601 -0.5189229 0.50572115 0.54986495 -0.21791123 -0.6980634 -0.909031 -1.4463575 0.45825702 -0.5419255 -0.31285852 0.69384754 0.4317832 0.13018999 -0.12562478 -0.5558515 -1.0401429 0.349949 1.8665849 0.30935347 -2.1474795 1.2969131 0.95716673 1.089477 1.180161 0.49890405 0.74090934 -0.6552367 0.5518719
a119 -0.21761738 -2.102543 -1.2554774 0.010442865 0.4998719 0.12451606 -1.3969458 1.2356998 1.3602716 -0.9219032 0.31547207 -2.3685133 -0.4068464 1.5178031 -1.099105 1.7137241 1.3868983 -0.78690004 -0.80292046 0.016612351 1.0333986 1.0549518 -1.0181683 1.1104255 -0.8223629 -0.05056871 0.50339574 0.8703518 1.0809983 -0.74398714 -1.3152525 -1.7919438 -0.6799321 0.0026070317 0.34922427 -0.5116922 0.12295691 0.046816718 -0.05719709 0.29270288 0.2532374 0.0030792665 -1.3899441 1.7511749 0.70481133 -0.53947043 1.796675 1.0756891 -2.2578032 -1.6110065 -0.65695393 -0.09787934 0.76660824 0.81202286 -0.86540794 0.69456 0.009837213 -0.35322553 -0.27284652 1.0926275 -0.8299026 -2.2401896 -0.88143253 0.40578994
c2609 -0.7999133 0.24554846 -0.56371903 0.64647025 -0.46834487 0.077322 -1.1835967 0.37948096 0.48185512 -0.42338708 0.44904372 0.2834557 1.581625 -0.30492306 -0.89377004 0.6852647 -0.6038682 -1.2455025 -1.0868756 -0.14444372 0.7771939 -0.38788277 0.5424168 0.4009421 -1.6015043 -0.38774514 -0.6091749 -0.9456591 0.8800688 -0.0671307 -0.7603325 -0.09312755 0.82258713 -1.4554918 1.1112964 2.620048 2.1877575 0.8687119 -0.30787325 -1.0040576 -0.6838077 -1.3257533 0.9905967 -0.53814274 0.9332148 0.2688123 -0.96874243 -0.11513454 -1.239157 0.73710525 -0.54320097 -0.8242641 1.7220504 0.8609516 1.5246258 0.34051478 1.0440241 -1.6319482 -1.7099538 1.2962815 0.8191399 1.2118938 0.8714663 0.8321403
a121 1.8501331 0.11455838 0.16877076 -0.84126925 1.4559579 -0.35281911 -0.011786254 -0.21093906 -0.02856103 -0.29648152 -2.1124578 -0.934637 0.07228309 0.8500257 -2.2121418 -1.3006475 -1.1170431 -0.33349428 1.6536964 0.926074 0.12501742 0.080466054 1.5580097 0.19060357 -0.34684956 0.61192495 1.0956727 -0.64741063 -0.48553053 -0.16445917 0.2764784 -0.37992114 1.0609859 -0.98756605 0.98925966 -0.7268424 -0.93127203 0.92355084 -0.8828879 -0.46361104 0.114219934 -1.1954161 0.46079153 -0.82300425 0.5179761 -0.47536263 -0.2673711 -0.22865014 -2.8397315 0.09110313 0.24036834 -0.15238078 -0.9592641 0.574836 -0.95572174 -1.4393349 0.20610602 0.24441223 -0.51625013 -0.16930991 -0.5720497 0.15392262 0.024895994 0.23315305
a120 0.36491737 -1.8626664 -0.6817278 0.7202519 1.343809 -1.6969491 0.29097554 0.0738508 0.2824961 0.6545808 -0.14522967 1.4198521 0.6836311 0.51832604 0.54508847 0.7244731 1.5903096 -1.7495701 2.4749885 -0.7685397 -1.2767924 1.4457501 -0.043568663 -0.37116322 0.31172264 0.44726998 -0.2133039 0.090569265 -0.7819425 0.38542435 -0.7064684 0.7547801 0.0034071794 -1.0556657 0.0023135585 0.8354521 0.95310825 1.6634008 0.41231242 1.7441429 -0.907075 1.1875129 -0.47893548 -1.2581264 0.2514936 2.1978588 -0.05527833 -0.5688975 -0.41368964 -0.5816289 0.48565876 -1.1677505 0.6962385 -0.03469824 0.6160727 -1.0964781 0.62019026 -0.3570937 0.49000886 -0.362382 -1.245544 1.469951 -0.88569885 -1.2385722
a18975 1.4840602 0.0025982202 0.90183526 0.43827823 -1.639348 0.47620744 1.3016957 0.35308883 -0.49952736 -1.18824 -2.7081642 0.17653862 -0.8142238 0.8852873 -0.75267506 -0.37111482 1.0828809 -0.91738427 0.7085584 1.312541 -0.2236939 0.2939982 -0.23974682 -1.2794163 -0.23242483 0.33797038 -0.11079946 -0.13935775 0.6486449 0.8556204 0.9365114 -1.3090751 -0.07001612 -1.3366709 0.8221812 0.29778937 -0.17902298 -1.3780853 -0.4311077 0.22111565 -1.1973636 0.6975748 -0.2687099 0.93707925 1.3757493 0.16497143 0.33092 0.26601774 -1.058567 -1.939516 1.1113677 0.1657995 1.2493131 0.34610814 -0.709979 0.49544933 -0.32506916 0.10461668 -0.9145702 -0.27469325 -0.5777873 0.39079055 -1.7363485 1.4400084
c11364 0.6766786 1.0242863 0.58831054 -0.104403995 0.7990375 -0.17591207 -0.04272497 -0.70418966 -0.08273001 -0.46746027 -1.4426401 -0.31803015 1.9014508 -0.06984949 -0.5217445 -0.19113538 1.3549448 0.5849786 -0.72938615 0.5381061 -0.64636195 -0.4507302 -0.59425384 -0.21679422 -0.89952165 -1.3447119 0.3351643 -0.72212064 -0.26522616 0.03253773 -0.569607 -0.42068884 -0.6532521 -0.64648914 -1.0255442 -0.56008756 0.44043034 0.69494456 -0.9724348 1.2700826 0.7594102 0.20397067 0.24117255 -0.64636594 -0.9229502 0.6835514 2.103284 0.21279387 -0.14583263 -0.5947207 0.88372666 1.7495327 0.64225376 0.664356 0.11554955 1.1857789 -0.6274062 0.4951454 1.9958551 0.7942127 2.30602 -0.12289033 0.99240226 1.4836379
a12248 0.43637854 -0.26565206 1.6448549 0.35343125 0.17061469 1.0165317 -0.2655972 -0.041708883 -0.38358045 -1.532893 -0.009929969 1.0019336 -0.10297312 0.37096268 -0.50417227 0.9916045 -0.06296822 -1.0794629 -0.30189717 -0.16671258 0.4913503 0.28276426 0.7586709 -0.097117886 1.9780152 0.89000833 -0.20259671 -0.51634926 -0.81880116 1.3826985 0.5461241 -0.7341188 -0.36861145 -0.29620352 -0.07310649 0.4394873 0.07064015 0.2773807 -0.30063957 -0.37014842 0.26239234 0.19229676 0.651799 1.2005662 0.33190447 -0.5767539 1.2141432 -0.7148419 0.24229056 -0.68773687 1.584502 0.16894111 0.6703928 -1.687965 -0.8167689 -0.6112947 0.18467134 1.9017861 0.45493302 -0.47651666 0.19196637 -0.038720094 0.18029432 0.88522476
a11609 -1.4943458 -0.028567636 1.0488214 0.1398253 0.5282562 -0.9521969 -2.7030447 -1.2258501 0.5569332 1.3375858 0.5584583 -0.15209821 0.029679 -0.43656603 0.2586773 -2.2871573 -1.0811627 0.089446865 -1.1641272 1.604019 -0.391539 -0.20527038 1.2018163 0.88258225 -1.7438327 -1.7815373 -0.3174954 0.065551184 1.2878588 -0.8688259 -2.4294612 1.3198165 0.54578424 -0.090439044 -0.5936353 -1.0046257 0.63155574 1.6716751 -0.6453479 0.73698205 0.9679175 -0.6769472 -0.5861648 -0.4972433 -0.7860097 -1.341309 0.9369756 1.9845521 0.41717872 -1.0617086 0.80096096 0.52544963 -0.807428 -0.19887139 1.2372459 -0.29131818 2.7666872 0.77800125 0.41775602 -0.9863063 -0.38093254 -0.5103793 -1.1780403 -1.0522629
a17011 2.5686417 -0.15565743 -0.20683236 -0.31409103 1.4015683 0.09847654 -1.4226412 -0.14425099 -0.60022503 -0.042490907 -0.81890494 0.10658925 0.49852636 -0.29423052 -2.02213 -0.068490766 0.4614145 2.335937 0.7010447 -1.2156318 0.74708784 -0.4648735 0.3997651 0.87237835 0.5281156 -1.5571787 -0.033543322 -0.31737512 0.0086504165 0.27211806 -0.2322464 -0.6112638 1.4460251 -0.6235773 0.16207945 1.2122314 -0.74289757 -0.75767314 1.6440709 -0.92755455 -0.009529365 0.2329032 -0.70700806 -1.0984075 0.6542443 0.25253043 1.1698419 0.37211853 -0.14871986 0.38757327 1.483727 1.0704381 -0.08339212 1.5742335 0.95199984 1.6416159 -0.039471433 0.15773001 0.1663694 -0.592633 1.1590558 -1.2143595 0.41110188 0.92070633
c6365 -1.4065541 -0.461655 0.40455276 -0.30499482 -0.048023038 0.22412297 1.0217403 0.23170285 -0.27601832 1.7008799 -0.11124768 0.9697704 0.23232095 -0.7793589 -0.46071807 -1.4921385 -1.5836889 -0.51258093 -0.60771954 0.29148066 -0.65951765 -1.769774 0.31712478 0.0073198313 -0.9510359 -0.15079533 1.0090612 0.009271825 -2.241319 1.7646291 -0.55769545 0.280688 0.88919973 -0.5141055 -0.5741021 0.27154928 -1.3411958 1.1598209 -0.25187558 1.1288649 -1.1023984 0.17380989 1.8638033 -0.050990194 0.5786858 -0.7416937 0.5110978 0.260153 -1.6859635 0.25198126 0.93928766 -0.0016273258 0.04368669 -0.61489105 1.10268 -0.04792367 -0.02912339 0.58872026 -1.511858 0.65629244 0.56750876 0.42687884 -0.035584684 1.2872893
a7867 -0.7600344 1.1458943 -0.8764266 1.2249492 -0.7206718 -0.47221535 -1.6524436 0.06467986 -1.4330496 -1.9018553 -0.852081 0.9930426 -0.77277344 0.7879625 0.90870345 -0.7282049 -0.7610899 0.30789274 0.0035137816 -0.77404624 1.3426759 0.35706678 -0.15860684 -1.6067802 -1.0853387 -0.2855606 0.67700803 -0.20150812 1.4885834 0.18599908 1.1449893 1.2624207 0.54222214 -0.62024164 1.9385506 -0.38094085 0.47440568 2.4206986 -0.6770842 0.54809535 0.28003106 1.865911 -1.2925241 0.73255116 -0.5219844 0.5824206 1.3074831 0.8864547 0.31890094 0.03638753 0.62413853 0.82822883 -1.5436101 0.45704743 0.46966308 0.12562792 -0.02618153 2.314598 -1.8068475 -1.1018939 0.42859155 -0.46851614 -0.8900635 -0.68808436
a3374 0.20780596 1.3152859 0.9993739 0.8993845 0.12436564 0.8179802 -1.0324146 -0.0038768572 0.70805365 0.17537457 -0.75399095 -2.0190015 -1.166266 -0.8083844 -0.11157388 1.0201955 0.93884254 0.44614485 -0.30654907 1.310035 -0.60659987 0.0707433 0.3486055 -0.35449117 1.4611268 -1.2260826 -0.6761001 -0.5146285 -1.2330621 0.26697835 -0.81911165 -0.029145908 -0.5179239 0.36189234 0.006800651 0.6090468 -0.1481329 0.43323538 1.9574991 -0.2616427 0.19727695 -1.4747449 0.03468278 -0.9340117 0.47711125 0.33557987 -0.8133857 -1.5270003 0.5373505 -0.26337004 0.07512207 0.49764448 -0.14498673 -0.739129 0.19213997 -2.2360451 0.6724383 -0.022224437 -1.1651049 0.09069089 -0.6760927 -0.35058916 -0.1815431 1.1347191
a12938 0.6523643 -0.38802198 1.2974812 -0.7629379 -1.3082738 -0.677617 0.109312564 -0.37668535 -1.3426641 -0.3447142 0.6307222 0.6612047 -0.8366386 -0.92143726 0.31995255 -1.9360622 -0.4531816 -1.0010326 -0.65048206 -2.2289765 -0.9811677 0.6499928 -0.21031465 -1.491807 -0.010146233 -0.39943355 -0.43474013 -0.8349617 -0.1682062 -0.63643074 -1.550931 -0.940641 0.4616356 1.4188732 -0.6049717 1.6238841 1.5596339 -0.66690415 -0.5010672 0.31755057 2.8746889 0.3268692 -1.2937207 0.1779952 -1.6270862 0.4605139 -1.3353432 -0.7410935 0.36754555 1.2636281 0.40869397 0.27417323 -1.2272072 1.7233539 0.7106997 -1.340092 -1.4771854 -1.2363316 0.7871225 -0.8230727 -0.3169881 -0.7226238 1.2028815 0.7474842
a7006 0.7580804 0.4461813 -0.7569919 1.080901 2.1692853 -0.06676887 -0.5166572 -0.6108024 1.3482593 0.8616973 -0.083447434 0.26430562 -1.2381059 0.91020435 -1.6964129 0.3217386 0.17014389 1.2520986 0.96052337 -0.3803851 1.2795463 -0.33484533 -0.22341707 -0.872868 2.3394008 -1.7085668 -0.10273787 0.46483997 -0.7823965 -1.0280124 0.4665323 -0.041437075 0.354656 -0.29295644 0.49113074 0.8756356 0.13565238 1.8617122 0.5611091 -1.4054768 0.9443364 1.4462624 0.23535165 -0.63693404 0.3556251 0.962542 1.2001956 0.15327126 -1.4915718 -0.5306909 -1.4041393 -0.43002778 0.784266 1.3905125 0.32800856 -1.1787026 -1.3895245 -0.8195474 -1.3146738 -0.66550905 0.48560628 -1.8505251 0.58765024 -0.047296677
a18973 -0.11128651 -0.20351854 0.6287239 -1.3631277 -0.42521155 -0.7538838 -0.5696379 -0.1593156 1.048546 -0.03895143 -1.4134142 -0.501855 0.68707365 0.5621771 0.24144812 -0.57810557 -0.41916654 -1.2319342 1.0975558 -0.66588813 -0.12603769 -0.33491707 0.16524857 0.05817277 0.27562514 -0.4804451 0.54511786 -0.6245274 -2.0554311 -0.4259943 -0.8006136 -0.5754492 -3.1297543 0.429642 -2.5216823 -1.4726186 1.106531 1.4670486 -0.36157003 0.1779436 -0.8671619 0.07442384 2.0120134 0.67894983 -0.9167298 0.6406639 1.484761 -0.74697536 0.20855625 0.8729667 1.0086809 0.8001408 1.3679811 0.4077417 0.2801478 -1.8657768 0.2922584 -0.15096477 1.1643609 0.52107036 1.3916241 -0.40178946 -0.5741582 -0.70051414
c12214 0.38891312 0.5863355 0.71301377 -0.082038745 -0.94979054 0.7835381 -1.047347 -0.5544081 -0.62092596 -0.73812574 0.97230697 0.34264055 1.7673804 1.0773491 -1.1332132 0.11842684 -0.5812777 1.0834764 0.49134883 0.2774008 0.75368637 0.1770977 -0.57148665 0.29968292 -0.0051809363 -0.6398827 0.07963036 -1.5285611 0.055563383 -0.39983448 -0.8812043 0.2724507 -0.16750182 -0.31789407 -0.9646985 0.99988604 1.0824305 0.9618521 0.36450094 2.326706 -0.9090801 -0.016633783 0.05644546 1.722754 -1.8556272 0.21961269 -0.23507392 0.24608847 -0.12199126 0.327862 -0.8930797 0.19108285 0.5834267 -0.49602315 0.59945714 1.2536318 -0.50103426 -0.083681665 -0.5894028 1.1755366 -1.9404215 -1.841615 -2.5812097 0.4767534
a18974 0.37297225 -1.3597494 -0.089738026 0.9859589 -0.24515975 1.261192 -0.8976936 1.3813645 -0.38886932 -0.028787227 1.0115318 -0.5015404 1.0273782 -0.18917374 0.22096616 0.9834637 0.3004761 0.80808747 -0.8108694 -0.8777966 -0.01940114 -1.0790781 -0.09222895 -0.6185422 -1.2921345 0.80832505 0.84450394 -0.15313879 0.8213229 -0.9875255 0.21131861 -1.0803922 -1.2199781 1.7574894 -2.1156852 -0.4928217 -0.22229864 1.0684493 0.09581864 -0.85368323 -0.53289175 0.9667386 0.9160319 -0.73295105 0.36781844 -0.2446535 0.7722439 0.32199377 0.44505912 1.5979509 -1.4295833 -0.5599294 -1.6082556 -0.5186132 1.1825746 -1.1877114 0.8152396 0.4111447 1.298823 1.4741073 -0.11381482 0.29474515 0.95102084 0.301735
a6534 -0.04597063 0.080036685 0.01061004 0.2053616 0.065876774 0.79026514 0.9241115 0.78238785 -1.336795 -1.1012769 1.0315014 -0.8487672 -0.15914313 -0.47954404 -0.67219645 -0.26332107 -0.07081154 -0.008817016 -0.0062017767 -0.521468 -0.4648914 -0.38730058 -0.4428009 -2.7713177 1.23858 -2.1595647 1.07788 0.45359632 1.050679 1.6586657 0.91913366 -0.5057769 -0.41019955 -0.64900064 -1.0214851 -1.0656441 0.49441618 -0.028291194 0.49543926 0.3120365 -0.999195 0.6005941 1.143809 0.87655437 -0.46247315 0.7044444 0.23151803 0.5829736 0.43173417 1.4508231 0.4000486 -0.6686291 -0.37819427 -0.37691066 -0.39474285 -0.66970277 3.087534 -1.8019391 0.46570686 1.6042114 -0.39122733 -1.8490299 -0.90949976 -0.122910395
c3819 0.18162915 0.5592269 -0.27435273 -0.9544794 -0.300555 -1.107312 -0.0879618 0.8417125 -0.9542633 0.1258797 0.65097654 0.24449584 -0.7600799 -0.88519824 0.3002106 -0.9399238 0.72974557 -1.039101 0.14626077 -2.565285 -0.87145793 0.38918477 -1.124302 2.6140509 0.43488172 -1.3404676 0.5778083 -0.69999284 0.02671709 1.5419406 -0.30834278 -1.4644188 -0.2151698 0.39382458 0.83612394 -2.0400708 -0.37602633 1.0100719 0.7842088 0.81053954 -1.4379499 -1.8422301 0.94494355 0.7544883 0.45475325 1.1847904 -0.26484203 1.2850844 -0.061142392 -0.79911524 0.0874381 0.54603666 0.3660231 0.43263426 -1.4172637 -0.06841078 -0.27876166 1.2342184 0.38860768 -0.69344366 -1.4558682 0.08675583 1.0186038 -0.62275136
a12072 -0.93650866 0.35236198 1.2175009 -0.7957638 -0.84035486 0.75901484 -1.6870682 -0.90059024 0.78645784 -0.45367435 1.0052924 -0.29731408 1.4178225 0.5304859 0.33230862 -0.08886228 0.7655492 -1.5617014 0.6688324 0.6704849 0.6318969 -0.71392566 0.49849206 -1.9726715 0.6517224 0.25401115 0.055708762 0.15734354 0.04930156 -0.4389008 -0.8626054 -0.97614044 0.48217297 1.6014416 1.7119462 0.48142427 0.41480395 0.20216238 -0.076819465 0.22736277 0.42225692 0.5530418 -0.32566336 0.076992854 0.94588757 -0.26382494 -0.13150167 0.2986998 -1.8802452 -0.08940097 -1.4927294 0.85468227 -0.4377336 0.16451326 1.1608002 1.2909237 0.74162585 -0.15761428 -0.7264481 -0.1721731 -0.6164606 -0.5174009 0.40431547 0.5663114
a2138 0.62139416 -2.0167897 -1.7511342 0.3581982 -1.1948205 -1.5531033 -0.777221 -0.50890034 -0.1603137 -0.5743419 -0.0263721 0.8796688 -0.8172401 1.0139214 -0.25617486 0.46581587 -1.2903318 0.43148288 -0.8811672 -0.5803024 -1.3836383 0.91368324 -0.78537583 -0.5029466 0.485212 -0.26253304 -0.35262087 -0.07513147 0.47373822 0.640435 0.17484932 1.3447578 -0.4494664 -0.93719953 0.82610947 -1.228879 1.1040541 0.24153602 0.47384626 -0.26687226 0.1283487 1.011586 -0.0923964 0.68049496 1.1481078 0.47343412 0.17086686 0.7298075 -2.2684379 -0.6064422 1.1388541 1.67211 -0.44734922 -0.10294303 -0.37095025 -1.2121688 -0.65188193 -0.5424073 -0.4902463 0.039349917 0.49995586 -0.57200164 0.49010292 1.140698
a16227 0.5002047 0.8877621 0.34870788 -1.086886 -1.3274143 -1.189888 0.05429037 -0.33509654 -1.7245735 -0.7175571 0.16838959 0.030312689 -0.6447727 -0.28541455 -1.8338101 -0.8550721 -0.8479652 0.89403874 1.6891413 -0.59158075 -0.40571317 1.4820018 -0.31921592 -1.312938 -0.3448053 1.403433 -0.7697239 -0.88809717 -0.95317787 0.6602835 0.14436913 -0.3205066 -1.3024023 1.2429854 -0.28214383 -0.12822764 0.16962446 -0.3150367 -1.4984869 0.17082646 -0.35936737 0.4227509 -0.23978584 0.95800716 -0.16854878 -0.8525455 0.8478839 0.97527415 0.5526409 -0.25753674 -1.9493768 0.21591339 -0.24594598 0.33183485 1.8303326 0.60405976 -0.051362634 -1.4180248 0.8537416 0.033427715 0.7055038 2.1438265 -0.34736103 0.95700204
a8123 0.35292786 -1.0791163 0.5355007 -1.4810555 1.1248939 -0.8790212 -0.62054724 -0.5848242 -0.7318187 0.5799251 -2.6475215 0.12994443 -0.0920474 -1.1836483 0.034399454 0.75220394 0.2934497 0.94282246 0.6390329 0.6592321 -0.2828795 0.23047781 1.8161116 -0.480617 0.09322772 0.07252713 -0.27150106 1.7198464 0.5045088 0.28891486 -0.25685543 -0.001979643 1.0728469 -2.27772 -0.07030917 -0.72238487 -0.1381284 -0.42051315 -0.95704836 -0.6118406 1.1124122 0.48611274 1.5251827 0.35803023 -1.511654 0.08230231 -1.8259549 2.525247 -0.19093288 -0.6975711 -0.84301275 0.40152356 -0.7762093 0.7457621 -0.18178539 0.096860975 -2.0058858 0.8321687 -0.9869373 0.3200486 -1.4157928 -1.1239505 0.49736443 0.6725596
a8287 -0.5866675 -1.4713852 0.47568047 0.038826186 -1.8092653 0.76154363 -0.52946514 0.15663579 1.8366894 -0.5630347 -0.40911746 -0.13881673 -0.6260088 -0.7318625 0.2881887 0.90104663 0.6518114 0.2770274 1.7749759 0.7624201 1.456658 -2.215602 0.68953365 1.0065442 1.2981038 -0.34360138 1.8167255 -0.0056170365 1.7217295 -0.047164805 0.79697436 -1.044969 0.3975754 -0.5497758 -0.25077793 1.0657448 -0.160729 0.17722674 -0.034533814 0.63449365 -1.6247147 -0.46982038 -0.24499156 0.79038084 1.5126966 1.8917023 1.3002514 0.55842096 0.49107194 0.2786999 -0.6896396 -0.8543998 -0.2141493 -0.20490636 0.4102316 -0.032896943 -2.9129744 0.7531346 0.6775336 -1.0038328 0.9247533 -0.03174118 0.3670376 1.5888644
c10852 0.09974668 1.2052712 -0.7177781 -0.28486434 2.0643 -0.20643252 -0.23363842 -1.7798288 1.4143115 -2.0287576 -0.03433662 0.053070597 -1.2967904 -0.022629004 0.41014987 0.22362264 -0.61498195 -0.20852266 0.95185053 0.4927661 -1.1425263 1.2536434 0.73317343 -1.1309363 -0.3876846 0.4349094 0.52509815 0.3740135 1.649433 -0.924659 1.5876037 -1.9103489 -0.08406653 -0.36644584 0.5340861 0.5582102 0.10625948 0.8059481 -1.8499383 2.4996438 -0.056927767 0.06459822 -0.35101366 0.6695538 0.15106452 0.20517007 0.5626424 -0.16130224 1.3386651 -0.4904744 -0.313527 -1.4748974 0.37762925 0.52322817 0.44466504 0.30602744 0.80909455 0.077201396 1.7363406 1.6610141 0.44289005 1.0780115 1.1071389 -1.1691247
a19620 -0.5901287 -0.97421074 0.3091697 0.46540433 0.5903399 -0.06346746 3.1739619 -0.63731664 0.12037808 0.25430417 0.28405124 0.15291226 -0.7876787 -0.6829585 -0.92117107 2.1023722 -0.89757675 -0.7457717 1.3662722 1.4395775 -0.83589005 0.07793024 0.7690634 0.24761301 -0.93585384 -0.058418028 0.4883877 1.1819048 1.1119114 1.6162572 -0.10540611 -0.6846291 -0.24181831 -1.6965233 -0.9204599 0.40191346 0.3105668 1.0171771 0.24214315 -0.8738078 -0.65189266 -0.27451482 1.938155 0.48076585 -1.047425 0.55951846 -0.043071225 -0.36457434 1.6930101 -1.0631993 -0.4459033 0.67570585 0.3578829 -1.7187258 -2.0197086 0.47153378 0.928484 -2.5569408 0.6452711 0.03322506 -0.198765 -0.47468284 1.0221691 0.80759543
a5438 1.006469 0.54972094 -0.06304788 -1.3553746 -0.44297257 0.27672657 0.9601351 -1.1222756 1.7470207 -0.39982665 -0.26543772 -0.6754963 0.46830973 -0.04867792 -0.87139344 1.5967853 -0.90280515 0.6581237 0.50312746 1.3658749 -0.08895181 0.6405996 1.0969969 0.7183919 -0.24353194 1.2390747 0.6586064 1.4015704 -1.5652043 -1.0904175 -1.2812443 0.021586297 -1.1088028 -0.111363575 -0.18061295 -0.6924609 0.58081937 0.5807653 -1.6459223 -0.79688126 -0.5871731 1.0110539 -0.5871631 -0.7582074 -1.2551101 1.475807 -0.9313785 -1.3057002 0.6470683 1.8229965 -0.89173627 1.1049699 1.493942 -0.074378215 -1.2705793 -1.0629243 -1.2411575 0.85326105 0.0054460424 -0.720883 -1.3461398 -0.3141802 0.49140134 -0.09468944
c5022 -0.22525923 -2.202762 0.4981424 0.39507082 -0.3367993 0.0843789 1.3995996 0.031609118 -0.5324791 1.2869275 -0.793081 1.0986016 1.0402833 0.1149835 -1.0543538 1.2059809 1.0225064 -0.7088168 -0.15595803 -1.02357 -0.54374707 -0.7382927 -0.6215185 0.9659176 -1.5457542 0.34894922 -0.3943758 -1.413556 -0.64315975 0.5154233 0.10031719 -0.91240716 0.8604323 0.83750236 -0.40723014 0.07914718 -0.28721735 -0.5291734 -1.7169259 -1.2805648 2.1253552 0.7560354 0.2865064 0.75604314 -0.8042381 -0.9530916 0.18894312 0.29405877 -0.37801942 0.79219663 0.5337659 -0.060249288 0.16738819 -0.930951 0.68265235 -0.19642389 1.178931 0.302178 0.15315887 -0.67357725 -0.9998107 -0.3726342 -0.44134155 0.64713496
a11611 -0.48643386 0.91586024 0.30173472 0.19695263 -0.51385885 0.84511524 0.2122257 0.2871859 -0.52146703 1.082319 0.1313105 -1.073472 0.7059838 -0.5326963 -1.5531306 0.38383585 -0.30855352 -0.32217884 -0.15654138 -0.1426548 -0.49139723 0.3046536 0.10707203 -2.0972943 -0.25560838 0.19085489 0.5437512 0.9547289 -0.15563707 -0.74653953 0.11340323 -0.59196985 -0.6250644 -0.2473742 -1.3201487 0.45300522 -0.850594 -2.048931 0.8053 0.07253038 1.1124991 1.8642796 0.64349663 -0.46393624 0.15233089 -1.2710223 0.5035779 -0.6822112 -0.75431454 -1.1356229 -1.5160272 0.8669919 -2.2252448 0.9179925 -0.04498449 -0.6775305 0.15976484 0.17623243 2.194894 -1.314034 0.8984768 -0.9860525 -0.8661231 -0.25019103
a12939 1.7851179 -0.80081713 0.15355009 -0.035346758 -0.23439737 0.6326957 -0.7554354 -1.4767629 1.6717553 -0.44921347 1.1137106 -1.7625847 1.1161009 1.9940338 2.4691527 -0.6815588 -0.151166 -0.23387985 -0.54750353 -0.45558468 1.6330837 -0.50464 -0.8568632 1.0325516 0.57465094 -0.038911983 -0.6684752 -0.8136334 1.5030547 -1.6326903 0.33448532 -1.5284399 -1.2140573 0.09746258 0.4133529 -0.06501767 -0.4696524 0.40832156 0.46893898 0.24799468 0.96049005 -1.8226801 0.8273111 0.7397805 -1.2390503 -0.04083452 -1.5155562 -0.9896758 0.24053419 0.95502317 2.403646 0.90301466 0.44687322 1.0964049 -1.1849856 -1.2431521 0.71699363 -0.71298325 -0.6173666 -0.06915778 0.007721466 0.64192253 0.19329205 1.1657138
c4617 0.14691162 -0.18561892 0.58762217 1.2512367 -0.16698572 -0.42609495 0.8653209 -0.9586649 -0.9619027 -0.48271042 -0.76330763 -0.0965808 0.35783452 0.7272124 0.7053607 1.0581216 -1.4538502 0.010710019 -0.47174194 0.009251467 -0.23351994 -1.1301886 -0.8413367 0.07206326 0.01784685 -0.9047639 -0.84559596 1.693397 0.53116083 -2.0708046 1.0170707 0.019037634 -1.8937755 1.0706556 0.8635231 -0.27554217 -0.28818408 -0.543325 0.6456194 -0.3727648 -0.5081275 -0.7626909 0.6323985 0.685623 0.60523874 1.1919807 -0.46000683 1.1276983 -0.49071562 0.40170106 0.66036516 0.027954435 1.9028658 0.33056837 0.049440436 0.28876433 0.4974164 1.7156008 0.35561204 0.94024444 -0.45367348 -0.6889094 1.6130557 -0.7041688
a18976 -2.214689 1.3415029 1.9864275 -1.6750519 -0.06678762 0.43616623 -0.5622286 -0.34169376 0.1847782 -0.13272044 -0.5937565 -0.16766591 -0.98251396 1.1791729 -1.0054219 -0.020302381 -2.2192423 -0.6990018 0.5338737 -0.86989987 1.3849103 -0.76568633 0.90678304 0.8528951 -1.232318 0.045467343 0.5241398 0.748829 -1.5970752 0.35781375 -0.015350786 1.044685 -1.4454097 -0.38935223 -0.24832405 -0.07399631 -0.022197267 0.7618502 -0.8668359 1.4910176 0.11756807 1.0603994 1.1152757 1.3068516 -0.433852 0.13437252 -0.6164548 -0.95582587 1.0688297 0.12159695 1.8708692 0.16342019 -1.0444143 -0.37283966 -0.059435427 0.15174083 -0.84582293 0.6192571 0.13000625 0.18457395 -0.9394424 -0.7701397 0.5537022 1.2209297
a9548 0.087151244 -0.7657625 0.31324655 -1.122846 -0.51045495 -0.99218345 1.7983234 -1.4034207 0.19111454 -0.6747493 -1.157938 0.16129543 0.21664864 -0.7521855 -1.1483955 0.6806537 0.6750988 0.25253347 -0.7395834 -0.30191174 0.080579884 0.2932431 -1.1569492 -0.73760957 1.8606257 1.4899714 0.34032166 -0.43693447 1.1947435 -1.2979615 -0.07620546 1.0686511 -0.29564863 0.46989968 -0.78260833 -1.3753941 -0.7663891 -0.17440528 -1.1883506 2.025959 1.580304 1.2548579 -1.6884111 0.906861 -0.7828436 0.07991922 -0.67667526 -0.15532921 -0.37622148 -1.6531632 0.4752196 -0.8543693 0.34926286 -0.36864743 -0.77646583 -0.5899925 0.26884854 0.31492537 -1.2042418 -0.19883744 -1.204323 -0.132781 1.340856 -1.4874264
a14615 -0.8211178 0.4995186 -0.36880395 -0.996543 0.3980932 0.47071877 0.8902569 -1.1061023 0.30482092 1.1981015 -0.27988523 1.1922795 0.010371911 1.4856412 0.0027274466 0.7555483 -0.29100162 0.80563813 1.868111 0.5465937 -0.110703126 -0.5176382 2.1126528 -1.7349125 -1.8948792 0.7997367 -1.723148 0.22247675 -0.30397272 -0.009950688 -0.6130879 0.057115324 -0.20053364 0.04441191 0.87773716 -0.42339206 0.22807314 -0.35178915 2.9945056 0.56090647 -0.88998544 0.08421332 1.6873668 -1.0577193 1.0583582 -1.4310224 -1.0296944 0.39820397 0.72247344 -0.1819154 -0.5059802 -0.030437713 0.10079919 0.029292697 -0.7190182 0.86641526 0.44166866 -0.95097905 0.15685765 0.60396194 0.37131727 -1.975228 0.00144771 2.0573776
c8443 1.2875412 -0.38750058 -1.0751028 0.17366816 -0.57824147 1.5668075 -0.3391207 1.2182528 -0.4551391 0.3500617 0.15948822 0.042583633 0.06915518 1.0313855 -0.17506075 2.0465379 1.0733907 -0.57155794 0.87378734 0.10658039 1.2116367 -1.0880888 -0.510323 -0.055364314 -0.56580174 0.8030688 -0.76644367 2.6399393 1.1367005 0.23013687 1.0782853 -0.9792676 -0.3180935 0.19042818 0.60442024 -1.3567238 0.4170452 -0.029677903 -2.3558476 -0.5978535 -0.0563287 -0.13246427 -0.7084792 1.4739436 -1.4245052 0.05095838 0.20489809 -0.7892534 0.21660833 -0.58952415 0.8082215 -0.069362596 0.3510508 1.1189768 -0.8424128 0.25506687 0.71943647 0.32176557 -0.097576484 -1.9239851 0.2952587 -1.0406011 0.24451835 0.49436462
a6650 -0.2470065 -1.01837 -0.14257981 0.10375624 -0.28518903 -0.026473578 -1.1330153 -0.04531746 1.6875683 -1.1898162 0.013392426 0.60663444 -0.017577589 -0.07230474 0.6173298 -0.05823465 0.24095662 0.8091372 -0.09235978 -0.57307756 0.29516017 0.53514904 1.2153443 -0.1642139 0.035223592 -0.40529415 0.044234008 -0.44606388 0.6739584 0.8447046 1.0277296 1.1526755 0.020250505 -1.6740315 1.1527978 -0.33462656 0.61977845 -0.27859 3.1560013 2.5182846 -0.11129543 0.6010523 -1.1918681 1.4848353 2.5130246 -0.26133624 -1.5510734 -0.31087044 1.900173 2.1981766 2.536125 0.5902669 0.15992469 0.31303692 0.22283952 0.770257 2.3267283 1.2276841 -0.22620556 1.4612155 -0.2355995 -1.1987438 -2.0526245 -0.6489922
a10347 -0.51784617 1.3342674 1.4355961 0.4762112 0.62710243 0.13266812 0.1743253 1.7730399 -1.3540523 -0.34591836 1.0728066 1.2163144 -0.32118994 -0.43139088 -0.24756837 1.2346885 -1.153286 0.7805195 0.5437203 1.9938959 -0.4017902 0.5934289 0.0038134158 -0.76722807 0.023000691 -0.01620036 0.13434076 -1.0712985 -0.6900686 0.7907459 1.1395252 -0.39049914 -0.81727314 -0.14622547 -0.24089822 -0.069071166 0.26723427 1.3575649 -0.84418887 1.1530535 -0.028242612 1.0313227 -1.0014071 -0.8683257 -0.73174065 0.52874976 1.3645598 1.268769 -0.6916239 -2.4429257 0.51448953 0.34147024 -0.28458366 1.5123539 1.0404817 -0.19660051 0.49877885 -1.2576916 -0.6412355 0.41995245 -0.07176093 0.10987959 1.2551311 -1.5799702
c5086 1.4074562 -0.37753567 0.30547386 0.46318135 1.8138374 -1.3099868 0.37495303 0.22592276 0.2601438 0.85332954 -0.28410622 0.38006353 -0.6702936 -0.9420452 -0.5429904 1.0841126 -0.7755146 0.58084637 1.0465527 -0.8168319 1.5646574 0.13176467 -1.0046755 -0.21733895 0.3535233 0.40991548 -0.5339905 1.0264469 0.33576772 -0.41220176 0.13903575 0.69506156 -0.16158333 -1.2641824 -0.34103698 1.2527722 -1.9990923 0.614791 -2.3546286 1.4214139 0.6275218 0.88373566 1.6887337 -0.1997887 0.11732018 0.56955916 0.05644898 1.2671391 0.50280565 1.1275846 0.10632763 0.25153008 0.036433913 1.112604 0.3276548 0.39997876 0.52093667 0.08399242 -1.4795111 -0.3005092 -1.2207471 -0.5937018 0.544263 0.025473366
a16766 -1.167123 0.7655036 -0.40134263 -1.8650774 2.0052 -1.5254538 -0.4942521 -1.5233982 -1.1686956 -0.22492552 0.25172836 0.483947 -0.67766947 -0.7671043 -0.4298714 0.6888702 -0.27056566 0.42934513 0.4127843 -1.6808662 1.9706353 0.4535944 1.4569838 -0.42011008 1.3672351 1.9081788 -1.3979644 -0.841222 -0.026903477 0.06570098 -0.38577506 -1.5380391 -1.4950004 0.6306573 -1.8490644 0.46108997 1.0285343 -0.16472055 1.3238957 -0.5560848 0.013032012 -1.3851622 0.27235216 -0.0042046723 0.4800566 -1.0222102 -0.7082761 -0.015080426 0.035365198 0.16404226 -0.27078375 -1.1324314 -0.20391943 -0.23259574 0.8116976 0.23576206 0.7032855 0.23632507 -1.0218691 -0.596191 1.0275351 2.2358232 -0.934011 -0.5044711
a4200 -0.08126343 -0.38607395 1.2595835 1.4945059 -0.18240082 -1.2914633 0.013906381 -0.67005664 0.8986268 1.2559178 0.83764136 -1.019794 0.56001216 -0.85201305 -0.41874826 -0.8545082 0.35909826 -0.9237515 -0.008083876 -0.36695647 -0.99638134 0.6109144 0.15481536 0.95821095 -1.9453892 -0.84864855 -0.22959147 -0.42295662 -2.554236 1.0658153 1.2726415 -0.4916606 -0.43651995 0.122573666 -0.23990424 -0.77262074 1.4039026 -0.88832635 -0.7528903 -1.7695575 -1.547776 -1.5992353 0.04453797 0.7488089 0.83422464 0.22463079 -0.46441653 1.1882126 -0.24856517 -0.4769881 0.54023504 -0.0635652 -0.07559114 0.9238814 0.30283278 0.757422 -0.048039082 -1.0124146 0.42096007 -1.457632 0.20077209 -0.062184922 -0.4570052 0.5884672
c5079 0.40770364 0.7402589 -0.046828102 -1.3946524 1.1726037 0.605877 0.22341308 0.67694026 -2.085525 0.4902082 0.27111697 -0.59006655 1.1129782 -0.27649668 -2.0061707 -0.3742225 -0.93033487 1.2352262 0.22052993 0.9508727 1.1202549 2.4048183 -0.278887 0.7560096 0.31321278 0.74565125 -0.47592598 -0.46909466 -0.68036157 -0.3588645 0.12717691 0.12241205 -1.2941189 -0.15625374 -1.0716633 -2.5977836 -0.1626049 0.90667635 0.4443287 -1.6242841 0.8939719 -0.3474994 0.63145715 -1.8691385 -1.094462 -0.56009966 1.0789869 -0.44442514 1.0268587 -0.44577482 -0.04502171 0.72996646 -1.5062376 2.0785637 0.8541843 0.2801739 1.9374403 0.71252865 -0.87301356 -0.67425287 0.031670466 1.1091703 0.30940038 0.89860696
a3843 -0.47635233 -0.21901236 0.32077333 0.21223615 0.4714751 -0.21576153 0.53239274 0.053389005 -0.65434355 0.66147786 0.22880352 -2.1500936 -1.2441921 -0.899263 1.192072 -0.14975616 -0.2286348 -0.21607757 -0.36524373 -1.0899353 -0.21795012 0.58216715 0.12807468 -0.40806732 0.41743964 -0.58247656 0.8200145 -1.0034304 1.6486549 -0.5776101 -0.9147716 1.0155752 0.35601178 -0.9207958 1.2174927 0.21923947 -0.15040673 1.2887388 -0.3659192 -0.15709089 -0.7582749 -0.49071136 -1.1946089 1.719239 0.64306986 0.019800592 0.6922537 -1.7243361 0.117388465 0.4755402 -0.79030836 -0.50545675 -0.44759437 0.527102 -0.48003897 1.1746536 -2.4033172 0.7720528 0.35586223 -0.9751699 0.9297899 1.210571 -0.7458216 0.32292402
c1225 -0.000517278 -0.4041512 -1.1669366 0.29953888 1.1239501 0.98719186 0.3707766 1.5647134 1.0832596 -2.0608647 0.36613166 -0.55149585 0.31720462 -2.0262582 0.2831662 -0.70862955 -1.6466361 -0.5323918 0.9891942 0.58261436 0.23104559 0.903124 -0.43146858 -2.0296643 -0.87156093 -1.2838992 0.8313221 1.7494946 -0.5245976 0.8140244 -0.2057077 1.605068 -0.33525133 1.4230447 -0.87167966 -0.18064046 -0.7726682 -1.6673799 0.83472466 -0.58130664 0.95695835 0.71527 -0.4291782 -0.03434816 -0.038054515 -1.0113482 -0.55232924 -1.0113754 -1.3599503 -0.026822057 0.100856975 -0.98240894 0.8213311 -0.59628123 0.2667411 1.076893 -1.6210521 0.33948052 1.4837153 -1.0178345 -0.16298787 -0.2561804 -0.009535179 -0.52630776
c4892 0.6480548 1.550695 0.18574792 1.0778426 0.26094392 0.099184856 -0.848501 0.60690546 0.12783766 0.6948823 0.4290067 -0.60570186 1.7609861 -0.52212495 0.9278194 0.51965916 -0.8477555 -1.5478158 -0.5488455 -0.75381666 -0.39399406 0.1337306 0.11820373 0.64101267 -1.0828698 -0.1674138 -1.453556 0.38509312 -0.37854728 0.22263782 0.74201465 0.0143562695 0.76374036 -0.86422646 0.12573339 -0.46609423 0.48654732 -1.448768 -0.6831724 -0.08688362 -1.4447632 -0.22242984 0.18216646 -0.17336825 0.46817294 0.7514475 -0.4420147 0.23886774 0.11877742 1.6677196 0.26618788 -0.8093207 -1.4557248 -0.63310206 0.04877516 1.004151 -0.69696844 -0.60285497 0.7377678 -0.89540595 -0.34522778 0.7012072 -0.65607536 -0.045981027
a2080 -0.6964746 -2.8536093 1.4912783 -0.9889461 0.5193507 -0.33595517 0.060525592 1.8203204 -0.13765772 0.1590895 -0.16654685 0.4304784 1.1641177 0.20090689 -0.8045746 -1.2651645 0.1745584 1.0866064 0.7568706 -0.3489734 -1.7675557 -0.12706038 -1.5031431 -0.97675294 -0.9771652 1.4157052 0.042481985 1.0312297 1.8599442 0.4830687 0.32242942 -1.2243656 -0.7830116 0.252247 -0.7146951 1.7853935 1.7428728 1.0001875 -0.34714606 0.84050816 2.3256662 -0.6635019 0.1120697 -0.56291115 -0.5501146 1.2277293 -0.7453637 -0.10452912 0.29928684 -0.90894866 0.2522263 0.034270957 -1.6092685 -0.85798657 0.028721312 0.98746556 -1.1799698 -0.6825425 -1.9397058 0.6812181 -0.2117007 -0.36992025 -0.6141912 0.06639207
c9874 -0.19581494 1.1061659 1.9792724 1.3047591 -0.46130693 1.3683597 0.9411371 0.6803129 0.1100976 -1.1484478 0.12231087 -0.5317985 -0.72626233 0.45011482 0.5554625 0.9838477 0.7236347 -0.28396636 1.2082031 -1.0212071 1.1709857 0.58498085 -0.5032346 0.98508406 -0.047968224 1.1125405 0.04695848 0.25145 -1.8032669 -0.37335855 -0.46392703 -0.5278563 1.2037622 -1.2142105 -0.29335773 -0.73228896 -0.5736762 0.028463045 1.0812219 -1.0113398 2.9174848 -0.0401263 -0.13546109 0.025641596 -2.344933 -0.071295716 0.9522668 0.40402132 0.21233094 0.8974504 -0.15651697 -0.52151597 -0.20971295 -1.7076467 1.2028508 -0.15335453 -1.0330793 0.3800374 -0.92583287 0.24516328 0.95083296 0.83645433 -0.28011376 -0.67408967
c139 -0.30573547 -1.0127112 -0.46835458 1.693308 0.86659604 -0.70108247 -0.19604938 1.0623839 0.80734384 -0.30086258 0.4511703 1.7105857 0.73400617 1.1826665 1.4133749 0.015291125 0.9142498 0.47176012 -0.60177004 -0.56288695 1.7422678 -1.4384996 0.2887323 -0.24679165 0.350985 -0.7926183 0.17246996 -0.3843167 0.16639648 -0.15538295 1.7613658 0.30759472 -0.34307584 -0.3663339 0.6973764 -0.046308316 -0.22124301 -0.505141 0.37987393 1.6854981 -1.2281761 0.40301695 0.035357147 -1.285316 -0.60124457 -0.5270488 -0.5150208 -1.3435535 1.2042174 -0.76601416 -0.9829283 0.43321723 1.5701778 0.29933453 0.21297733 1.4190235 0.16118127 0.34019563 -0.18819806 0.005215787 -0.41321167 0.3847723 -1.6189625 -0.40384486
a2074 -0.39804497 -1.0610139 1.6587945 -0.41999888 0.90567595 0.5182704 -0.24628225 -0.88166314 0.8486906 0.0013083052 -1.1282763 -0.9685187 1.2463039 -0.21560153 0.10339773 0.06110958 0.49298826 1.3789947 -0.21300095 0.16838345 -0.95319927 -0.6790217 0.11834492 -1.4893198 -1.0834244 0.9315501 0.39270023 -1.6125195 1.0318807 -0.7441477 0.31463328 -0.80538505 0.5446293 -0.24615452 -0.1777975 0.34757355 0.5077964 -1.9077796 -0.37830645 0.07333099 -0.07995027 0.38344187 -1.9343448 0.55465364 -0.30101478 -0.8877524 0.41402036 -0.16988915 -0.6390289 0.6949077 -0.73516434 -0.80386615 -0.3553339 0.14509228 1.0282573 -0.7471818 0.9466552 -1.8260914 -0.19838747 0.92618155 -1.1430395 -0.6159563 0.37467316 -1.2639775
c632 0.70721686 0.020605797 0.19298242 0.115788266 -2.0033114 0.40342924 0.12872441 -0.17051567 0.22717184 -0.70106065 -1.3367695 0.13928719 0.35481167 -0.8549509 2.3258102 -0.7675126 -0.2108972 0.53765625 -0.477075 0.84389096 -0.10825578 0.5296537 -0.69464105 -0.06327533 -0.374797 -0.34636483 0.4216886 -0.7719856 0.19070257 0.49914315 0.12469302 0.84715587 -0.5725934 0.12660186 -1.0677229 1.6836945 -1.5342977 1.7921889 -0.3155827 -0.15011224 0.88957196 -0.54319274 -0.62302274 -1.5290532 0.8964917 -0.91518134 -0.9518501 -1.2831959 -0.15289472 1.1343775 0.9572905 0.7432933 0.22057955 -0.64641756 0.09488709 0.034464043 -0.51620746 -0.5403773 0.35617456 -1.0283056 0.07860066 -1.0145992 -0.46415743 -1.033923
a9812 -0.4284699 0.16099279 -0.14014718 -0.66244966 -0.32646224 1.0450559 0.333508 -0.61541057 0.7236769 -0.29093546 1.0335923 0.7778155 -0.5245458 -1.4164433 0.8363075 -1.711714 1.2143123 1.5983946 -0.18814267 2.9765773 -1.965884 -1.4074814 0.6523868 -0.5116074 0.60310626 0.18479761 0.4705345 -1.5009991 0.108025566 -0.20772417 -0.004275777 -0.62727284 1.1018775 -0.3448131 -1.6691251 -0.15106983 0.9258885 1.6617206 -0.073479414 0.6885283 1.3220825 -0.28279138 -0.38023663 -1.3015372 -0.944973 -0.3052049 0.5083571 1.1782745 -0.9632063 0.6714804 2.1235456 1.0729349 0.82693094 -0.81906855 0.64944416 -0.38125673 -0.07988583 -0.45108122 0.020981338 -0.9063718 1.2186102 -0.0023020697 -2.0383573 0.56977993
a13571 0.11447372 -0.95297164 1.0169352 -0.76928043 -1.1865621 -1.3482516 0.684586 -0.3995734 -0.4566743 1.2921622 -0.9485347 -1.5493389 -0.43507472 -0.08528527 1.1669846 0.088429004 -0.19013956 -1.5634587 0.82314616 -0.85095 0.55962193 -0.09896357 1.3674359 -0.053187992 0.17387562 1.3065232 0.06339615 1.4601717 1.0525122 -1.5814755 0.075407475 1.2444143 -0.6511619 0.5374554 -1.3553233 0.32863536 1.7431344 -0.17782445 1.3252189 1.369399 0.6014564 0.80186105 0.34887302 -0.6855529 1.153018 -0.7273767 1.185076 0.83076304 -0.29981306 -0.23700993 -0.058933202 0.67275995 -0.16327678 -1.7158917 1.5014411 1.5503149 -0.05845544 -1.114608 -0.50974447 -0.41742286 0.98751813 -0.40537566 -2.6156952 0.12210737
a1416 0.41079465 0.21361098 -0.37784275 -0.75023234 1.2671213 -0.4719581 2.423668 -1.3807513 -0.5010681 -0.8837184 1.7407478 0.1271637 0.47264132 0.8062333 -0.6154092 -0.26847968 1.840295 0.6600763 -0.71643025 0.049962167 0.7904285 -0.8781223 -0.93153584 -0.3609817 0.8465375 0.68539935 0.4510716 -0.01567706 0.86498916 0.8051199 -0.76798975 -0.5503032 0.4385135 -0.21770763 -0.29137886 1.054233 -1.0874519 -0.66875595 0.051596522 -0.57772803 -0.34970632 -0.56272 1.1508363 0.010855339 -0.38291565 0.5008526 -0.02971894 -0.9469264 -0.7337126 1.7706267 1.1151326 -1.0205139 0.5285732 -1.5939889 -0.5015632 -0.5285768 0.74979824 -0.30607262 0.008902205 -0.7436831 -0.09466112 0.1662959 0.4895013 -0.2196737
a14556 0.92582923 -0.80190676 -0.41630808 -0.8794527 1.1352001 -0.33920893 0.65834194 0.17607264 -1.3857883 1.0933883 0.5781977 0.20901524 -0.7135615 0.5547676 -0.21164607 -1.2672412 1.8011394 -0.6579303 0.2451624 1.0748749 2.3604915 -0.55462945 -0.94883806 1.1764561 0.38691944 -1.875923 0.20788296 0.90199065 -0.6055768 -0.077750556 -0.11012495 -0.5366422 -0.7809787 -0.28088275 0.7671154 -0.49280414 0.19077799 -1.0904973 0.53084046 -0.30925494 0.56559324 0.3173021 0.1830271 -0.033291947 -0.44185272 -0.24848822 -0.83193517 0.26032433 1.6783129 1.1487973 0.60516435 -0.15695754 0.85727197 -1.0582496 -0.077018194 -1.0113707 -1.9228396 -0.34179834 -0.2691565 0.37317663 -0.30014464 0.68132156 -0.4200037 0.6289028
c3973 0.08798531 -0.2542178 -1.2035513 -0.31800446 0.29436874 -1.4196894 -0.34620455 -0.1524783 0.91297674 1.2135618 -1.6127024 -1.5696133 0.26513314 -0.32874864 -0.082457826 0.24374229 -0.9086985 0.096897885 -0.09408723 0.74177456 1.3830386 -0.92601067 0.24873464 0.27482986 1.3422832 0.9735135 0.3032124 -0.72872204 -0.341515 -0.12885652 1.2600348 -0.9862644 -1.1820161 1.3379625 -0.73963153 1.6213292 0.8351462 0.19904494 -1.0301377 1.9108922 -0.14174832 -0.49423018 0.72782755 -0.55864936 0.6383422 1.1796542 1.8793441 0.5489109 -0.7381156 -0.07885889 -0.31578937 0.7413378 -1.0394418 0.96123075 -0.95260495 -0.7437142 -0.4436137 -1.2076997 0.83620775 -1.0970745 0.0022686908 -0.7387014 0.72637534 -0.38922337
a14980 0.2759264 0.7422867 0.30435944 0.83023083 1.7071427 1.0360029 -0.5588803 0.4293193 0.35676908 0.3200761 -1.7139306 1.2212139 0.12463909 0.3559401 2.022815 -0.6093227 -0.14741881 -0.39181212 0.2707113 -0.507602 0.5189502 0.55429876 0.7999237 -0.8859416 0.19787744 -2.381022 -1.1506655 0.78866225 -0.7990414 -1.2328113 -1.733436 0.3673182 -0.6819719 -1.0782442 -0.8340647 0.92067325 -0.97061026 0.63778526 2.4100616 -0.25764242 0.037020806 -1.9508071 0.27011487 -0.5055051 -0.5883097 0.7475355 1.1311826 -1.4275833 -0.37279773 -0.85448337 -1.024073 0.8624668 -0.40152207 0.3453832 0.6292976 2.4678023 0.40595794 1.7077457 -0.6956824 1.5477873 -1.0029294 -0.3464616 -0.03940607 1.6636019
a11559 0.50513023 0.2994901 0.8485577 1.3934488 -0.16869952 0.17096633 0.3468226 1.4507393 -0.07052116 -1.2417887 1.473467 -0.32059216 0.20978364 -0.09148357 -0.2700044 -0.68926764 1.9985032 -0.15427248 -1.5052842 -0.9361513 -1.0542321 0.19656661 -0.61882985 0.63930285 0.8127326 0.69641876 0.2416282 0.4089517 -1.1467695 -1.4723011 -0.8144765 -0.9592012 1.065269 -1.4239739 -0.74291426 0.6979121 -0.3562744 1.751675 1.2295536 -0.09170134 1.4565052 -0.32734704 0.18816495 -0.23676558 -1.288625 -0.06859436 0.98412037 0.90979916 0.82205987 -0.10656027 -0.009624625 0.9245369 0.54917294 -0.09648399 0.18540446 1.0120528 1.3824955 0.15386602 -0.9363326 -0.13784334 0.47513956 -0.028128423 -0.5399703 -0.19040988
a14408 1.6933472 0.8919371 0.35010633 -1.2038 0.11501427 -0.118453145 0.2424861 0.57688826 0.39815876 0.21784586 0.27691197 1.2315629 0.37288874 0.19428083 -0.5614192 0.16030446 -0.0035215523 2.1518817 -0.09676672 0.7393635 -0.32245526 2.0037363 -0.7618604 0.15924622 -0.14606537 -0.79910165 1.2919744 -0.7385501 -0.46171486 0.35069042 -0.27102047 -0.722491 1.1141975 0.1512891 -1.5322496 0.19148989 1.5582879 0.54666936 -0.63937193 -0.06546529 -0.49383447 1.1985925 -0.8335542 0.34157738 -0.70359087 -0.7294491 -2.2855263 1.5992789 -0.052266594 0.56048423 -1.009332 -1.0061595 -0.41005293 0.06639559 1.0002115 1.4800911 0.75365466 0.5098076 -0.37227318 -0.5002337 -0.96671367 -0.8447884 -0.031073205 1.2197905
c7499 -1.3986142 0.8917605 -0.26402864 0.72628117 0.09136461 0.66812384 0.3217186 1.3861083 -0.985261 -1.1733958 0.29577723 0.6334859 0.16667356 0.94222087 0.3646257 -0.013650129 1.2137907 1.7214136 0.5278696 -0.18217684 -1.3795292 -0.42534378 -0.111928314 -1.5365733 -0.15524969 0.33280176 -0.53876317 -1.132037 -0.7506039 -0.37900758 0.18773387 0.95801187 0.16778114 0.42304283 -0.020369995 1.0787424 -1.2099141 -0.7235828 -1.0640032 -0.5273916 -2.7349353 -0.8691794 0.53651273 0.23920822 0.037939038 -0.9905933 -0.095980234 -0.1905165 -0.02474919 -1.1591375 -0.6999487 0.07135384 -0.14940433 0.66104597 -0.025476951 -1.5790719 -0.4816148 -0.8964456 -0.7537698 -0.14071958 -0.70975983 0.17446125 1.7285031 -0.4412943
a9619 0.5712912 -1.1483264 0.023102408 -0.1579343 -0.13345021 1.1632073 -0.36298236 0.9527409 -1.135752 0.7552185 1.7195255 1.1544532 -0.5948984 -1.5213526 -1.3538197 1.634343 -1.1005206 0.38232803 -1.1414016 0.055229366 2.1252027 -0.71248436 0.37430084 -0.067083254 1.4158657 0.7530858 0.5606261 0.16158731 0.6950488 1.5992599 -1.2264658 -0.7453495 -1.6427314 0.08831068 -0.9991133 0.42348626 0.22839905 1.3287736 1.0379899 -0.13719533 1.688013 0.74195945 -0.22384809 1.2765552 0.47496235 0.04115208 -2.6907396 0.2932869 0.34983575 -1.8634372 0.8830721 0.68553025 -2.1509192 0.10100777 -0.17518651 -0.9663782 0.52927494 -0.8695415 -0.35440153 -0.8315294 1.5926735 1.0718663 0.8713255 -0.08932043
c6432 1.6963809 0.56961143 0.40864733 0.445943 0.18901597 -1.0399059 -0.3427496 1.4437579 0.113294795 -0.3842116 1.3220472 -0.37056136 -2.3453653 1.2182825 -1.039144 -0.112116 0.37478673 0.9258098 -0.27827087 -1.4503971 -0.6983835 -0.9212616 2.0211978 -0.8964599 -1.4682654 -0.28995743 0.42515978 -1.6985762 0.14056462 -1.8150955 1.5377506 1.5732553 -0.39138654 1.7425554 -1.7892576 2.68659 0.24699134 0.3364414 0.39597574 0.4145635 -0.88041466 1.2631091 2.1728446 -0.42670816 0.12628153 0.18502608 -2.9425898 0.25118658 0.839515 -0.14245361 -1.6808083 0.34530446 0.8608255 -1.4887407 -1.1263953 0.6481508 0.2279734 -0.62925446 -1.7617072 0.6447571 -0.37054098 0.13994072 -1.2827884 -0.37475744
a14967 -0.4971424 -0.9362663 0.40254676 -1.2946451 0.19126858 -1.7706854 -1.2408786 0.0015195757 -0.73503065 -2.213598 1.4916825 -2.0677245 -1.8225203 -0.34854057 0.5692582 -1.0186255 -0.11041223 1.5107083 0.37931967 0.8834549 0.33902326 1.4220821 -0.90266526 -1.513925 -0.72761613 -0.4264678 0.6742385 0.89495856 0.5718637 -0.41766348 1.1463101 0.026502669 0.54178524 -0.00028522126 2.886044 0.45877838 -0.076313026 -2.2537956 0.4071422 -0.38885066 1.0572585 0.04689527 -0.55012256 0.72555053 0.29425362 -0.117121056 0.15255557 -0.11904509 -0.48942083 2.9609022 -0.73522496 0.39165086 -0.86432314 -1.0152675 1.1342648 1.1665962 -0.42942184 1.6756893 0.90735686 0.5485411 1.5773175 -1.3245622 -0.3172587 1.2069404
a9446 0.63936955 -1.0281879 0.7827638 2.9210994 1.271054 1.6033067 -0.741076 -1.3064057 2.0772657 -0.25842834 0.38549626 -1.5697542 -2.0494084 -0.9768801 -0.62231934 -2.3892777 -0.09600636 1.412831 -0.12023555 -0.056315497 0.24969055 -1.1246722 -1.0391624 0.8059987 -0.93808585 -0.24879287 -1.473964 -0.08566156 -0.8282648 1.6803633 -0.5128063 -0.7991281 -1.7504385 1.5935106 -0.92920154 -1.2191957 0.70909214 0.5983331 -0.8859694 -0.38228175 1.4471288 -0.8185145 -0.48932025 1.2915691 0.89986444 -0.25795233 -0.79022545 0.8652793 1.2248228 -1.6219541 -1.3589394 0.8848744 -1.2265968 0.47921282 -0.6211982 0.17921805 0.71506745 -0.9793425 -1.4974784 1.0211782 -0.21768741 1.5634333 -1.5249752 0.16452001
a3747 0.22512494 -1.3319305 0.012374476 0.7862198 -0.14533499 0.3452551 -0.27555978 -0.2785649 -0.6854853 -0.48440152 -0.8800497 1.2052763 -1.3515508 0.84093094 -0.44604057 0.56168604 -1.1929656 0.94708395 -0.99881023 -0.28293023 0.35757458 0.6501596 -0.7522194 0.40808153 0.42976025 0.97997075 -0.025987858 1.4150922 -0.7378398 0.006452646 -0.060409907 -0.6106316 -0.28032932 0.6399426 -0.3252537 0.23012105 -1.0705335 0.79012984 -0.18498027 0.47588974 -0.46709213 -0.07995287 0.7224424 -0.31498685 1.3412424 -1.3058321 0.13143605 0.39775896 1.6794109 1.4434222 0.8331428 -1.499851 1.9574181 2.4533265 1.1168038 0.18909536 0.33756408 1.040061 -0.78793854 0.7057154 0.2479005 -0.084306665 -0.34696993 -0.82981545
a12199 -1.0536728 -0.7141154 0.5481217 -0.123563 1.3105271 1.2483265 0.070631385 -0.6249992 -1.723943 0.34372774 0.36213306 -1.2789578 -0.016348563 1.4660982 0.21316631 -0.9823357 -0.13535556 -1.7351508 1.024936 1.1937206 0.98257345 -1.2227018 0.316489 -1.6354126 -0.6145239 0.05222334 -1.2488002 -2.1952236 0.39901498 -0.5332398 -0.56660646 0.30243105 -1.1346157 0.16086864 0.9049301 -0.8526601 0.5838903 0.013276285 -1.1099348 1.7833039 0.8353848 -0.6124091 -0.4341134 0.103082076 -0.1658889 -0.5067091 -1.2230012 -0.7286149 1.3968285 2.8307943 0.7047022 -0.2419305 0.07540631 0.22634956 0.5596938 -1.0443854 -1.5108773 -0.19226412 -0.045951918 1.4998921 -0.63379854 -0.8690707 0.5906775 -0.14931956
c7244 2.2719321 -0.24958251 2.1537268 -3.0699115 -0.012756388 -0.7449123 -0.14898637 0.98318243 0.6383308 1.5087272 -0.026870742 0.16950008 0.17757142 0.8202272 0.3608714 1.3784729 -1.0988785 -1.1585209 -1.6664346 0.5897306 0.6228622 -1.2081861 -0.62354827 1.0419964 1.0376151 0.7019833 1.1506158 -0.7649646 0.15998252 -0.16086099 -0.45587373 -1.5774188 -0.5460255 -1.1607641 0.45486087 0.8371138 1.5042418 -0.7425264 0.8426356 -0.030288382 -0.4614327 -0.6294959 -0.16034554 0.26250592 -0.4106653 -1.4491088 -1.1350383 0.046762034 -0.28921792 -0.25690207 0.7142273 0.90852803 0.32540834 0.25479427 -0.20062567 -1.5843931 0.37585592 -0.2110369 -0.63349605 1.7136827 1.9522243 -0.15521285 -1.4532032 -0.6454905
a11045 0.38444737 0.31053263 0.45777628 0.81096905 -0.93493307 -0.47225723 -2.6809416 -1.1523737 -0.26070407 1.3092108 0.44018632 0.11603342 0.49881306 -1.5043218 -0.6030946 -0.27514574 0.20403011 -0.33634898 0.4125591 0.51180077 1.6120003 -1.2820828 0.7473554 -0.5199015 -1.1666665 0.68658197 -0.05232961 1.3453965 0.7668236 1.6534522 0.31014827 1.6738693 -0.27522647 0.31040064 3.4305835 -0.93288016 -0.56948656 0.9533991 0.31381503 0.68760544 -0.36428687 -1.4342474 0.41228393 1.1615139 -1.1797274 0.27828947 -0.23172823 -0.3626222 -0.46872857 -0.62509036 1.0621569 -0.02922783 0.5572539 -1.1504458 -0.14050569 -1.9326537 1.5694321 -2.5092072 -0.13416286 -2.3803701 0.09281913 -0.79850984 -1.1635875 0.8610846
c7597 -0.46930432 -0.45984054 -0.0254387 0.5314878 0.5261695 0.25795305 1.7914699 0.7170515 0.6942657 -2.866098 -1.0791152 -0.16164891 0.07937262 1.5556867 1.7299957 1.4681488 0.6140154 2.5026925 -2.2529383 0.7156847 -0.19738294 -1.7062403 -0.04447233 0.98816395 -0.042027745 0.3219967 0.1714083 -0.092436746 -0.6023567 0.6086014 0.68877196 -0.457072 0.6166769 0.85943407 -0.38965824 -1.8580738 0.6311168 -1.160937 0.8826603 0.75425863 0.5246922 0.21816182 -1.2273188 -0.55436313 0.23357373 1.0475451 0.69647264 0.22622074 0.24286939 0.5159963 -0.747849 1.5960135 0.1260472 -1.0531082 -0.48916736 3.0665786 -0.7720455 -0.7505099 0.9741789 1.033729 0.82173 1.3719226 0.80369866 0.07659129
a12506 1.0489316 -0.10847237 -0.06858733 -1.2888169 0.36667055 -0.44250014 2.0854785 0.507015 -1.0363181 -0.24980894 0.26357153 2.760561 0.28173634 -0.6418728 0.01322376 0.39354876 -0.381135 -0.0820121 0.46708328 0.48666462 0.4377449 -1.6223576 0.35863322 0.22994207 -0.38882262 -0.5870185 -1.3376598 -0.38271523 0.74340874 0.06853963 -0.7297198 0.18787861 0.10789396 -1.6216326 0.5716354 -0.19115964 -0.5819692 -0.4960393 0.55114424 0.97258127 1.0134184 -0.22584026 1.5090023 -0.7790788 -2.517475 -0.23904338 0.2507946 -0.59212965 0.9698471 0.5536103 -0.029265825 0.340449 -0.18912062 -0.79774183 0.5854278 0.53037584 0.85325724 -0.84185535 0.32471666 -1.5673397 -0.29025272 -0.021255113 1.8766053 -1.1604705
a9811 0.2560583 -0.23288736 -0.05974697 -0.6960686 -0.2087482 -1.2717068 -0.2355335 0.57840526 -0.93635994 -0.13286056 0.12064505 -0.47942773 -1.0773093 0.6397892 -0.3064192 0.43957216 0.4026155 0.10962054 0.2525217 0.0027451236 -0.5839129 -0.33080027 0.81711495 0.10718212 0.034819108 0.8552322 -0.09798988 0.08153938 -0.01987205 -0.011856858 -0.48269722 -0.13555008 1.1300913 2.332185 0.5202191 0.22977354 -1.2592851 0.6516219 0.6689406 1.1569673 -0.002526924 -0.3542217 -0.1478781 -0.54448473 0.41142565 0.38156706 -0.48582047 0.248651 -0.750081 0.21737589 0.3217332 0.22300924 1.4653438 0.60812616 -0.19833519 0.16482674 -0.703039 -0.6216664 0.47315422 0.77582073 0.19346566 -1.2747715 1.2243236 0.87213224
a7855 -0.49208882 0.84526765 0.13608441 2.2389297 0.5373589 -0.030127099 1.9826815 -0.24396661 -0.22750524 -0.7021679 -0.8479719 -0.78113997 -0.6780947 0.8846801 -1.1547711 0.842976 -0.4041152 0.96820295 0.5725325 -0.42354488 0.00047690998 0.3478413 0.32821617 1.0216404 0.052435007 0.14289272 -1.0194896 -0.05806608 -0.20247447 -1.5024822 -0.15622109 0.48462266 -0.70711017 1.8921472 1.0286782 2.0643506 0.83246046 0.06908025 0.19262028 -0.3617526 -0.07898656 0.272773 -0.07669205 -0.18718371 -1.2594275 0.027187683 -1.1536794 -0.69611394 -0.18388872 1.0673171 -1.032463 -0.21678132 0.1644399 -0.3793472 -0.33482245 0.6419268 0.8643809 -0.55481946 -0.7233185 -0.39469454 1.2001635 0.047085524 2.493846 -1.2158924
a10354 1.0440905 -0.36109236 0.59448916 -1.364919 0.53192866 -0.23932372 0.18674396 -0.12919067 -0.46192887 -1.0930558 0.72634315 0.7080637 -0.7295662 0.71242446 2.476464 -1.2182913 -0.8761969 -0.4414067 -0.74220634 -0.3945525 -1.132853 0.14277151 -0.3805885 0.8199519 -0.65515447 -1.2598379 0.5005749 -1.0841464 -0.24200349 -1.4462858 -1.5728616 0.17141911 -0.43814808 -0.6189376 -0.6000151 0.52535945 0.11776373 -1.8867018 -1.5482221 0.79935664 0.49108213 -0.3321783 1.0391409 -0.31391975 1.1250402 -0.4014741 0.13345483 0.93806875 0.010558659 -1.2581185 -0.15454035 0.6695523 0.9786399 1.085994 0.33685133 -1.1633732 -0.34285757 -1.6650983 0.5499327 -0.86349434 -0.27618453 -0.7017088 0.71027046 0.4837032
a15349 -1.0035707 0.36650923 0.39915895 0.35784432 0.67385036 0.4081975 -1.3799903 0.48833537 -1.1293188 1.1527728 1.2911594 0.6662465 2.108078 1.0327201 -2.2098832 -0.6645686 -1.8353552 0.28164154 -0.13722256 -0.35029164 -0.23224574 -0.035249725 1.1922637 1.9415941 1.2878408 0.88655186 0.21145837 1.3351352 0.59760267 0.07926318 -0.49168357 1.3759716 -0.50831026 1.1530129 0.13439444 0.009064639 0.5072849 -0.41273683 1.1476452 -0.094633564 1.9621763 1.0070816 0.8231112 -1.6199725 -1.285984 -0.31816185 0.34960622 1.4845592 0.22320572 0.119127415 1.227085 -1.0808016 1.4030893 1.463883 1.3986338 -0.16585967 0.8811369 -0.7433945 -1.3620263 1.338139 0.74789023 0.8507976 0.9022924 -0.88099784
c5198 0.012953999 -0.3766918 0.45621577 1.0477117 -0.10900749 0.67567974 2.0015004 1.8658463 -1.0399064 0.53517777 -1.1067297 0.018913181 -0.68170065 -0.3731886 -1.3960685 -0.0020943128 0.45621097 1.2593323 -0.07756706 1.5731798 -0.2875984 0.2250735 0.39832753 1.0509367 1.7618104 -0.4616341 -0.4438578 -2.5852797 0.67030036 -1.2834246 1.694075 -0.07202993 0.24756025 -0.023849444 0.624511 0.12662554 0.73925436 -0.6130781 1.7406334 0.4452481 1.3509194 0.25774124 1.2628789 1.1009051 0.00626081 -0.51373917 0.68224037 0.71891147 0.1123844 0.16680823 0.11919254 -0.24319102 -0.39292517 -0.6179773 1.3593708 -0.18300836 1.5694145 0.928824 -1.1388707 -0.8727668 -0.07769932 0.9580603 0.19257656 0.12525685
a4395 -0.9596068 0.87031966 -0.93481916 0.23927335 0.66009206 -0.3220882 0.90774775 -1.5198413 1.1488739 0.8207142 -0.08452579 1.6860182 -0.041525804 0.30288383 -2.4727232 -0.9245914 -0.5634872 -0.5799277 -0.9578127 0.33853728 1.1634291 -0.11928422 -0.5881513 -0.7963147 -0.27440473 0.21478064 -0.35562038 -1.2183911 0.99239385 -0.23910877 0.34429154 0.11565523 -0.13642968 -0.75250745 0.13831162 0.6855123 -0.034646977 0.29539308 -0.94694895 -0.37796178 -0.522798 -0.5160647 -1.3969704 -1.0162389 0.93506294 -0.75067294 -0.050901335 -0.43641508 -0.445284 -0.8901648 0.26117176 -0.5045355 -0.4674326 -0.23267603 -0.46898904 -0.28080925 0.8925443 1.1957756 0.3002228 -0.70653677 -0.6307555 -0.25434485 -0.66650003 -0.8760408
a13523 -0.1233914 -2.1589944 1.2141792 -1.3706037 -0.2963117 -0.55182827 1.5159324 0.5230133 0.60518414 0.66111743 0.7833847 -1.6845707 0.24436744 -0.5272092 0.18376465 -0.14393817 0.4405832 0.8961219 1.4481909 0.7755759 -0.14595467 -0.5850538 1.7350547 -0.22097127 -0.915404 0.29158363 -0.0018071793 -0.760556 -1.0236278 -1.3725713 1.42962 -1.6653336 -1.0668802 1.7344494 -0.76882124 0.0049226074 0.6079026 0.32786876 -1.075709 -0.6626875 -0.8001422 -1.4529548 -1.4112484 0.05844425 -0.94846237 0.1621857 1.5208666 -0.88798094 -0.19853167 -0.4410783 1.192157 -0.9987151 -0.4017694 0.22202729 0.26064274 0.9639777 -0.6157325 -1.3124554 0.47626558 1.3822416 0.8545898 0.39296183 -1.2000527 0.521386
a11560 1.6852522 -1.4469873 0.9267655 0.6069065 -0.96707827 -0.49920416 1.2402419 -1.6642766 0.5311448 -0.76920736 -0.7111487 1.0941173 -0.9161633 -0.83446914 1.6038269 0.3326344 0.97360945 -0.56773174 0.22064033 -0.7789415 0.8123216 1.141331 0.42302456 -0.099710606 -0.9988954 -1.0077567 -0.4541268 -1.241778 -0.14005414 0.34834716 -0.19595028 -0.0946727 -0.5042631 0.051843293 -0.1507269 -0.7108579 0.77370864 -0.5101114 0.7012416 -1.829719 0.8030698 -0.74839693 0.7822015 0.38526487 -0.11236495 1.2313948 -0.3179875 0.72837764 0.6582817 0.3286915 -0.21813415 -1.3959668 -0.5162952 -1.0853872 1.1307511 -0.070304975 0.5793963 0.2937914 -0.36522388 1.4153543 0.5176768 0.76017964 1.8759128 -0.29078063
c11009 0.9187809 0.72815907 -0.3600649 -0.124961056 -1.0774264 -1.5436723 0.36585858 -0.0902891 0.29788277 -0.32791847 0.45851988 0.7017374 -0.45491654 0.9576815 -0.08354354 -0.11908066 -1.9779347 -0.027385192 0.93909323 -0.66293603 0.18993624 1.4008135 0.41141528 -2.096377 0.37633628 0.6838346 -1.1697797 -0.5498228 0.18542117 0.99972993 1.8573513 -0.3553865 -0.7983282 -0.25130594 -0.17547482 -0.48479274 -0.11462791 -0.15839548 -0.46330035 0.32440102 0.766161 0.025277501 -0.6946718 -0.62961274 0.18743832 -0.20014551 0.20342863 0.14322573 0.8314952 -0.54439664 -0.59296346 -1.1193563 -0.009121077 0.21957219 -0.90307206 0.32149836 -0.67102736 -1.1668948 -0.79332405 1.8310505 1.0137264 -0.47179872 0.50381434 0.44620728
a10683 0.27076963 -0.87830013 0.62654144 1.1389568 -1.7692171 1.1607856 0.990978 -2.623394 0.6546478 0.8886383 -0.8138208 -0.046350803 -1.8459337 0.28031 0.33453837 -0.9685221 0.49346268 -0.60407585 -0.616668 -1.3241452 0.16344722 0.6770108 -1.5121287 -1.377029 0.5313003 0.88124233 1.2913997 -0.8775344 -0.7505802 -1.4781429 -1.6058099 -0.73583853 0.5726633 0.8117995 0.9210338 -0.1588076 -1.7063168 -0.19361874 0.89062124 -0.89752334 0.7842593 2.5741146 -0.59540606 0.25196895 -0.9235807 -0.62155795 0.28119776 0.88605696 1.6933678 -1.0047632 2.1617172 0.19012675 -0.078661494 0.53380555 0.4833222 -0.36839074 1.1426871 0.017152075 -0.8406629 1.4537134 -1.9467921 1.0525254 0.43337584 0.37336388
a7156 0.72794265 -0.35852632 -0.06380652 0.359696 -0.5102607 0.042835094 0.18703991 -0.7177454 1.6306965 1.849037 -0.8680489 0.7930445 -2.0960064 -0.59069586 0.6878588 1.3657817 0.23439974 -0.58920765 0.011098772 0.4777671 -0.6552746 0.19580586 2.3431199 -0.46816996 -0.597237 -0.0055404566 -2.0965831 -0.9829417 0.31073067 0.4303731 -0.3128748 -1.3800054 0.3418622 1.9742248 0.1289971 -0.20978811 0.268346 0.1274257 -0.5882294 0.13926871 0.95373756 -0.8297876 -1.2147646 0.05597597 -1.0263855 -0.23672272 0.17019603 0.20562124 -2.9122617 -0.06390791 0.7103603 -0.91685647 0.79494864 -0.59537095 -0.50873786 -0.5787073 0.9757575 -0.14375001 1.1848943 0.09584167 -0.050332416 0.46289206 0.24521868 0.4265338
c3866 -0.22123373 -0.68695956 -0.20116681 -0.96006477 -0.65932107 -0.46316916 -1.103538 2.695421 -0.20087846 0.0932101 -0.42243665 -0.71263105 0.6639084 0.89104867 -0.81669575 -0.24932154 0.077651925 2.123277 0.87948287 1.371264 -0.54860973 0.8668344 -1.5746102 -0.15257773 0.046016272 -0.24953227 0.76907974 2.272243 -0.692297 0.4945794 1.2623576 1.1223578 0.90811086 0.56842226 -1.1199044 0.56292766 -2.451825 -0.76813734 0.78619975 -0.96572995 0.64936113 -0.48482183 0.87268263 -0.85897934 -1.1305411 -1.1482531 -1.3965142 -1.287078 0.12379148 -0.12602238 1.702421 0.77941424 -0.5157593 0.27380446 -1.1059945 2.7066205 -0.35947958 0.7997802 0.12941596 -2.2627647 1.5314529 0.8441754 -0.4322964 -0.14156678
a11983 -0.39545083 -2.0443714 0.21071137 -3.0695648 1.9991587 -1.7402606 0.57206154 0.079103395 -1.2660631 -2.5108411 -0.7659265 0.77189726 0.22945769 0.53492963 0.2223466 -0.107256435 2.6788583 -0.6408185 0.42543137 0.14277719 -0.030714046 -0.5305233 0.61257696 -0.18774419 0.5382152 -0.4297787 -0.6098556 0.68162566 -2.3173459 0.195417 0.32008553 0.97374815 -1.0353425 -1.1786592 -1.3513196 2.2054343 2.125291 -0.77525383 -1.4665755 -0.069007054 1.2921685 0.52215266 -0.17307039 1.0724415 0.26417127 0.8229853 0.8027255 -2.5119803 0.7397914 1.8792937 -0.14487264 -0.048369262 -1.1580322 0.24845432 1.5279388 0.034476545 0.98804253 -1.4455181 -0.26313087 1.0880723 1.5889202 0.71639925 -1.2163596 -1.010855
c483 -2.2036057 2.3378863 -1.3900278 -1.8825456 -2.3130114 -0.30568045 -0.6549283 0.76023215 0.060938973 1.8210816 -0.8162166 0.40879288 0.35786942 0.5470928 -0.010023871 -1.4093167 0.9831893 -0.9739715 0.31433442 2.2129881 -0.6267787 1.0244823 -1.2050145 0.9805241 0.32178122 0.8652566 -0.875831 1.9609743 1.3563913 0.4176791 -1.2933923 2.4540186 0.8286465 0.397026 -2.1059213 1.3471954 0.95221275 -0.9158164 0.85938233 -1.769151 0.32538325 -0.7022133 -1.8825577 1.2422311 0.37561375 1.1696806 1.4510716 1.918069 0.82633513 -0.18392074 0.98452234 -0.4588467 0.142067 -0.6501545 -0.107447185 0.18926723 0.95484996 -0.20048681 -0.26875708 0.9225287 -0.3262044 0.0048013763 1.2209252 -0.3826563
a12303 0.42381483 -1.0467098 0.3250799 0.16539805 -0.985835 0.16133784 0.8102362 -0.25601867 -0.8819145 -0.6350225 0.49551445 -0.06731874 -1.7268704 1.903595 0.103025526 -0.7958724 -0.4146738 -0.23971315 -0.9195469 -0.943711 -0.41539714 -0.29680455 0.050981406 0.6045762 0.48768494 0.34950888 0.3567863 -0.8928735 -0.5300327 0.01602699 0.9318134 0.6715274 -0.33912575 -0.06349464 0.922246 -2.584219 0.43078083 -0.046896625 0.8087632 1.4694811 1.4898607 -1.6714649 0.8052101 -0.95350003 1.307713 0.9757137 -1.68292 0.40249237 0.42499274 -1.0579741 -0.2938725 -0.666116 0.13698483 -1.3654603 1.6586837 1.250636 0.115283884 -0.22083116 1.289142 0.6391364 -0.0056112697 -0.5654485 -1.6333995 1.0030379
c5388 0.92754734 -0.49524653 -0.90633804 -0.9132063 1.4737376 0.82592976 2.1077762 -0.29008573 -0.2550078 0.4463915 0.55255216 -0.37926352 0.3250413 1.7692714 0.69912624 0.018979548 2.260376 1.0206865 1.6019096 -1.4290595 -0.9819646 -1.4658291 1.8588227 0.2663053 -0.05078339 0.40399987 -0.25155148 -0.12132188 -2.0579426 0.38136107 -0.82222134 0.82855076 -0.086535886 -0.93945736 2.244123 1.0757421 0.9155075 1.73407 0.2883176 0.2491419 0.34691516 1.116788 -0.8920652 0.12962197 1.5619599 -1.5230901 -2.73488 -0.20807481 -0.20125578 0.08059622 0.75966907 -0.62817067 0.82214653 -0.6036708 0.92960393 -1.7448609 -0.73976845 -0.2646091 2.038769 2.683301 -0.17846528 -1.4111352 0.76141 -0.33551118
a19945 1.4072034 1.1752273 -0.013513284 -0.48445857 1.1884061 0.87312436 -0.19746274 -0.862924 0.56904703 -0.9183389 0.35744768 0.13082702 0.09397525 0.017166754 -1.7778512 -1.2159929 2.6272233 -0.46323335 -1.7780962 -0.083516225 0.78641695 -1.2007697 0.46618912 -0.6031438 -1.1662129 0.021479618 -0.26579505 -0.33024448 0.2772465 -1.2650543 0.42402822 2.3144634 1.3692795 -0.20340776 -0.15467764 -1.6313009 0.3443324 0.79877585 0.9996785 0.5795972 -0.8212274 -0.33955753 0.67933375 -0.9965979 -0.8547436 -0.42893156 1.7490101 0.8895572 0.6291929 0.14330524 -0.20828228 0.30056936 -1.4589597 0.2916586 -1.7100593 1.9555411 0.01896219 -0.309483 -0.32095388 0.21102577 0.58291215 -0.5538232 0.71322703 -0.6448606
c12325 -1.2906162 -1.9745674 0.3528619 0.55661523 0.55501825 1.4904163 0.26317054 1.2455281 -1.5037658 0.84765905 -1.263672 0.64775497 0.8788634 0.89356947 0.19586599 1.4491476 1.0045122 -0.1830355 -1.907137 0.30250403 0.55347663 0.38335034 -0.4051056 1.3626331 0.61811334 1.9650089 1.5588125 0.010294626 -1.6015683 0.1036189 0.22295204 1.2833499 2.3834295 0.0127306525 0.091755345 -1.0465316 0.39039487 -1.2113756 -0.6278322 -0.25942975 0.29659775 -0.3297699 0.95152336 -0.5997273 -0.6507314 0.6581428 0.23368168 0.5788532 -0.5329931 0.094589405 -0.48336348 0.17524907 -0.36772153 0.7703139 0.7076238 -0.26942208 -1.724714 -0.20257992 1.3782107 -0.462444 -1.952985 2.079453 0.5199423 0.62808895
a15408 -0.57651305 0.8469745 0.16467586 -0.3263234 0.048076443 -0.15247926 -0.04578117 0.57797766 0.25810453 -0.57615864 0.43016195 -1.9567603 -0.7131122 -1.2193433 -0.19734837 0.055392995 0.8124847 -0.110876605 -1.2183782 0.8844346 0.4258441 -1.7910573 -0.64661735 0.47336957 1.2873626 -0.72687346 -0.5586591 -0.31138 1.3499842 -0.35559776 -0.5598015 1.2057962 0.2835563 1.0470473 -0.6119699 -1.9994615 1.2947754 -0.1800618 0.89246154 0.7024448 -1.3758426 0.37703505 -0.6034693 -0.8976637 -1.2488793 0.42093784 0.37372455 -0.63479435 0.3635624 -0.40229937 -0.6543364 0.12010793 0.70181376 -0.21038748 1.0050956 -0.012486866 0.6005782 0.10907082 0.22283748 -1.4375725 0.3752124 1.0650908 -0.3948501 -1.2114947
a931 0.2526317 2.3660772 -0.8902293 0.37054664 -0.24605547 0.22184862 -0.29692063 -0.40004376 -0.36210454 -1.5492659 -0.11648565 0.035918936 -0.52227676 0.4590693 0.9196806 0.13906327 -0.021267109 1.0196786 -0.67173904 0.81960005 -0.34343505 -0.74070776 -0.19134203 -0.04927802 0.92442775 0.71695155 -1.5548257 -0.01660657 -1.3298857 -0.67849785 -1.4186071 -0.73090994 0.9429253 0.6275895 0.93806064 -0.5693678 -0.12887107 0.060432088 0.3704791 0.6717002 1.2370601 -0.07711172 -0.7388455 0.013699371 0.16102725 -0.32078874 -1.0480716 0.31988665 -0.2847414 -0.97853017 -0.7750484 -0.047291525 -0.15488993 -0.8263057 -0.69769347 1.5630006 0.45697954 -0.11106569 0.48515517 0.55940944 0.07199135 0.9723432 -0.7439816 1.6087157
c3214 0.022306843 -0.059915017 1.1018828 -1.2220374 -0.62423515 0.8689066 0.52828634 1.9125904 -0.37153113 0.61008257 -0.16421817 0.6920068 0.42034084 -0.31042385 -0.20966758 0.34101796 -0.40992555 -0.1269171 -0.5968115 0.015995085 -0.5239386 -0.08867564 0.18676357 0.12303679 -0.5944145 -0.3124365 1.2126184 -1.047031 -0.61259955 1.4118848 -0.642298 -0.9260945 0.89948744 -0.52866787 0.6323335 -2.9414656 -2.5925913 0.019208737 -0.30532596 -1.533468 -0.59662414 -0.6009446 -0.9368237 -1.2167444 -1.238096 -0.39758086 -0.38473836 0.5378319 -0.31637347 -0.5824642 -1.1670333 -0.37489146 0.8076975 1.0328686 -0.5653752 -0.12473719 0.46288925 0.54380214 -0.37501478 1.7587111 -1.8892576 1.3435711 -1.3794502 0.46073523
a5038 0.55662733 1.0376427 0.60938627 -0.2080201 0.53235334 0.16428179 -1.9239919 0.3510418 0.17824766 -2.1648605 -0.25537077 -0.46571326 0.5248196 0.77383536 -0.10414842 0.5148786 0.48326814 0.846002 0.4598571 0.5248485 0.09106718 -1.2169143 0.12407979 0.5217851 -1.1103352 0.07776022 -1.2681595 -0.6294066 0.539391 -1.7988226 -0.6225371 0.23274346 -0.66928416 0.40891606 1.3563104 -1.0012395 0.10109561 -0.7803266 -0.578057 0.34530076 1.4730836 -1.316678 1.1803102 -1.3245584 -0.9813764 0.5164876 0.6465366 0.28596684 -0.17574301 -0.3529097 0.9390819 0.6066836 0.5244357 -0.86810124 -1.2937146 -1.9464265 0.18319674 1.799848 -0.75329465 -0.31736207 -0.26615834 -0.41785443 1.5855231 -1.5518552
a2875 0.61685205 1.1254866 -0.709488 0.80052924 1.0889249 -0.019860018 -0.1833136 0.43939856 -0.48493758 0.69497746 -0.14804195 -0.11223326 -0.78264034 0.830971 0.38651863 -1.3697156 -0.20777507 -0.33520612 0.80199414 -0.055714812 -0.48568702 -1.6001978 1.078546 0.19506004 0.8438631 1.2420387 0.28534317 -0.32584995 -1.9232726 2.5167322 -1.242382 0.60361403 0.19114634 -0.23333384 -0.17562194 -1.4491698 -0.37797946 0.36551175 0.5517227 -1.1784937 0.7590994 -0.42195153 0.8800654 -0.83107674 -1.3652152 -1.0752977 -0.08336643 -0.4734503 -0.14741074 0.09113096 0.31013334 1.6836153 -0.069011055 -2.2753284 1.2160128 -0.40139458 2.2521765 -0.5352862 -0.63773185 -0.06532257 -0.6359149 -0.13996148 -1.0315185 1.4442481
a14665 -0.9896219 -0.08759831 -0.40332183 0.71387845 0.9782758 -1.8218567 0.51535314 -0.20952421 0.0941364 0.101677 1.7074775 0.9448782 0.32089904 1.0666518 -1.6397266 0.84094703 -0.66663134 -0.6587123 0.85613304 0.5127207 2.7092936 -0.6027817 -0.94970214 -0.2992461 0.09782726 2.6617317 -0.37147212 -0.082239464 -0.992024 -0.089374475 0.8493405 -0.042954788 1.1219462 -1.3385227 1.5991237 0.33634946 1.0667657 0.21493188 0.7885583 -0.91184384 -1.2481084 -0.0067408625 0.76745546 -0.6844741 0.24167068 -1.5869985 -0.9263972 0.027543895 0.11543913 -0.69995886 -0.45090112 1.6626186 -0.9641184 0.56058896 -0.25100404 0.1616248 1.4858795 1.7188118 1.2843201 1.5650737 1.0512109 -0.99700415 -0.9358373 -1.8706106
a2587 -0.2787229 -0.9837933 0.7914523 1.0624171 -0.030318758 -0.69218487 -0.5303936 -2.0526955 -0.2327525 0.47499645 0.06980932 -0.42409036 0.17510685 0.21958266 0.40482667 0.6540999 0.3943885 0.8636054 0.36443704 -0.26242 -0.81489706 -0.59204 -0.08971056 -0.03075058 1.2295496 1.721234 0.06599817 -0.0069961487 0.4797179 0.07518052 0.18453547 0.6606116 0.117439516 0.67127514 -1.343825 -0.3672509 -0.08973586 -1.6221905 0.049431577 -0.6202831 -0.6329764 0.12284859 0.021417229 0.10667321 0.9544269 -1.2503339 0.3539578 -0.6597351 -0.30497515 0.6115579 1.1437144 0.6171285 0.22433344 -2.5585008 -0.42563096 0.30770722 -1.543056 -0.38019934 -0.7362806 0.83032584 0.99828327 0.030419597 0.33510852 -0.7862622
c9969 -0.2823923 -0.7817033 -0.16608031 -1.1133153 -0.92981064 -1.3581722 -0.5721576 -1.1484596 -1.568443 0.016895322 -1.3390521 -0.39133358 0.12752242 0.4974325 -1.5948932 0.17139415 -0.6235851 0.07126009 -0.652305 0.6845033 0.124327905 0.97200286 -2.2022865 -0.12132182 1.4255624 1.1111368 -0.41315374 -0.54221284 1.1158845 -1.4303455 0.16036516 -1.0328903 0.44342655 -0.33612874 1.0945464 0.39747468 -0.86606485 -0.7499244 -0.69211966 0.547415 -0.47847053 1.2429302 0.5964988 1.3650607 -1.0574113 -0.7283385 -0.68293947 -0.24069498 0.9326396 -0.05835667 0.7951865 -0.6805218 0.5177647 -0.42330578 -0.2306191 -0.43920258 -0.47065946 0.67046696 0.8824425 -1.0383972 -0.7393838 0.47187722 -0.89206815 -0.5311083
a2591 1.2950248 -0.031054605 0.0799267 -0.34175766 0.31373698 0.34910178 -0.69355553 -0.13440241 -0.9909107 -0.33129513 1.0704448 0.60468775 -0.29250896 -0.26952228 -0.24701573 -0.40423638 -0.60015845 1.6511817 0.8549552 -0.13018577 0.5361473 0.45887354 -0.17337835 -0.27835768 -0.95207554 1.5847487 1.0738783 0.87489945 0.11472084 -0.101690345 2.339468 0.13295028 0.33089527 -0.7804719 2.2576966 0.32918337 -1.3587902 1.4843644 1.1804771 -2.9717414 -0.3989643 1.5586675 -1.283 -1.1222533 -0.14242682 -0.9384068 -0.013602449 0.7161577 0.05107291 -0.20074372 1.550493 0.039809596 -1.6912286 -0.24261351 1.4661859 -2.1918464 1.7490685 -2.2736669 0.42623764 -0.83439624 -0.9170477 1.3962191 0.39989507 1.5949498
c4104 -0.7122606 0.49543706 -0.1613046 -1.9909185 0.17762828 -0.20951879 0.12701996 0.88581485 0.8315523 0.17279974 -0.867701 -0.8242732 1.8370888 -0.90151995 0.6056594 0.22865473 1.4644678 0.71823657 0.0449961 -0.9589961 0.024477186 0.1978104 -0.07829457 -0.10946401 1.2166541 1.006167 1.1278007 -0.2817456 -2.5295415 0.54040533 -0.17087202 -0.13780738 -0.26625428 -1.8183466 1.1598545 0.13622591 0.1075048 -0.5929872 -1.5121539 -2.257128 -0.29981655 0.16822897 -0.27046934 -2.008502 -0.886729 0.62550896 0.09598217 -0.7257088 1.4738137 0.047004193 -1.66405 -0.7072791 0.7697343 0.6810921 -0.3748044 -0.22318906 0.9351167 0.017293377 -1.1753231 0.4783782 1.0231574 -0.7350293 -0.21830991 -0.09429946
a9115 -1.7587185 0.5012927 -0.17253977 0.044240046 0.18967374 0.29348433 -0.23354207 0.67746556 1.0905467 0.5002656 -0.5028474 -0.9503568 -1.3410295 0.98041743 -1.199144 0.652846 -0.2237654 0.13426852 -0.38291478 -0.4689281 1.8813852 -0.30236325 -0.11001678 -1.7886126 0.8690406 -0.71176326 -1.1412623 -0.60981584 -0.8606291 -1.343325 -0.6087159 0.07885027 0.18567097 -0.60137606 -1.2315538 1.0121412 -0.8050974 -0.70023984 -1.7977852 0.7091773 -0.8182227 0.91759926 -1.0507617 -1.8011335 0.1569755 0.8742238 -1.1146098 -0.2748444 0.60754156 -0.5960251 0.4878476 -0.42284188 0.5260139 -0.6861038 0.7445081 -0.2356409 1.2066215 1.5300117 -0.34058112 0.32400426 -0.041884247 0.14386176 0.15009022 1.4869076
a5604 -0.3379108 0.110160924 -0.7983294 0.24554133 -0.036205906 -1.3183981 0.25399792 0.4937517 0.77523816 -1.5033053 0.26244888 -0.15651104 -0.70075405 0.49777734 0.7841165 -0.77633315 -0.15839641 1.9407928 0.9538646 0.4560574 1.4421192 -0.43990576 -0.12448105 -0.8253146 1.1980366 -0.47017005 -0.39389697 0.7046924 0.42632747 0.693703 0.17943877 1.0479577 0.38054615 -0.916144 0.2480015 -1.8849434 0.7895983 0.8783188 -0.4510384 -1.3458287 0.08061552 -0.48217908 0.9856289 -1.4566165 0.59998906 0.37904108 0.2422857 0.66633624 0.16684106 0.24600898 -0.26242772 1.1905549 -0.43998998 0.5542758 0.075869165 -0.90323824 -0.4495108 0.605554 -1.4261891 0.98727894 -0.012623878 -0.169797 1.5159968 0.6141158
a11783 -0.4119271 -1.1063455 1.1027033 0.58235776 -1.4141464 -1.0298568 -1.0395353 0.3092151 0.2708718 0.54610366 -0.26573947 0.3951054 -0.74371153 0.3373428 0.1509738 -0.30953455 1.7401302 -0.96556485 -0.42246476 -0.008450222 -0.06852003 -0.4938424 0.46577474 -0.7387025 -0.9646851 0.08689127 0.9455227 0.99747396 0.3710989 0.05539198 0.050566424 0.279636 -0.6792864 -0.912978 0.41207188 -0.015407681 -0.52106744 0.106397554 0.3051734 -0.6597139 -1.1266929 -0.840005 -0.12554488 -0.031994253 -1.0074489 -1.2221564 0.19120835 2.017231 1.0890921 -0.4081927 0.09732384 2.0958602 0.30050164 -1.074096 -0.40546128 0.71923095 -0.30629537 0.23580334 -0.23754182 -0.515688 -0.81834394 0.4053298 0.6216097 -0.30840048
a9199 -1.5970622 1.1420687 1.483681 0.053756434 -1.3142227 -1.0176883 -0.78580314 -0.76504934 -0.72543645 -0.5059986 0.50005895 1.2362171 -0.9747159 -0.67372763 -0.50111365 1.2522526 -1.0588411 -0.34600008 1.2358586 0.11471386 -0.5820548 -1.1426668 0.7837302 -0.93719375 -1.3910782 0.4848526 0.75897104 -0.8874109 0.6652199 -0.7928617 0.18574257 0.4802461 0.5392833 0.5534716 0.4232276 1.1668324 -0.21257511 0.26707372 0.08424214 -1.4452571 -0.3151938 0.963883 0.514233 -2.6585848 -0.32003343 1.4259723 0.44528207 -0.5880354 -0.32494947 0.40400344 1.1778159 -0.17638198 1.4234893 0.4140134 -0.15614997 0.2972124 -0.36017576 0.06925229 0.43429944 -0.14079906 -0.20279142 0.4301242 -0.3134801 0.024554458
a16051 -0.20844458 0.25210986 -1.6405678 1.0926559 -0.86122876 -1.0670494 -2.0649533 0.7149271 0.22269933 -1.1471512 -1.3089471 0.5418272 0.41338256 1.3709902 0.045788333 1.1106082 -1.2718905 0.6682498 0.33964 -1.1449683 -0.044667035 0.43420878 0.45533484 -0.067051806 -0.87428 1.582288 -1.0729938 -0.92730355 1.29688 0.6390659 -0.3288973 0.18536188 0.18214518 -0.28405324 0.96151525 -0.58072007 -0.5367179 -2.1035845 0.7281774 0.84428036 0.15788019 -0.0059532775 0.31440037 0.65997934 -0.7454953 0.4870213 -0.6571857 0.42666662 1.7332696 1.5678246 0.23382239 -0.7259433 -0.57475084 0.2830454 -0.20032063 0.15924446 -0.044019368 0.08796423 0.83278495 -0.70326805 -0.7955176 -0.08842578 -1.0175717 -0.62697625
a2592 -0.91311294 -1.0185933 -2.1936247 -0.78582895 -0.31385756 0.07698433 0.34591475 0.93691164 -1.183084 1.0647076 0.35124058 -0.6626975 -0.7291268 0.5339171 0.70281154 1.3499308 -1.0803907 -1.0408783 0.6290823 1.3793242 -1.5746322 -1.1560764 1.1684589 0.54185396 0.50270283 0.27862343 0.05524323 0.06208513 -0.2939277 -0.24340688 0.49157146 0.04482487 1.0963624 1.1085211 1.4343984 0.21206965 1.3201802 0.40132588 0.5627906 0.17612545 0.39324078 0.3505217 0.54995936 -1.2878739 -0.96006984 -0.91050804 -0.1882341 1.5214319 0.35354227 1.5443044 -0.4787035 -0.059863623 0.43693015 0.14156091 -0.8069398 -0.8601724 -1.7814113 -0.49735397 -0.22535715 0.9442654 -0.20354822 0.81871116 2.0770893 1.1296235
a19695 1.4821185 -0.35218048 0.5471236 -0.5112041 0.31305194 -2.2545137 2.2743597 -1.1203215 0.87218523 -1.1773067 -0.13587186 -0.5779786 0.0108340215 1.6340507 1.0679086 -0.18213098 0.7265761 0.59640723 0.98377085 -1.3129478 -0.20683852 -1.1605638 0.15329514 0.9577556 -0.80930096 1.1482993 0.06953681 1.116 2.3180373 0.59780556 -0.28946355 0.33380306 0.83515716 -1.0123341 2.181291 0.5715383 -0.27213898 0.6633064 -1.1848876 -0.5684103 0.24662434 0.90156406 -0.3976977 2.4837732 -1.2612154 -0.9469954 -0.14919588 0.81481266 1.2049644 0.17584439 1.3005322 -1.031408 1.0911671 -1.460089 1.0698481 0.57923937 -1.0355759 -1.3256516 -0.23608373 -0.7828752 0.57674605 -0.6298769 2.120249 -0.06259483
a1045 0.14810213 -1.8907495 -0.3840678 1.0279467 1.071338 -2.4865713 -1.4348012 -0.07920396 0.6219506 1.2302237 0.752012 -0.016085621 0.37778854 -1.1586099 1.2947732 -0.14793979 1.0146968 1.0263262 -0.18376824 0.7065171 -0.53797436 -1.2720559 1.3444192 -0.7730592 -0.23083247 -0.7654307 -0.24784198 0.4275444 0.5336369 0.90705395 0.698352 -0.30278602 -0.8454134 0.21139722 -0.09809154 -1.2009588 -0.2545945 -0.0010697445 -0.6812274 0.6701772 -0.7863797 2.15343 0.9990727 -0.56549555 0.42676944 0.03576026 -1.4140193 -0.91198564 -1.4920962 1.1282604 -0.13371697 -0.49210235 -0.2488849 0.4007731 0.88365483 0.040592514 -0.9894717 1.1286778 -2.0488605 0.7982374 -1.3792461 0.6688439 -0.31713277 0.31210408
a8766 0.54843694 -0.24543013 -0.5809486 -1.8251506 -0.58352774 -1.702879 -1.568613 -1.6546079 0.19161677 0.57729435 0.19383453 -0.3773652 1.4182285 -2.3397756 1.1524541 -0.20549932 1.1154451 0.14942487 0.1829494 0.54279774 -0.35941148 -0.39381036 0.44916502 -0.7096069 -0.49164224 -0.028837353 -1.3490372 -0.6076752 -1.1788753 -1.4211136 0.19412623 -1.2164294 -0.028786054 -0.93558455 0.053422518 -0.08480812 -1.418831 -2.9418797 -0.25350294 -0.304205 -0.6359716 0.76009315 0.56083363 0.07827585 0.86564416 0.7454943 -0.07690015 0.6049364 0.36474127 0.54217845 1.0755928 -0.7109719 0.25138134 0.6614564 -0.69680345 0.21928139 -1.3788173 0.20031822 -2.2609146 -0.7234684 0.9512193 -0.3717363 -0.19220747 -1.6822987
a15462 -0.19447853 0.14918366 -0.089698575 -0.43149525 -1.6313288 -1.0505993 0.54789495 0.644998 -0.23698688 -0.9931949 -0.9956584 0.2312184 0.13767874 1.070081 -0.30627766 -2.0235145 -0.6457875 -0.4447557 -1.722686 -0.2988375 -0.5518785 1.0412784 0.49791133 0.35019827 2.4515433 0.27078015 -0.30338928 0.22189744 0.39891952 -0.8491375 -1.5786726 -0.06033616 1.9649123 0.5457893 -1.5764186 0.4018283 -1.895905 -0.30807447 0.32014135 0.8604921 -0.33028707 0.5995787 0.06618702 -1.1867981 1.7921888 1.4080648 0.35461265 0.5634371 1.2176594 1.6238685 -0.3804688 -0.68293655 -0.10001111 0.93087673 -0.3043959 0.63684684 0.3642812 -0.6407437 -1.9614974 0.749492 -0.16501212 -0.011441909 1.0501896 -0.97137606
c5768 -1.5684259 0.6893923 0.12213347 -0.3395732 -0.80129063 -1.1198795 -1.1462388 -0.28340974 -0.3399803 0.510455 -0.437829 -0.09147385 -1.2572533 0.91082454 0.84541464 -1.1106769 1.3947837 1.7585851 0.9046555 -0.044607215 0.31904367 1.0799438 0.8658793 0.16192499 -1.1561764 1.4290607 -1.046715 0.99722815 -0.4374514 0.09864672 -0.84619296 0.7513442 0.38328496 -1.3647805 -0.45172378 -0.0079166265 0.29876143 0.83533883 0.7621667 1.754272 1.4579147 0.56255364 -0.6179463 -0.6873277 -0.77454174 0.08645075 1.0058148 0.82221997 -0.41754767 -0.63939226 1.4512523 -0.3942216 0.5126425 -1.9803481 -0.5191947 2.5052328 -0.15444708 -0.0670104 1.1583594 -1.7529428 -1.1085477 0.24998651 -0.273721 -0.8425153
a11659 -0.9728822 1.7061507 0.38382503 -0.2575123 0.05185366 -0.48255643 0.9797531 0.17999095 1.0079558 0.54899055 1.3088473 1.3805889 1.9563977 0.63656825 -0.5529839 -0.2464648 0.3814384 -0.73365873 0.5321958 -9.541819e-05 -1.6704684 0.7701347 -0.6490412 -0.9717481 -0.3678998 -0.8770318 1.3726469 2.001611 1.6578075 0.57650185 -0.08162983 2.452124 0.27302995 1.007162 -1.2513009 -1.7116175 -0.3270909 -0.72937346 0.9227736 -0.8434198 0.2350477 0.9362997 -1.1386772 -0.1423707 0.9833582 -0.28780115 1.0244049 1.7260338 0.5073878 -0.8621526 0.5629366 0.2626128 1.810596 0.5512603 0.93192536 -0.28391814 -0.9203332 1.7823594 0.6021035 -0.3649372 -0.33644515 -0.6737471 0.668726 -0.47038785
a19334 0.5397608 -0.84116435 -1.8019407 1.0473416 -0.90311533 -0.58838254 -0.6049363 -0.7170947 -2.667802 -2.1748757 -0.5808347 1.8010974 0.35026273 -0.17990153 -1.7391375 -0.5001369 1.0795646 -0.47702047 0.060992893 2.18423 -0.8577576 1.1517739 -0.27679357 0.38555053 2.0077882 1.2075773 0.783905 1.5549332 -1.5173322 0.9273221 -0.73381263 0.00069780974 -1.4336678 1.8697127 0.02021801 -0.7888631 0.43451342 -0.8938454 -1.0637004 0.5822576 -1.9443182 -0.70349616 -0.4544064 -0.91118467 1.3038216 -0.42076224 0.36986288 0.86369675 0.9745515 1.0593741 -0.28276423 0.98815125 -0.6345689 -0.9055018 -0.99239254 1.3098643 0.51299894 -1.3454322 -0.5860198 0.71464837 -0.27807286 0.020679606 -1.3207457 0.5954729
c13834 -0.06119096 0.48464793 1.9352844 -0.14902827 -1.7462004 0.63784254 0.96744627 -0.25168267 -1.7608203 1.3112602 1.4427255 2.410506 0.21911342 0.24372675 0.19594201 -0.67143226 2.4252713 -0.50027096 0.19526477 -0.86278915 0.71356124 -2.5119662 0.5275613 1.0391735 0.6556378 -0.19066672 -1.1635768 -0.15113789 -0.4068544 -1.076936 -0.04468195 2.3059707 -0.010649262 -0.7309229 0.5927442 -0.55204743 -0.077783406 -1.497208 -0.46401602 -0.15152511 0.4051786 -0.099766806 1.5672379 -1.1774774 0.2395095 -0.5159142 -0.55534446 0.696665 -0.47825518 -0.5228115 0.08944602 1.3950759 -0.3114175 0.45231798 -0.053245876 -0.20263045 -0.025177728 -0.6557981 1.9648488 0.3426284 -0.26044393 -1.8380984 0.25313252 1.6422683
a2443 -0.042137556 0.24678108 -0.5718128 0.5411865 -0.16315964 0.8446985 0.6862257 -0.74138314 -0.6997609 -1.0422281 2.001472 -1.0391806 0.28569388 0.69406444 -0.2586353 1.0998151 -0.3414708 -0.09847095 0.8532694 0.024491712 -1.6123507 -0.5269308 -0.027966382 0.5513852 0.96871775 -0.004606399 0.9575655 -2.148209 0.36502925 2.097169 -0.067112476 -0.07129136 -1.1363597 -0.25577453 -0.60016364 1.5696105 -0.4522498 -1.2266173 0.500426 -1.5957527 -0.3783187 0.42607924 0.5065441 0.7814427 0.041258372 0.06506643 0.3016495 -0.376604 -0.70250356 -0.9056175 0.6232316 0.96559155 -0.98308784 -1.5923511 0.35250634 0.0343788 0.57598186 0.052885015 0.3224855 0.5985995 -0.85447544 0.20724243 -0.7319571 -0.065698266
a8223 0.3892261 1.2524645 0.66283554 -0.084147744 0.56579864 -0.06403702 -0.09933698 -0.7795562 1.1172069 0.25908154 1.349341 0.62718064 0.6082104 1.3025174 0.4113971 -0.40250644 -0.30594704 0.40936384 0.8272643 -1.1640209 -0.80482996 1.216986 0.21242212 1.6314669 0.7753423 0.741174 1.2487462 0.706349 0.7217514 -1.2709023 1.0679828 -1.3753413 -0.6992759 0.5292393 -0.6407207 -0.053095758 -0.43812177 -1.2000732 0.029960014 -0.10522883 -0.30377942 1.1906531 -0.94381976 -0.19365518 0.19982988 -1.0490328 0.6418391 -0.5590209 0.6885073 0.8835343 -1.2530755 0.7160687 -0.47481266 -0.30425417 0.26166335 1.3687536 -0.21456555 -0.15331517 0.23831122 0.394828 -0.29386097 -0.065803 0.73230815 -1.3811159
a15326 1.1753687 -1.3730266 -1.3773696 -1.0786138 0.55754167 0.87464505 1.1946956 0.68666273 -0.5793504 0.17905201 0.21108058 -0.07995939 -0.6397006 -0.53212 0.73729527 0.08380491 -0.678774 1.3728317 -0.26439762 -1.5778017 0.2119165 1.1576846 1.1642194 0.89340967 -0.62621915 2.0745451 -1.7491977 0.056425218 -0.51040673 -0.5533377 1.808061 -0.4194135 -1.2933457 0.09484736 0.53278697 -0.54533195 -0.57908416 0.7818994 0.18205546 1.4346162 -0.20864044 1.1254977 0.25263175 0.80286807 0.25671518 0.8145952 0.38987526 0.445891 -1.0972434 -0.32020292 -0.84323233 -0.6799472 0.09706786 0.610735 -0.01970291 0.34617946 0.9547244 -0.3857193 -2.6000762 -0.83938295 1.1399621 -1.4916283 0.48559463 0.9548249
a11480 -0.18384144 -0.3392066 0.5018151 -0.5049074 -0.692384 -0.40380523 0.9756304 -2.4830687 -1.1248343 -0.42498624 -0.17779739 0.49557522 0.118872784 -0.4715442 0.33073828 1.6326045 0.70529366 -1.3202231 -1.9797231 -0.71745634 1.0893117 1.6102574 1.056405 1.6592152 -0.83779144 0.22241594 0.9070946 0.20698345 -0.5204934 -1.1266727 0.12338222 0.0323642 -0.31429935 -0.03781857 0.31259823 -0.013315221 0.10044577 -0.678151 0.6028013 -0.17209768 0.6616575 -0.2057161 0.014235892 -0.4905911 0.10503505 -2.1838214 1.5574178 -0.13345577 0.64985836 -1.075022 0.7511314 -1.678736 -1.8773881 -1.3940394 1.015621 0.56536925 -0.23727864 0.97917247 -1.5015366 0.72734547 -0.86555785 -0.5497665 0.6148644 -0.33835757
a16274 0.50170034 0.5230162 0.9121196 -0.19041283 0.29084742 -2.1797407 0.86558574 -1.9406071 0.78955555 1.3230155 0.67069715 0.5797056 0.9958104 -0.52914494 -1.9372642 -0.9160725 -0.4039776 -1.0398556 -0.21843763 0.8911845 1.8663801 -0.73425925 -0.093708605 -1.3328615 0.8830016 -0.7092855 -0.57477313 0.42474335 1.535155 -0.44598487 0.22354221 0.27945122 1.2306117 0.53223634 0.28394067 0.7904759 -0.21434323 -0.32197782 -0.011487789 -1.2962683 1.4187102 -0.9495994 -0.28170362 -1.2186614 0.4059226 0.86881167 0.21199767 -1.1499236 1.9560583 -0.59584635 0.36151406 -1.1173859 -0.74130636 -2.064735 -1.3196131 -0.33442807 0.6922477 1.6057323 -0.5123344 -0.004724434 0.485557 -0.38919583 -0.4712661 -0.36121306
c13625 0.012997961 1.67156 -2.06959 0.47864977 -0.18671139 -0.101216786 0.13275231 0.2500838 -0.26139036 0.24684219 0.037659228 1.4430553 0.19845682 -1.8844655 0.040900234 1.7950882 0.16352165 0.6965617 -0.33991992 -0.704224 0.8717044 0.002030502 1.0415081 0.28367767 0.34240833 -0.115787424 -1.3380185 -0.7750025 -1.0998734 0.35573268 -1.059286 -0.037203517 -0.25935668 -1.9463072 -0.8679575 0.38126764 -0.1507759 0.2898882 -0.42846304 -1.1935729 0.6352374 1.4314321 1.7755729 -0.5152089 0.8037841 0.43265793 -0.5588992 -0.4118257 0.27026838 0.5502778 0.36129203 0.580571 1.0044347 2.0604355 -1.7885511 -0.85841227 -0.88250315 1.8723401 -2.3098016 -2.4135473 -1.8324232 0.69554013 0.33550373 -0.41492903
a4876 -0.20295395 -2.1038015 0.11751871 1.0727266 -0.920852 -0.944763 -0.09159096 -2.0466127 -0.80004805 -1.7339754 0.2595771 0.8708116 0.114301495 -1.2269274 0.11148797 1.5420432 -2.559044 -0.74427116 -1.0317638 0.081665136 -0.6462114 0.5706453 -0.30299827 -1.1251354 -0.88593495 -0.997047 0.556897 1.1382259 -2.7160082 2.0906987 -1.0260777 -1.1996979 0.7821048 -0.28032857 0.5764067 -0.9124432 -0.5816133 -1.8141432 0.21089324 0.14911373 0.7344181 0.5323594 0.012714218 -1.0339242 0.15427786 -0.44614115 0.07195758 -0.58547956 -0.81787056 -0.68882155 0.5256739 -0.252193 -0.5411028 2.8137858 -0.47292984 -0.8671484 0.46493337 0.5442476 0.019274425 0.5432641 0.38964573 -1.3261958 0.045427572 -0.066730395
c12770 0.45253575 -0.26480594 1.0422794 -0.0032522925 0.95765764 -0.01614298 0.45706668 -1.1492263 0.71980584 -1.0881624 -0.44306213 -0.33704105 0.13157493 -1.5250671 -1.3550867 -0.6458912 -0.02884632 -2.5698137 0.29876274 -1.6177557 -0.03273592 0.9393788 1.8937168 1.4492304 1.4122294 -1.0377337 -1.6921415 -1.9955672 -0.44299993 -0.58802813 0.5002568 -0.5453456 -0.14054301 -0.6809483 0.65905863 -2.324702 -0.1004009 -0.28094408 -0.34713018 0.042857222 0.7137512 1.6152718 -0.26529178 -1.2225229 0.26261044 -1.7431219 -0.31996396 0.9382807 -0.2530175 -1.2170215 -0.17488542 0.9652599 0.038205374 -0.31892765 -0.19909836 -1.1792842 0.6738232 -0.8845204 -1.1965485 -0.6315031 -0.90024287 0.977003 -0.1019935 0.97144645
a4877 -1.3865799 -2.009959 0.34597847 1.1886296 0.3655689 1.3357531 1.3644544 0.10695771 -0.22036193 -1.2068434 0.9422056 -0.4942689 0.75971645 0.07966471 -0.103344455 -1.1180073 -0.07312639 -0.33251953 1.6008914 -0.45028937 0.800069 -0.24700305 -1.7456167 -0.5322707 1.1154902 -1.170757 0.36238196 1.459601 0.73989326 -1.2888857 -0.086716875 0.7305999 -1.7875435 0.5631237 -1.4043005 -0.16844112 0.40608776 -1.7594205 -1.0182797 0.4992075 0.06870972 2.4864247 0.3539611 0.8683428 1.0771612 0.09221218 -0.58087087 1.0814753 -0.6734391 -0.9006134 0.039332226 -2.5279303 1.0478477 0.3380955 -1.578783 0.5385546 -0.1447731 0.85789573 -0.5241173 0.33427656 -0.8886885 0.14952293 0.84491485 -0.1648873
c12771 -0.94416285 0.16618074 -0.057459768 -1.4656535 -0.17550217 0.73726964 -0.9110193 1.3592196 1.1839789 -0.44887975 2.1028867 0.9475668 -0.9632663 0.2743444 0.10199673 -0.36079973 -0.04320618 -0.45650464 0.35122576 -0.61657995 1.1173654 -0.9844732 0.60670245 0.18657511 -0.56811625 0.18904887 -1.1812259 -1.7138581 0.2600787 -2.2703536 0.98552185 2.4711237 -0.603971 -1.5939872 0.37544915 1.0603324 -0.5636923 0.35312435 0.66020936 -1.9985393 -0.5883113 0.17498066 1.7432569 -1.6316606 -0.45909628 1.0812029 -0.32788122 0.65109354 0.41427463 -0.28429982 -0.182776 -0.13218087 0.30363443 0.5069148 0.09436902 0.75558203 -0.53113335 -0.477488 0.67233574 -0.35625607 -1.6491554 -0.9206365 0.48663116 1.7523744
c10363 -0.012815179 -0.013188893 0.21627325 1.6908796 -1.4033356 -0.6660699 0.5827925 -0.25176722 0.12525941 -1.3397541 -0.21646073 0.7158915 -1.2259012 0.5619585 -1.1257846 1.3579128 -0.750394 -0.16473311 0.856683 0.3030185 0.118177846 -1.1311513 1.3608717 -0.850268 0.87663114 -1.7645802 -3.110467 -0.15239465 -0.07021566 0.38215837 -0.3658858 -0.23462233 -0.5394171 -0.7755752 -0.8004 -0.1336265 -0.35984725 -0.2593236 -0.36522892 0.17897676 0.33938223 0.002742168 0.07383662 1.4960812 -1.2816569 1.6825968 0.18872501 -1.0402722 -1.8836216 -2.6324227 1.45351 -0.5948388 -0.27706993 0.72326225 0.8574749 0.53143525 0.052176703 -1.0364025 -1.8945441 -1.2886302 0.7528729 0.9945062 1.4621346 -1.0113478
