a118 -0.023197113 -0.97344637 -1.1194627 -1.2273444 0.2528336 -0.31331855 1.7638862 0.17536408 0.095196106 -1.1704191 -0.90661263 0.7413568 -0.36419797 0.9775458 -0.14980929 -1.4921232 0.6107164 -0.9409586 -1.2210951 0.12148393 1.1567582 -0.4064178 -0.4922845 0.52157325 -0.94386077 0.28795847 1.3556432 0.00789981 -0.050218083 -0.09408624 -0.6221165 1.1628846 0.21600717 -0.411468 -0.09556415 -0.2505487 0.5523758 -0.18794368 -0.39601696 0.5364526 1.3697033 -0.0737533 0.53233236 -0.78528875 0.005928401 0.2503931 0.7805488 1.4272947 -0.011991065 -0.04168048 0.22177051 -1.0187765 -0.31258005 -1.1450331 -0.33724654 -0.4725222 -0.20521869 0.5974535 -0.51836574 0.45228413 1.3442496 0.2454824 -0.5020801 0.2482109
c2608 -0.06820877 0.124191515 0.010340697 0.1844458 1.5987307 0.06743215 0.14916477 1.1023295 -0.18989359 0.43994677 -0.022464223 -1.1982672 0.4881292 -0.33422506 0.7380266 0.6117461 1.4725162 0.27781555 -1.7112122 0.00450315 -0.5994907 0.76133615 0.16976206 1.094643 1.2900718 -0.5093912 0.4261967 -0.05950034 1.1876874 0.34038058 -0.66874933 1.0772543 0.11316238 0.40734345 -1.1285223 0.46201524 0.44085544 0.06746118 -1.2958196 -0.8061201 -0.7698305 0.4053308 -1.1842597 0.8764455 0.18300278 0.11620883 -0.7094981 0.99081993 0.17635308 0.28891742 -1.1026964 0.016963629 0.0585832 -1.6081071 -0.4135766 0.06954013 0.7648157 -1.2188834 -0.5451942 1.129076 1.0128795 0.13132754 -0.7376461 1.290698
a122 -0.61709243 -0.017850358 0.51650685 1.5241408 -0.4630758 -0.8500228 -0.5832087 0.18105777 -0.7510582 -0.28166795 -0.9601162 -0.11506139 -0.74373555 -0.51779807 0.72005063 0.39002025 -0.9068688 0.02272507 -0.14480962 -0.45031705 1.413271 -0.36594462 0.2836973 0.75062615 -0.043825127 -0.9803865 0.40550205 0.7322917 -0.8017794 -0.10374063 -0.55426854 0.39905587 -0.8419763 0.18698739 0.84909385 0.86856824 -0.81225204 -2.0234473 0.5939115 -0.3786344 -1.1681615 0.20825094 -0.40894684 -0.15551311 -0.20224427 -0.6206178 0.58849674 0.62890154 1.2904152 0.5791146 -0.3610135 0.12879825 -1.1888468 -0.869765 -0.5562579 -0.059474222 -0.4841812 0.3332762 -0.5970767 -0.3311393 0.68542385 0.21414678 -0.63739675 0.7756661
c80 -0.44117314 0.5446629 1.388228 -0.26565024 -1.6055084 0.30781177 0.25591156 -0.059686404 -0.9354646 -2.0340044 0.19068211 0.17362694 -0.16690153 -0.61299706 0.70645773 0.16117539 0.8100781 -0.49828696 0.4191819 -1.0580956 -1.7919115 -0.11373026 -0.030375168 -0.20050511 -1.4717278 0.29262802 -0.24497752 -0.8417832 0.78907686 0.49292842 0.61179733 1.4931011 0.12193624 0.072332926 -0.502945 -0.3278894 0.27465752 -1.012994 0.23417376 -0.84474236 -0.53921324 0.030399263 0.42043647 0.26169515 0.0724761 -1.9015721 -0.42829883 0.983513 -1.1945869 -1.2270055 -0.72546357 -0.9352295 0.47268614 -0.72071296 -0.08036987 0.1716818 0.4046839 0.020540267 -0.018519122 -1.40078 0.09174184 -0.3163174 1.1128542 -0.20645253
a14052 1.2944037 -1.0292473 0.21028446 1.9268956 -0.02801643 0.6166513 -0.47574654 -0.29425985 1.3945596 -0.5186873 -0.38770342 -0.3336747 1.6635175 -0.54980624 1.1940798 0.38211358 0.046421986 1.4564991 1.1648881 -1.41462 1.9996778 -0.27707934 0.32448503 0.35680035 -0.37100583 1.005542 0.20884705 -0.86842185 0.8118753 -0.2725437 -0.43649825 0.5377566 0.2843026 -0.30532372 -0.62307346 1.4360739 -1.2238168 1.6689605 0.5641549 1.6817471 0.5939485 -0.063608795 0.5659451 -0.8752132 0.22416635 -0.899581 0.7223215 0.93598527 -0.44912237 0.7896355 -1.7052125 -2.121919 0.67732424 0.22488704 1.8490744 1.3611346 0.42898065 0.26970416 0.4710329 0.42650342 0.39733374 -1.7990026 -1.2453016 1.3616577
a4085 -0.6878646 0.25585702 0.10108891 0.2417768 -0.56871486 -1.1602421 0.86698455 0.83691126 -0.42611614 0.49236414 -0.29085463 -0.90333784 0.44067708 0.45753565 -0.18121023 0.9144599 0.14534912 -0.2610793 -0.09567379 0.4659019 -0.30698532 -1.183436 0.57263434 0.21282557 -0.6382687 -0.45682094 0.954629 0.074013256 -0.2556156 0.9883475 0.3224743 -0.9960201 0.45882863 -0.8006103 -1.3705653 -0.18863901 -2.2895772 -0.8406999 -0.5378953 -0.663771 1.4122999 -1.4362491 0.0905245 0.9757055 -0.12576398 0.27979448 0.3623956 0.6726606 0.31065807 -1.1006048 0.20886669 1.6065384 0.6696882 -0.20168048 -0.23037553 0.3254708 0.1483241 0.730968 0.59967047 0.38281167 0.49341282 -0.5978023 0.31212032 -0.2139655
a119 -0.6123656 0.04230229 0.5168501 -0.13414995 -1.410932 0.6137614 0.073980235 -0.38484493 0.7380167 -0.7047882 0.6796662 0.0675547 0.02714571 -0.173321 -0.8035549 0.056016468 0.41402966 0.2218743 -0.19122067 -0.14749062 -0.46442124 -0.26974213 -0.029631946 0.62681955 1.1745684 -0.20304707 0.18265969 -0.6970787 -0.14576635 -0.45010743 1.1217752 0.38336197 -0.12391551 -1.322236 0.44131482 0.9620881 0.6162096 0.08091615 -0.1921815 0.097812094 0.3080502 -0.77518946 0.13979831 0.87640876 0.096574284 0.14975256 0.7335485 -0.87834 -1.2220584 0.9685243 0.8419275 0.3093941 -0.34864724 -0.7818525 0.30383715 -1.2808155 0.4684109 0.3933785 -0.20149292 0.81636673 -0.05878368 -0.23207673 0.027095985 0.1297966
c2609 -1.4540497 0.58938056 -0.042757496 0.5769145 -0.767687 0.1895905 0.9969419 0.93768114 -1.043757 -0.2950352 0.56390923 -0.09424979 1.2230408 0.44911036 -0.11996332 -0.62651527 0.1114006 -0.99597085 0.5691403 0.39934966 0.35410073 0.2607904 1.3124093 0.40808362 -0.99781525 -0.40926716 1.7015898 -0.8091742 0.08654106 -0.77276236 -0.3559083 -1.8591683 -0.5973798 0.24964164 -0.099655695 2.0348904 0.38802105 0.8251282 0.6801429 0.45735037 -0.8101937 1.3117553 1.3548173 -0.121380284 0.088917434 0.39514828 -0.40914524 -0.75853354 -0.15815015 -0.1821132 -0.22359036 -0.48545438 -0.32291785 -0.29860654 -0.97121155 -0.97596043 -0.39534062 0.22121564 -0.40516308 0.028947871 -0.5743675 -1.1538163 0.52270705 -0.42065048
a121 -1.2934006 0.3976501 0.2756165 -0.69803095 -1.0061871 1.3991842 -0.50938165 0.76630163 -0.92739546 -0.9249162 -0.21490952 1.0914732 0.10949681 -1.4237112 1.3965551 -0.18697916 0.62251514 0.35337397 1.3860081 -0.33962145 -0.12299883 0.97222704 0.17362915 -1.62817 -0.66239053 -0.4134691 -1.0308497 1.1675919 0.21348663 0.9068064 -1.0406334 2.0267816 1.6145139 -2.4557314 0.29374897 0.80988 -0.7314013 -0.5582999 0.8259508 -0.7214435 -1.5301155 0.2540847 1.3191627 1.8477594 0.3791581 0.3158991 -0.096321926 1.9370075 -0.5898706 -0.75539356 0.1937264 -1.17592 1.1129307 0.18924046 -0.64194566 -1.2043799 0.89037716 1.2643833 -0.9242626 -0.24818805 -0.3130441 -0.018122487 0.14115314 0.06856549
a120 0.30878043 0.2812898 -0.066801816 0.18555433 0.39342487 0.056829926 0.4680336 -0.3185294 0.31657666 -0.10118343 -0.77791625 -0.6645095 -0.10075276 0.0440169 0.3289341 -0.21414864 1.6994864 0.4598323 0.6103588 -0.019989932 0.8249244 0.90214354 0.4436118 0.9931654 0.42215434 -0.43988952 0.21814193 -0.00464537 0.30498472 -0.7506576 -0.53464353 0.90019816 0.059345666 -0.55741113 -0.18307245 1.2373283 -0.68489003 0.06999542 0.5022983 -0.15572935 1.1938576 0.6154077 0.35262358 0.78392524 -0.9836733 -1.2110748 0.08532698 -0.84992534 -0.01616441 -1.0936133 -0.984691 -0.17198628 -0.24496529 0.7369266 1.2845834 0.58915067 1.0589957 -0.6238823 0.02739406 0.5852623 1.1531717 -1.1029922 -1.0936198 -0.7612917
a18975 -1.1016136 -0.46320635 -1.5637383 -0.6306686 1.4633763 -0.22851813 0.25575137 -0.2739518 -0.25059348 -0.6471503 1.2848783 -0.6408115 -1.6591603 0.4080799 1.0617912 -1.7856381 -0.55900276 -0.79665947 0.20903867 -0.09984077 0.1454214 -0.43831146 -0.09603772 0.90852803 -0.8253701 0.61370176 -0.8154571 -0.01734964 0.08438317 -2.277172 -0.6265457 0.10136369 1.1742829 -0.7051205 1.2116235 -0.0745861 0.27724358 0.24048214 -0.118019186 -0.8268156 -0.2932315 -1.0124333 0.48989668 -0.09169754 0.08026198 -0.47575867 -0.35903087 -0.3554569 -0.68879265 0.61349493 -0.5137265 -1.3325037 -1.0485642 -0.6000391 0.44979355 0.3034851 0.6074163 0.026984075 -0.9433463 -1.1027551 -0.82111174 0.9636249 -1.187067 -0.07481567
c11364 1.7433995 1.3820186 -1.6531522 0.0743729 -0.16753557 0.5786272 -0.22840978 1.0883379 0.95762503 -0.16215916 0.08389646 0.16491412 -0.9669352 -0.51608586 0.41171578 -0.034632232 -0.13691789 0.75116014 0.7658622 -0.40851608 -0.42610392 -0.73012227 -0.096495666 0.93303394 -1.2405806 0.47846165 0.45104778 -0.33813602 -1.2616102 -0.6788741 -1.7943778 0.80005956 -0.46789697 -0.8432468 -0.42531776 -0.36243296 0.8912496 0.7025963 0.49503613 -0.5132296 0.6256454 0.22209305 -0.7713237 0.3340722 -0.15480144 -1.4170358 -1.5799961 0.26148108 0.1858235 0.22864763 0.5968891 1.5767816 -0.019167172 0.08678083 -0.8464737 -0.40500253 -1.1103805 0.6083994 -0.39238828 0.4039538 -0.89784026 -1.0880222 0.7583918 -0.041458197
a12248 0.56356746 0.99506736 -0.7875597 0.19060469 -0.2870248 -0.7102303 0.42793688 0.17248996 0.18622316 0.811818 0.98536617 0.64044446 -0.039573282 -0.7376945 0.33245113 0.8678509 -0.43593952 -1.7149811 -0.019183902 -0.46653563 -0.9576572 -0.6785552 0.05717475 0.37841415 0.42036778 -0.05937095 0.0294269 1.0009916 -0.23719329 0.25128004 -0.3984335 -0.21168537 -0.22656159 -1.2403437 -0.07008863 1.2733566 -0.353506 0.26390904 -1.4632127 -0.41411048 -0.8175063 -0.171007 0.84566534 -1.2060457 1.4876279 -1.0786029 0.68103695 0.2098106 -0.14653152 0.11879814 0.44070792 -0.17770725 -0.37724432 0.32534438 0.20335177 1.1074592 0.63528347 0.8425315 -0.01145626 0.54947484 0.40678126 0.39228946 0.41219595 0.41763434
a11609 -0.78463084 0.97536504 -0.5944001 -1.0993824 -1.2646374 0.40423194 -0.6980722 0.42409748 -0.7887954 -0.66984487 -0.4393922 0.57341075 -0.4733758 -0.14985986 -0.12117714 0.07785132 1.5114084 0.9589801 0.24976467 1.5661293 0.28366667 0.29266265 1.6563232 0.14721654 0.48640153 -0.99095374 -0.45920262 2.3027868 -0.98830026 -1.162655 -0.13245057 -1.040794 0.325353 -0.17418025 -0.7932131 -0.5335026 -1.6416147 0.62743366 -0.4553779 0.85223794 -0.31734464 -0.78752196 0.70772594 0.3496921 0.37951636 -0.8573881 -0.9394501 0.22767852 0.8655928 0.09521007 0.16126016 -0.60705173 0.66350657 -0.9734142 -1.958314 -0.6704867 1.8268828 1.5210962 0.46068656 -0.036071874 -0.5569587 0.55255777 -0.053092215 0.3044811
a17011 -0.9032896 -0.16156301 -0.3448602 -0.65557766 -0.111659154 0.09027095 2.1461735 1.3928488 2.4492981 -0.4635618 -0.13746522 -1.0867379 -0.036854208 -0.58200574 1.4906793 0.384085 -0.4353556 0.84463423 1.9434435 1.094123 -1.0372399 0.3966911 -0.7974374 -0.1911546 0.6262768 0.05330555 -1.9037514 1.3395625 -0.6751399 -0.87059945 -0.19016355 -1.6520221 1.4208379 -0.8408669 -1.009538 0.19689055 -0.70694226 -1.3856524 0.2919496 -0.8056586 -0.7463295 0.47416294 2.2146833 0.11242184 2.301571 -0.25714514 0.5438152 0.52260745 -0.027303107 -0.8831443 0.044923827 -0.2700763 0.52835315 1.7564359 0.23860037 0.59459203 -0.057380896 1.0782883 1.3129272 1.2143995 -0.84783334 1.3050323 0.67241 0.76459444
c6365 0.12920533 1.3689833 -0.26599544 0.09084676 0.6018614 -0.2440655 -0.03956078 0.7795836 0.6304946 -0.64612156 -1.3410054 0.37274882 0.6088663 0.007526712 0.019039195 0.7396341 -0.3407444 -0.2962549 0.53959304 -0.34795195 -0.39343327 0.046537764 1.2133055 0.7790632 -0.54448384 -0.67505205 -0.21766856 -0.5948454 -0.54036045 0.3818658 1.4851822 -0.28003654 1.347 0.69382304 0.7468952 0.71169454 0.64353514 0.71419746 0.10709621 -0.48220795 0.7738337 -0.36140698 0.017255232 -1.189313 -1.1005329 1.0345153 -0.04114523 0.54055995 0.39634278 -1.0237383 -0.41471797 -0.0035833153 -0.36408067 0.695031 -0.012303634 -0.10754105 0.57637316 -0.45553 -1.9922752 -0.22523701 -0.66429853 1.2699271 0.49401176 1.464949
a7867 0.9391122 -1.3442204 -0.9436867 -0.31876534 0.5770655 -1.0878397 0.19304788 0.4507152 -1.2846915 0.06200058 -0.8091585 1.595038 -0.34627947 -0.45502988 -0.13881221 1.7341893 1.0705571 0.08930789 0.21855006 1.1571329 0.46570018 0.6425687 0.09972672 1.3534942 -0.31053188 0.9417737 -0.54354817 -0.71538794 -0.45163137 -0.52549386 0.5007814 0.7502422 -0.9070508 0.46677363 1.5016665 0.62606686 0.02459526 -1.8134416 1.1062406 -0.5391242 -1.7514528 -1.1539193 -0.42965192 0.0767787 1.5922265 0.02287111 0.39847928 -1.0033096 0.095781006 -1.7984309 0.7576668 0.8610444 -1.4339508 0.8068922 0.052492797 0.2761803 0.030170914 0.18412265 0.024553407 -0.37332737 0.00914383 -0.5286382 -0.43565515 1.0301988
a3374 -0.43996966 -0.059516396 -0.28753206 -0.3446261 0.14120181 1.6347133 0.8473526 -0.92701846 0.1097745 -0.18900834 -1.5398484 -0.46602485 -0.1353831 0.6077202 0.48424158 -0.35634583 -0.14922544 -0.8288763 0.70002526 0.26411334 0.30426303 0.12562564 -0.31323028 1.1588233 0.3802984 -0.75359493 -0.99773115 0.32525617 0.056769464 -1.3886734 -0.44235918 1.1505592 -0.9506657 -0.4073804 0.31413874 0.2262088 -1.8849092 0.50459146 0.13523419 -0.16325082 1.3296341 0.26760486 0.37060544 -0.0053304164 0.071601376 0.066820875 0.0951756 0.31287122 -0.77904457 -1.0204415 -0.759427 0.44094455 -1.8016301 0.06948453 0.04997243 0.2287162 0.7650795 -1.0484822 -0.5809879 0.44231522 -0.019066272 -0.5092289 0.4701653 -1.428971
a12938 0.029270697 1.4722058 0.2116783 -0.009785975 -0.3454906 0.062214844 0.48928005 0.50359446 -0.15271765 -0.5485042 -0.3662685 -1.4640851 -0.17182353 -0.30597568 -0.41834775 0.9511727 -2.124667 -0.943129 -0.8141149 0.6952585 -0.21880801 -0.69912916 1.0338486 0.4763725 0.39203438 -0.51162344 -1.0949244 0.20381427 0.39606068 -1.0516453 0.7634896 -0.3634451 -0.98382443 0.40754777 0.46394083 -0.059890047 1.3637922 1.1001959 0.4057567 -0.8280222 0.09863711 -0.34932515 -0.9272031 -0.9794892 1.2230108 -0.018708369 0.90824306 0.13746768 0.43060455 0.31132245 0.13592035 0.31838876 1.1795375 -0.17244418 0.85955495 0.70053977 0.9394063 0.25418505 -0.97074026 -0.016381918 0.43271342 0.32823762 0.7565193 -0.7158431
a7006 -1.4776334 -0.48694372 -0.3985551 0.007306785 0.7508544 -0.42830977 0.5773114 0.4989264 1.2039183 -1.4375073 0.4261997 -1.1682034 0.04257452 0.41271734 0.21138753 -0.46186173 0.13845919 -0.68601006 0.67615694 -0.027086481 1.4701196 -0.9074043 -0.63645273 0.5932294 0.21524172 -0.67276007 -0.1389774 -0.3573865 -0.7347187 -0.9881194 0.22404326 0.03126755 0.46484008 0.32855675 0.62619287 -1.0788693 0.013827846 0.5087466 -0.3306022 -0.7030891 -0.49598947 -1.23242 -0.24154377 0.74162525 1.0415024 -1.0026761 -0.065226465 0.18080235 0.20218672 -0.08238447 -0.56716913 -0.17213511 -1.1679983 0.29972297 0.4720887 0.90819377 -0.1569488 0.5789233 0.56852454 -0.42789814 -0.79864275 1.1383023 -0.23253317 0.17061114
a18973 -0.0431177 0.16727702 0.47489104 -0.5948108 0.6536273 -0.21909896 -0.38513994 -0.18601377 0.51393205 -0.05755064 -0.5703837 0.17712916 -0.59651786 -0.653457 0.38357112 0.32287875 0.11556969 -0.84492767 0.4090516 1.5070492 0.354284 -0.42657825 0.46293738 0.09971064 -0.29384586 -1.0975626 -0.3604946 -0.9461508 1.3790448 0.9690857 -0.6334664 1.6020645 0.8220888 -0.9813931 -0.8163938 0.90933233 -0.6078607 1.6759412 0.075615786 -0.1871392 -0.7514417 0.29966906 -0.5839391 -0.11994081 0.18958253 0.5543694 -0.49811864 0.6801609 0.6984595 0.17364031 -0.32386833 -0.6345217 -0.015604479 0.98803437 0.031784866 -1.5262191 0.75522435 2.192938 0.5177513 -0.41999093 -0.08617318 0.38621774 -0.26653233 -0.6112671
c12214 0.5968865 0.57335955 -0.44724077 0.60395205 -0.45671794 -1.229879 1.1579535 -0.44631526 0.8862358 1.0281771 0.49698564 -0.47879064 0.15397033 0.2268483 1.0600425 0.23578386 -0.94554317 -0.17647077 0.768017 0.11063253 -0.12209203 0.37997854 0.16427663 0.22776939 0.09367982 -1.6199799 -0.84901804 -0.22058915 1.0459306 0.112525105 -0.13662432 0.32836908 -0.7421993 0.3417786 -1.016182 -1.5638082 -0.27386427 -0.024735585 -1.0063487 2.1375568 1.2301157 -0.54952717 -1.0354663 0.608975 -0.8210468 -0.7134584 0.5486828 -1.3960776 0.32222092 -0.049033184 0.6894656 -2.695831 0.13903905 0.3831048 -2.271226 -0.013471853 0.11888937 -0.053178817 -1.3780347 -1.3103276 0.42565253 -0.26788276 -0.0064383717 0.6569288
a18974 -0.113758385 1.376286 -1.0375066 0.46608698 0.1155645 -0.7201509 0.29021913 0.25499573 1.0213941 -0.08405771 -0.45641154 0.97286934 -0.24766776 -0.31954423 0.5088428 -0.96510565 0.7784765 -0.5140593 -0.2773271 -1.3224602 -0.6264957 -0.16499166 -0.49262682 -0.90355414 -0.03543093 -1.2940274 0.0948637 -1.1001 -0.69425756 2.1609533 -0.005618213 0.5294591 0.12036398 -0.57261086 0.3728484 0.02552122 -1.3555895 -0.37992886 0.15043569 0.12743431 0.5535775 0.017199308 1.323486 0.9465598 -0.10523179 0.23356391 0.10622482 -1.5645546 -0.75870836 -0.449039 0.9871575 0.52982545 -1.0259 -0.19813953 0.90739566 -0.6068614 0.10584947 -0.044443727 0.33353016 0.4673817 0.42782387 0.46762955 -0.05960626 -1.0946778
a6534 0.027383735 -0.14892673 0.70310223 -0.0769009 -0.32341874 -0.42720786 -1.6926633 0.6859691 0.11206516 0.22692265 0.31242457 1.2861007 0.20927851 -0.14643005 0.9550464 -0.8043459 0.49964285 0.35747048 -0.80345106 -0.10627666 0.20768063 -1.0459315 -1.194331 -0.18572967 -0.37275985 -0.19420053 -0.0036231894 0.76692 0.8776335 0.24309482 -0.24165872 0.8164925 1.2176715 -0.992572 1.2650813 -0.078998774 -1.8799688 0.03367799 -0.0118570505 -0.43162674 0.106004566 -0.38961962 -1.411381 0.21525186 1.1560299 0.9721446 0.68969786 0.7910443 1.1317925 0.51269895 0.6139425 -0.1565711 -0.3295833 0.09727969 -0.3094402 -0.75001806 0.3575144 0.06703926 -1.0210116 -0.31984508 -0.30023924 -0.19666567 1.5356183 0.2770941
c3819 0.7801621 0.47932133 2.029302 -0.55129814 0.39995334 0.8515919 0.36874312 0.19792233 0.08505899 -1.0865736 -0.48385075 0.5242425 1.3465769 0.61181164 -0.5555107 0.026907144 0.991589 -0.20187733 0.0658729 -1.34553 -0.59742284 -1.7726096 0.8915971 0.8331731 -0.62494886 0.38440302 -0.20338356 0.76529455 -1.063224 0.93147963 -0.2523519 0.37389085 -1.298376 0.44778544 -0.52462655 -1.221668 0.18282373 -1.2169983 -1.0643101 0.03486301 -1.1564776 1.746132 -0.6259655 -0.11300405 -0.8769779 1.397856 1.1659535 -0.41539642 0.82342607 0.9026161 1.3229462 -0.44731677 0.7974137 2.4154155 0.11538268 -0.4724578 0.6131231 -0.052406996 0.7069548 1.1513445 0.3373772 -1.204791 0.0022081675 0.16569316
a12072 0.0745561 -0.306982 -0.24676034 0.7604815 0.86879873 0.46548605 0.24762902 -0.7320306 0.08239521 -1.2068915 -0.5038803 0.12489533 -1.0574453 -0.62054306 0.18168423 -0.8450842 0.25892735 -0.29786897 0.8413272 -1.1845818 -1.3894361 1.5830837 -0.38041112 0.7957633 0.8254302 1.1306056 0.43831077 0.2733336 0.37514374 0.75065976 1.1386422 -0.22952831 0.31957164 0.31720403 -0.36928517 0.69308543 -1.0080765 0.14842254 -0.47045445 -0.5407136 -0.19622308 0.7958263 -0.4414684 0.009937203 0.22039951 -0.5227637 0.84312713 -0.9778968 1.1303985 1.1340328 1.0425206 0.08695492 -0.15224259 -0.2958717 -0.08702551 -1.0920678 -0.42591253 0.19818121 -0.035727646 0.009011655 -0.8494593 -0.1779869 0.19762024 -0.7156641
a2138 -0.31818944 -0.20730732 0.5972998 -0.96563226 1.0687819 -1.5085796 -0.6870972 0.33392015 -0.9347999 0.8327514 -0.6151001 -1.0848114 -0.49407926 0.33322388 0.15351297 -1.4280379 -0.09299724 0.38752916 0.649415 -0.5814127 0.17991993 0.3873545 0.3629455 0.5361617 -1.1407334 0.27172142 -0.14697893 1.021946 -0.75513154 1.447719 -0.0499975 -0.25800368 -1.1372815 0.50342566 0.9562796 -0.2964427 -0.19738707 -0.028655972 0.04387921 0.2531907 -0.20901997 0.35741603 -0.96300435 -0.80602145 0.35061064 -0.04358119 -0.74309933 1.3092078 0.093728356 -0.50751376 0.31429926 -0.16065653 0.38340023 -1.153072 1.4423282 -0.20388867 0.77956504 0.3444746 0.72775114 -0.18374796 -0.86708593 -1.1649913 -0.2179167 -1.6786137
a16227 0.048262775 0.14740604 1.1702896 0.35775334 0.26953655 -0.6006561 0.49947137 -0.534117 2.1614418 -1.3155872 -1.3889399 0.08213366 -1.8070502 -0.8398983 -1.003531 -1.551623 -0.26603395 -1.3324974 -0.60939294 -0.7058922 0.2958177 0.55367094 0.4974618 -0.8001931 0.73395425 0.83935374 0.43633634 -0.58431125 -0.76547396 1.5357908 0.99980134 -0.34157905 0.83812463 -1.9288465 -1.238682 1.0148222 -0.5387262 -0.9039435 -0.30024493 0.87123215 0.5147856 0.46290666 -1.3347344 -0.74873126 1.9303942 -0.683927 -0.3786251 -2.2933564 0.17032087 0.012560965 0.9782351 0.10113452 -0.52424544 -0.016724197 0.69215715 -0.035595734 -1.2036356 -0.10092876 -0.27346644 -0.23002057 0.29481015 -0.8861336 0.7565358 -0.48241442
a8123 0.30811253 -1.0443869 0.48345843 1.0058587 -0.13892727 -0.7449242 -0.43436664 -0.00792356 -1.1038522 -0.036381293 -0.32661605 -0.27239957 -0.5019817 -0.78983223 -0.28070873 -1.169947 0.54705095 -0.34068775 0.73835665 0.045802716 0.38890108 0.36671823 -0.37883744 -0.51373357 -1.3485063 -1.0310013 0.4025639 0.007518194 -0.31189588 -0.7954269 0.7291744 -0.3502305 0.31800443 0.39948732 0.32724604 -1.122075 0.6832156 0.76051277 0.20117405 -1.0481641 0.4253539 -0.7011233 -0.5484973 1.0069472 0.38329408 -0.584909 0.4518957 -0.64972806 -0.059935134 -0.13452478 0.30404612 -0.18742658 0.42992318 1.9911243 0.60338473 -0.4246794 -0.5419526 0.66162413 -0.026344147 0.96216136 -0.23616834 -0.34952933 -0.66695476 -0.041847598
a8287 1.3047928 0.2048557 0.73210245 -0.20824374 -0.42450038 0.8447437 -0.34228167 -0.6905898 1.0113776 0.5086859 -0.86051995 -0.70829123 -0.1452241 0.99938583 0.55340534 -1.1066606 0.6800101 -0.6853099 0.603706 0.9265194 -0.30080983 -0.79970694 1.3744388 0.19138892 0.20885879 -0.6969917 0.4253619 -0.70336634 0.27863735 0.23613924 0.7857125 -0.9108428 0.39844385 0.32057977 -0.06141095 -0.36211875 -0.3680836 -0.42650872 0.442286 -1.7206647 -0.060080353 -0.22743975 0.09212582 0.40660214 1.1621226 1.3562706 -0.4734141 0.8678201 -0.55277365 1.0817508 0.8081121 -0.014353889 -0.7614671 -0.5528582 -1.012499 1.5727656 -0.11791086 1.9719166 0.56760323 -1.322152 -0.044666044 -0.873611 -1.3609687 0.08769873
c10852 0.008379526 1.0901077 1.2501522 0.7083003 0.23739815 1.1172084 1.8536828 1.2019627 -0.67180973 -0.35529917 -0.42747483 -1.1465116 -0.19437937 -0.56092805 -0.16220665 -0.09135184 -0.19699182 -1.0190401 -0.22368081 0.84200615 1.2024823 -0.63310516 0.08177178 0.12479749 -1.6462042 0.38753763 -1.3559558 -1.6276153 1.6554313 -1.2586355 0.47236285 -2.201289 -2.5674684 1.1471223 0.91010195 0.03895801 -1.501487 1.5933454 0.7969596 -0.31582382 0.589203 0.6618088 0.6442594 -0.5812691 1.9722548 0.37097773 -0.23741938 -0.2583618 0.53246534 0.6026856 -0.107686006 0.21356453 -0.8491946 -0.1132029 -0.885584 -1.1293414 0.3543195 -1.4633448 -0.71373343 0.67191696 1.045208 -0.23170628 0.84431016 -0.9736662
a19620 -0.7254782 -0.25721538 0.19333725 -0.40979186 -0.90813595 -0.37782148 -0.50367314 0.64710927 -0.8243024 1.6615708 -0.4625933 -0.15901807 -0.060870364 0.45463318 -1.2659956 -0.16053203 0.9433952 -0.023041518 0.8147696 -0.8865038 -0.82039976 -0.6307271 -1.2627436 -0.65021074 -0.7336254 -0.12780774 -0.5176151 -0.12676172 0.39973587 -0.8027627 -0.4953188 -0.99791324 -0.19296312 -0.11482626 0.07809869 -0.10030338 0.516288 -0.2407039 0.37797296 0.24411705 0.5883769 2.162338 -0.607347 1.9670484 0.023323957 0.23320754 0.15048586 0.34205228 -0.12108852 0.46327892 -0.5612303 1.7393248 -0.8434893 0.72250366 0.5154332 2.098092 1.2092954 -1.0901885 -0.63362783 -1.1915615 -1.2618827 0.7219855 -0.0586465 1.110671
a5438 -1.1882942 1.3715833 0.38761294 -0.70620406 1.1749463 0.25673187 -0.21081905 0.13824475 -1.1316247 1.0675244 0.6072364 -0.6491184 -1.3469952 -0.9682026 -0.16933267 -0.086771 -0.5688861 -0.31227472 0.155798 -0.90391487 0.93018585 0.30015096 0.61024076 0.11378653 -0.20638447 0.09788477 -0.029635277 -0.82848495 -1.3063362 0.017624838 -0.5656394 0.39887148 -0.30983722 -0.4548579 -0.7671241 0.5235657 0.6119745 -0.95570153 -1.3314277 0.82256883 -1.5356903 -0.3857732 0.1208487 0.7113437 0.49094787 0.18900397 -0.027002439 0.47314364 -0.14011075 -0.58345747 -0.37744173 0.46519756 0.47704363 0.73735267 1.1352214 1.0177759 -1.216242 -0.3809268 -1.4180392 0.043007325 0.4891163 1.1814358 0.6316528 -1.8071512
c5022 0.62846595 1.137861 0.69120365 0.075675875 0.709533 -1.1550813 0.033075254 0.20579349 1.0398611 -0.10676426 0.5441357 0.8672483 -0.15328993 0.8097609 0.5206073 0.65972394 -0.7773528 -1.2012616 0.38395098 0.4883355 -0.0270376 0.46539956 -0.205198 -0.37067574 2.1123023 0.8903206 1.6172888 -0.66574526 -0.64747757 0.12388322 -0.6452251 -0.79864615 -1.5968568 -0.21794373 0.50100744 -0.25684768 -0.63153416 0.01838436 -0.120740674 -0.22257598 1.1761959 -0.010872363 -0.85459864 0.62492377 0.5938745 -0.3192076 -0.39233148 0.30537534 -0.22287393 0.34458435 -0.17870551 -1.227549 0.868758 -0.5798908 -0.36446843 0.4657563 1.361008 -0.25681895 -0.8961166 -1.4957126 0.24270257 0.23629545 0.20482054 0.2023967
a11611 0.012067764 -0.65467274 -0.6521826 -0.04967683 0.5381417 -0.045375064 -0.8336707 -0.610907 0.6695537 -1.1480719 0.07362636 -0.65577483 0.27150252 0.2967716 -0.48032475 -0.3712644 -0.09411371 1.0931325 0.77630544 -0.32869986 -1.5986379 -0.087550186 0.96805793 -0.64913267 -0.40215915 -1.2753116 -1.820228 -0.5156529 -0.17738838 -1.1694928 0.19178945 0.62865835 -0.7510469 -1.3361919 0.028761677 0.81649107 0.08803974 -0.113078326 -0.39807272 -0.74186677 0.15708174 0.67885935 0.43397704 -0.51683277 0.26391658 0.14688484 0.043726988 -0.946855 1.1297561 -0.39556408 -1.218395 -0.31414044 0.097165525 -0.15718478 -0.48929226 0.70225835 -0.14849646 -0.11378522 -0.87144154 0.8407544 -0.8013406 0.44581786 -1.3469994 -1.3866291
a12939 0.13930465 0.47807655 -0.005716821 -0.07540716 0.11744573 -1.5256816 0.87777805 -0.02553565 -0.9001962 -0.9038479 -0.8340723 -0.8221187 -1.2507381 1.233083 0.5368496 0.59128183 0.90797067 0.4172415 1.5053964 0.17417149 -0.6008205 -0.418961 -1.3605115 -1.5620847 0.038225662 -0.28080073 0.5139842 0.56609255 0.785321 -0.1781046 -0.07480766 0.29496494 -0.13210446 0.34347427 -0.30745772 1.0338291 0.24800235 0.4338613 0.4005037 0.10363511 -0.30289915 -0.011165726 -0.68125653 -0.08096501 -0.8589097 0.90225273 0.15833496 -0.25110188 -1.4991292 1.398884 0.71119314 -0.18284038 0.20517695 0.04906179 0.15888558 1.1723377 -1.1231112 0.17452858 -0.912539 0.89749205 -0.100839995 -0.18662658 0.5636672 -0.49697223
c4617 1.2023898 0.072786264 1.6473466 0.15501691 -0.047429476 -1.1471069 1.3310161 -0.63682455 0.2445691 1.4122559 0.5821034 1.5244216 -1.6303436 -0.12720378 1.4021492 -1.3112527 -0.95480704 0.42045164 -1.2043247 -0.27330095 -1.4032445 0.5140585 0.7627703 -0.00657506 0.46083218 0.23844817 -0.3639876 0.19669828 -1.5133775 -2.0279214 0.045326702 0.57010436 0.08026375 0.3277235 -0.012346455 0.6577898 0.52007884 -0.22945009 2.105476 -0.43120176 -0.007731274 0.5483391 -0.07085452 0.7670029 -0.96375185 1.0555695 -0.56947297 0.16521013 -0.0093712695 1.0637447 -0.77790415 -1.1494197 -0.55577344 0.16849017 -0.2636514 -0.7415832 0.3980766 -0.5438352 0.13784075 -0.21629816 0.3531301 0.8483137 0.4622368 -0.34497744
a18976 0.45442197 -2.1876242 -0.363283 -0.2671489 -0.08071093 -0.47940335 1.1979764 0.7589124 0.29894704 0.20811711 1.6954844 -0.42961773 0.86364436 0.3992771 0.20111792 -1.7137707 -0.5390548 -1.165371 0.929373 -0.35425234 0.15915899 1.5273592 -0.7009267 -0.9422377 0.89721453 -0.6401059 0.3934101 0.27291968 -0.14916092 1.0654007 0.84791356 -0.06447122 -1.4864001 0.23060958 0.68578565 -1.0746565 0.3663525 -1.3465214 -1.5965743 1.3527204 -0.2665496 -0.7802146 -1.2968162 0.7256175 0.35172305 0.54394126 0.11169534 0.3281862 -0.8668302 0.62077093 -0.8392476 -0.05724053 -1.741689 0.22210872 -0.8501194 0.22880621 0.66377276 0.45612314 -0.1807842 -1.0643277 0.7253459 -0.36209288 1.2334358 -0.26651576
a9548 0.21277206 0.21771681 -1.1705157 -0.4406346 1.4866631 0.79725605 0.6117294 -0.45158517 -0.8390341 -0.8597078 1.2310818 -0.75997406 -0.49055058 -0.062108103 0.014119739 -0.49361512 0.18151242 0.5417095 1.0936464 -0.93430275 -0.46714628 -0.89828867 0.13786165 -0.52695954 0.43587098 -0.901562 -0.5803299 -0.40787998 -0.0067475066 -0.4893297 -0.29373717 0.8247445 -0.44825 0.31445205 1.1460798 1.9574381 0.46151456 -0.9835402 0.19111587 -0.55654365 0.8914847 0.0059759216 -0.20831004 0.47160268 0.3123971 0.2732983 1.5387932 -0.9558409 0.80196583 0.07353041 -1.0737156 0.83998656 1.5039276 -0.84411764 -0.6080488 -0.28995356 0.50466704 0.51301724 0.51483405 -1.3675033 0.29673293 -0.3978365 -1.854905 -0.30785125
a14615 0.2651567 -0.49378708 0.72902155 -1.7391782 1.240387 -0.8224961 0.36623853 -0.24688289 -0.30890492 -0.2664261 -0.0502763 -0.30701476 -0.99668795 -0.27138528 1.1740292 0.68530005 1.2454655 0.3976367 1.7563277 0.43204823 -0.13110134 1.4461056 0.45214847 -0.03426822 -0.3090683 -1.5826929 0.4715169 0.96570647 0.70208055 0.048343994 0.775708 -0.016273491 0.49314538 0.14647776 0.72387916 0.6159096 0.16312684 -1.5627643 0.86644536 -0.30046543 1.2814155 0.3423576 0.28514206 -0.0554643 1.3345534 -0.90750605 -0.18161578 -1.0423113 0.24940461 -0.6392178 0.53354883 -0.33129945 -2.0345364 1.4694706 0.3728272 0.85628027 0.96539575 -1.0117689 0.8323443 1.5894022 -0.8700671 -0.754876 -0.85020006 0.15112911
c8443 -0.12110325 0.19353624 -0.0840826 -1.565589 -0.5645335 1.3752745 -0.1977875 1.196471 1.4110271 -0.7078766 -0.019872634 0.08673697 0.33804005 -0.80620635 0.49199948 0.7144448 1.170874 0.3097719 0.088553764 -0.3690575 0.8349991 2.0441923 2.0674343 -1.5206534 -0.10577459 -0.50978124 0.65229577 -1.2860875 -0.6482324 -1.0441245 -0.24615932 0.17334089 0.4967487 1.7510211 0.76512504 -1.0992366 -0.49358457 -0.18411529 -0.24251929 -1.3040512 1.2987055 -0.8570985 -2.248427 0.03441781 -0.43616983 1.0064344 0.3451494 -0.020047136 -0.16376074 0.85537434 -0.17096215 -0.1861274 -0.28214929 -0.30820554 0.30544424 0.37113073 -1.5378941 0.19835354 0.94401306 -0.26262587 0.15193708 -0.103294395 -0.074719824 -0.6014694
a6650 -1.8803985 -0.31080008 0.55644923 0.044419486 1.050114 0.56719494 -0.53538585 0.38600793 1.2319175 -0.9014529 1.0109763 0.30543983 -1.1670332 1.3327987 1.6314057 0.6087929 -0.014744889 -0.53165483 -1.1520894 -0.29600552 -0.09826009 -2.1268308 -0.09825121 0.7357595 0.52440363 -0.10160469 1.1294962 0.052919574 -0.060704287 -0.8032997 1.096038 0.16210145 -1.5991861 -0.44842264 1.8979447 0.28979316 0.38725483 0.61089814 -0.5283538 0.96792257 0.5439158 0.3179758 0.8496072 0.7179307 0.050634366 -0.6842296 -0.4442708 -1.5164852 -0.23855294 -0.5505853 -0.043684203 0.13884626 0.6557356 -0.27223307 -0.37235034 0.01682224 -0.72530895 0.63549227 0.83138317 -0.24611361 0.5367427 0.56572086 -0.36854374 0.15383397
a10347 0.089366056 0.8971474 -1.9149244 0.82085305 0.5235357 -0.17552818 0.16214961 -0.15764321 0.7924829 1.2180423 0.5304969 0.45383188 1.6612158 -2.7661579 0.26042214 0.35204107 0.32912314 -0.2640527 0.8136084 0.24190603 -1.0418845 -0.9673624 -0.8052538 0.8981228 -1.0449599 -0.570842 1.1253064 -0.54524374 -0.84137726 -0.84652036 -1.3543202 0.5335195 0.012688211 -1.0647062 -0.02204945 -0.79168874 1.2437862 -0.15446766 -0.5946974 -1.079772 0.64656794 0.32220507 0.23645647 -2.198652 1.5088551 -1.4482068 0.43808094 0.7188775 0.37110192 2.3032558 0.27937555 0.24374792 -0.9586649 0.5984174 0.28251556 0.40670353 0.058745455 -0.8847012 0.8834878 -1.0173217 -0.538398 -1.7780516 0.16175044 -0.8047055
c5086 0.80807555 -0.29759014 0.97258043 -0.3445989 1.2099946 0.42818928 -3.1061 -0.05039572 1.1316184 0.27533397 -0.39416456 0.1650613 1.1014036 0.38146093 0.71971005 1.6689034 -0.563412 1.2192854 1.2135501 -0.36878747 -0.69636184 0.1501574 -0.022813166 0.35765925 -1.50087 0.5857384 0.05866003 -0.2375062 0.102207504 -1.2331185 -0.90170175 -0.9993771 -0.39372894 1.7490165 0.35517597 0.32592446 -0.49335855 1.3527591 -0.05537115 1.0624077 -0.6765971 -0.008424726 1.349895 2.0784678 0.59809303 -0.4712396 1.671844 0.02666733 -0.69900644 1.4025779 -0.79756063 -0.009243837 -0.36610764 -0.75631094 0.16757265 0.3655238 0.2501328 0.24098508 -0.3957041 -0.8104031 1.2035373 0.3748488 0.7017249 -0.6350175
a16766 0.053207997 -0.5775163 -0.9657175 1.3094085 0.043924738 0.9823812 0.83384824 0.21881764 0.24402508 0.49792677 -0.04656433 -0.37685642 0.056357678 0.49735114 -0.9432242 -0.113738835 1.4390138 0.03350571 -1.356522 -0.6699555 -0.43498868 0.036808513 -1.1058841 -0.85321057 -0.33132994 -0.31835473 -0.662986 -0.048361517 -1.5539953 -0.90063673 -0.25220975 -0.65452194 0.05325126 0.17937356 -0.6482642 0.009760666 1.0416573 0.96821064 0.9040627 -0.024594234 -0.35746393 -0.055597596 0.48532352 0.9879209 0.41669682 0.05201724 0.18182252 0.7808592 0.910614 -0.77900064 0.033589475 0.37123245 0.843672 0.48444396 -0.6628531 0.74589264 1.5303913 -0.312619 1.0109266 -1.0437415 0.47397557 1.2184416 0.4005642 -0.13496312
a4200 -0.020720074 2.0592272 0.35593572 0.5305318 -1.3071033 0.5376638 -0.52449447 -0.888357 0.34225306 -1.0779872 1.4075782 2.345607 -0.46561903 0.7399485 -2.435907 0.7843045 0.6898552 1.3179204 0.5583326 0.052272253 0.30924803 1.4382676 -0.666256 1.0968161 0.9901284 -0.5547406 0.5694654 0.15879828 0.816423 0.70773005 0.140881 0.2226157 -0.45471543 -0.38311985 -0.47007746 -0.2866269 0.9300898 1.6931679 1.3326553 -0.12282676 1.055815 1.419194 -0.03654754 0.2920204 1.2515413 -0.13184069 1.6573765 1.0632204 -0.3343083 -0.9115856 -0.28282776 0.51570034 -0.24549869 0.62445885 -1.2460535 -0.2364973 -1.4563955 -0.6146713 1.0778728 1.9752287 0.62075883 1.3408445 0.5402123 0.8191928
c5079 -0.061240993 -0.80763215 -0.64389545 -0.6346441 -0.24989985 -2.0234227 -2.3528774 1.357223 -0.20698118 -0.60795623 1.431653 -0.84056795 0.39228323 -0.5718073 -1.184946 0.10384656 0.24628188 -0.5929843 -0.6670253 0.6339827 -0.8220747 0.80495733 0.6249336 0.22852643 0.12214433 -0.37412527 0.4187432 0.6651979 -0.8689708 0.23831147 0.4772029 1.6709131 0.92678595 0.46452302 0.16332833 -0.0028336202 -1.1638497 1.3962532 0.8160782 -0.2604202 0.054036167 0.78296655 -0.07613426 -0.9554496 -1.6389494 0.49856395 0.6216563 -0.71894145 -1.0149803 0.94232357 0.098273635 -0.053270295 0.9393648 0.38304722 -0.61434007 -0.47762734 -1.4098244 0.49368957 1.3878058 -1.5439615 0.7756726 -0.38285154 -0.4263711 1.3774161
a3843 -0.24052963 -0.34023646 -0.27464598 -0.5073686 0.18544613 -1.5419153 -0.2783879 0.55312055 -1.815421 -0.44214964 -0.55736953 -1.0588839 -0.6799352 1.7084974 -0.89256173 0.61058164 0.52835387 1.092735 0.22807516 0.73020464 0.5459519 -0.23577435 -1.0309869 -1.5722374 1.4156623 0.01804244 -0.9742183 0.3633026 -0.37584752 0.74684817 0.4215677 1.5723954 0.1260901 0.113951184 0.046329275 1.1847577 -0.36621082 1.552117 -0.25917447 -1.2205988 -0.3579079 -0.6564835 1.674593 -1.4096556 -1.7087581 -0.029936856 -0.7581511 -0.41168693 -1.1984822 2.6436207 0.9353242 -0.12162907 0.21064246 0.9052219 -0.78359807 1.1239239 -1.7484484 -1.2783809 0.45418003 -0.86986756 0.7755155 -1.1489087 1.4928566 0.16654032
c1225 0.038045317 0.8606168 -0.8110632 -0.13793872 0.57691956 -1.0813335 0.40709245 0.65920246 -1.2233437 0.42013884 -1.5235524 1.7331184 0.75129586 0.70987505 -0.32357717 1.2800281 -0.33274034 1.2605128 -1.7670196 0.756072 0.16839314 0.54155666 -0.42104918 -0.41391367 0.7955978 2.0599043 -1.0840622 -1.1197343 0.4181553 -1.1503642 0.86640066 0.55830723 -0.13022915 0.13806006 0.07999629 -0.26320904 0.15816627 -0.20381397 -0.45429984 0.06348977 -1.5229669 -0.28201175 -0.064733736 0.31609806 0.6144866 -0.1467164 0.89819527 -0.39416274 -0.5134637 -1.8041825 0.70224446 0.015352927 -1.1437184 0.42659894 -0.056848057 -0.22269572 -0.7376165 0.8168576 0.32888114 -0.7786477 -1.3199168 -1.865199 -1.6455185 -0.15434365
c4892 0.17492484 0.5431767 0.06597197 1.1863948 -0.5125301 0.83446145 -0.7714896 -1.5624067 0.11850706 0.13879985 0.23255008 -1.019982 -0.5641503 1.0760303 -1.2823424 -0.07192428 -0.5278835 1.1087841 -1.0408362 0.27827683 0.1709119 1.1330651 -0.48152393 -0.7791762 -0.016470378 0.24845845 0.5215241 -0.098063655 -0.50718844 1.1610334 -1.1900507 -0.27441564 0.38540736 -0.27219757 0.7868697 0.30012897 1.7095977 1.1920363 -0.49587697 -0.93978465 -0.28280845 0.27125135 0.11255912 0.19178446 0.08914001 0.13897 1.2153637 0.9509001 1.4979751 -2.7553036 1.1734664 -0.63824683 -1.1812117 0.5100107 -2.1051137 0.18487759 0.32822862 -1.5231415 2.8575907 -0.5300459 0.7110423 0.62597233 1.0041457 -0.37018383
a2080 -1.1698126 0.2961869 1.3458915 0.26555434 -0.27775344 -0.0052973963 -0.72345 1.0624982 0.14910409 -0.36186486 -0.2910366 0.40552887 0.3145495 0.20117639 0.5262881 0.36657152 -0.6575003 -0.15954402 -1.3020799 -0.54563224 0.5474449 -1.4266647 0.26052287 -0.088674575 -0.30351502 -0.54100615 0.7467307 0.97669977 1.3601627 -0.344522 0.9328222 0.6843359 -1.609465 -1.7778069 0.38017434 -0.18119 0.42577308 1.3949251 0.1668288 0.10211194 1.0467671 -0.11783321 -0.40678018 -0.23564218 -0.47559285 0.0012997165 -0.81877863 -0.62258357 1.3445339 0.25063193 -0.9025839 1.2731904 -0.56376636 0.1847223 0.5881244 1.0674412 -0.04415087 -0.17888601 0.72848713 -0.8621053 -0.35239142 1.381461 -1.3394496 -1.0829755
c9874 0.57205796 -1.4624282 1.47889 -2.0264575 -1.7357098 0.47503442 0.733992 1.4771302 -0.4399937 -0.3757886 -0.38287637 1.0332129 0.12578723 -0.8533811 -0.5501088 0.42141467 -1.2410936 -1.099257 -0.43694258 -1.1700377 -0.8377072 -1.0488636 -1.6418631 1.146643 -0.06704096 -1.0202771 0.56403255 0.5460628 0.22097625 -0.35321075 1.6479332 -0.46900976 0.49144655 1.24479 -1.2625147 -0.12496491 -0.069271505 -0.29952782 1.0299853 -0.56286436 -0.45699677 1.2815504 -0.8842249 1.5522094 -0.123474605 -2.3093624 -0.6694229 0.6120082 -1.9776601 -0.23545827 -1.130034 -0.17522603 -0.82072836 -0.29965708 0.4329722 0.3588601 -0.2590979 -1.2882562 0.174792 -2.0604281 -0.09313464 0.47680983 0.45926332 -0.009056697
c139 0.47170997 -2.2218046 -0.16285266 0.6759336 -0.089124426 1.1071054 0.17334346 1.2641767 0.5638213 -0.030559136 0.28094098 0.349153 -0.3793075 -0.7043452 0.68549293 1.8230404 -1.7662026 0.63445 0.15732172 -0.7245104 1.150736 -0.77477473 -0.97875077 -0.6494627 0.4580767 -0.54333663 0.9587877 -0.32687134 -0.7463966 0.740766 1.289151 -0.114075035 -0.1974018 0.86659867 -0.37779632 0.49645823 0.14648728 0.6446045 0.97159296 1.2764803 0.687731 0.3817536 -0.6625534 -0.4070742 -0.50020474 -0.5123099 0.41536364 1.1583135 -0.4900345 -0.42466348 -0.7108471 -0.69188905 0.6941489 0.18702063 0.37995878 -0.61638474 0.7250159 -0.7646009 0.26002252 0.103920124 -1.0065495 -0.75338864 -0.24491051 0.3725905
a2074 -1.6084224 0.074875474 -0.7004817 0.6110139 -1.7766088 -0.7409718 -0.034988645 -1.1870545 0.5662069 0.16896269 0.12458665 -0.07937513 0.78848314 1.0957731 0.43818533 -0.6030402 -0.2053904 -0.13850385 -0.67154855 0.5695213 -0.7992967 0.06762231 -0.32432982 -0.21513037 -0.46308938 0.12955068 0.20100796 1.4311699 -0.9880081 -0.3153184 1.097906 0.31526762 -0.55868155 0.63443595 0.09025938 -0.029739542 -0.14008248 -1.1831031 0.7400365 -0.46194395 -0.98412186 -0.9653707 -0.023427777 1.337907 1.1721926 -0.6585236 -0.12930799 -0.46470088 0.8421844 1.3373889 0.35766748 -0.14221136 0.5972909 0.050593656 0.9144244 0.35519126 -0.1761136 -0.5040331 -0.43130025 0.5281327 1.2050004 1.0788873 -2.1167924 0.22179098
c632 1.3725395 -0.78036684 0.24095608 0.46523854 0.09598644 -0.029439349 1.1355767 -1.2940707 0.6609311 -0.34592175 0.15525675 0.9062556 0.17791484 1.0645916 0.23653601 0.071075015 -0.4681243 -0.8794795 -1.8650637 0.93326163 0.919854 0.8532066 1.2377858 -0.53992295 -1.0344806 -0.15028775 -0.45933375 0.87221134 1.3037126 1.5086118 -1.4429951 -0.40432832 0.97718036 0.640035 1.460399 -0.6238984 -0.6128906 -0.2523397 0.017111463 -0.045041956 -0.9150535 0.42613715 0.51813513 0.055887524 -0.825289 -1.4428494 0.2314002 -0.6225886 -0.5493629 0.44687653 -1.2222879 1.8247207 1.7816159 -0.036363974 -0.42905498 0.5970161 -0.2224599 -0.6207974 -0.27657726 0.50779307 -2.3088202 0.30237368 0.009589698 -0.1156243
a9812 0.9951119 0.75163907 0.69069827 0.043448143 1.2852576 -0.5894077 0.44299924 -0.29038605 -0.05549734 0.16652243 0.52778673 1.4953575 0.11864757 -0.19449013 -0.18387136 -0.2710494 -1.1585822 0.5795703 -0.035156336 -0.43061376 -0.6492995 0.25629115 1.6408494 0.4273337 1.4873953 0.040529445 -0.15482682 -1.2566948 -1.0567187 0.07981835 0.45999083 -0.22482656 0.14274165 -0.94673705 0.32341436 -0.57597935 0.03903751 0.6795331 2.593061 -0.5666353 -0.9335405 -0.18119505 0.27919483 -0.05687724 0.91404444 0.53955936 -1.080766 0.30040398 0.27495202 0.7627381 -0.95301205 -0.80979174 0.8645776 0.33094186 0.14761235 -0.15882067 0.1990903 -0.7269581 0.0133210495 -0.24800074 0.14649719 1.5206064 0.109765194 0.06971444
a13571 -0.37853718 0.2791005 0.24328142 0.22850329 1.2221335 0.15848702 0.6189514 -0.38057333 0.3801699 1.0533973 0.1811569 0.25558612 -0.55418986 0.6026109 -0.55011135 -0.09648082 0.18878457 1.6683574 0.73735756 -1.1373264 0.39900964 -0.4980168 -0.72702587 1.8000393 -0.3840348 0.09099862 0.93517923 -0.5774341 0.22669843 1.7255613 0.3333269 -0.9200988 0.15037116 0.5371287 0.9350388 0.07860347 -0.018352693 -0.15860233 0.91550547 -1.0807782 -0.36289838 -0.99119025 0.20817947 0.6366965 0.30612263 0.89762247 0.08605555 -0.20527817 -0.5763018 -1.1260674 0.13552953 1.5563388 0.63021344 -0.28810814 1.9527653 1.6832397 -0.10253538 0.45887303 -1.1311916 -0.5304688 0.9000669 -0.121430375 0.4457539 -0.12528972
a1416 -1.3999509 -0.8312403 0.038757846 0.16032308 0.6374246 0.22975388 -0.5767775 0.7442947 0.36373577 0.5384551 0.5516048 0.73232764 0.10366585 0.5449797 0.50205815 -0.31292388 0.062425327 -0.4929106 -0.25723052 0.49395728 0.6572969 0.48151377 -0.48055387 0.42931145 -0.13581386 -0.6810802 0.41807708 -0.50889015 -0.38489804 0.8089328 -0.30300915 0.3802863 -0.83870125 -0.2539526 0.17659274 0.009726728 0.47245356 0.24941933 0.2438939 -0.16385221 -0.25912088 0.7347555 0.016896658 -0.002878362 0.80476743 0.25949386 -0.2969328 -1.3778957 -0.07685707 -0.20370416 0.03071855 -0.61253697 0.7392703 -0.62082124 0.57978755 0.4191902 -0.30495802 0.11030646 -0.625384 -0.17788254 -0.29148206 0.15469795 0.24702303 -0.48055986
a14556 -1.3497342 -0.86793333 0.2808854 -1.2578424 -0.08132552 -0.70002574 -0.08303595 -0.15486825 1.0945346 -0.08813439 2.359342 -0.8863033 -0.0927349 -0.5812367 0.3532728 -1.1919163 -0.13622493 -1.5239245 0.9341849 -0.6835285 0.29889885 0.06523122 0.90359944 -0.6441847 0.54424685 1.6751525 -0.74955994 0.45053485 0.8600936 -0.0052689295 -1.7203317 -1.1128565 0.62703717 -0.0076409415 0.3682691 -1.6288543 -0.010036038 1.4663117 -0.036177993 -1.6210636 0.79816014 0.38454264 1.2072085 0.19467938 0.33489993 -0.14128214 -0.5416944 0.5207124 0.27257246 0.29095763 0.1311066 0.06708318 -1.4884474 -0.41555977 1.7977555 0.71271 -1.0503017 0.77012247 0.35889038 0.07307538 0.51887226 1.007506 -0.363168 1.0272735
c3973 0.56119025 -0.5709055 -0.19201505 0.43457222 0.4096872 0.007112052 0.9234289 -0.44081372 0.48219144 -0.04681592 0.91083884 -1.5194793 -0.16927585 -1.5564513 -0.33662054 0.4737194 -1.0206871 -0.5200767 -0.60873336 0.32021245 0.5929227 0.039336316 0.78072137 -0.8186498 -0.15586516 0.6031426 0.3732965 -1.5206928 -0.64607334 0.11925606 0.9070507 0.16565074 0.08566214 0.93435967 -0.6565998 1.0994805 1.160557 -0.35101828 -0.6570637 0.48515624 0.12616412 0.7363165 -0.29049942 0.11975724 -0.0814539 0.73465157 0.57574826 0.0026459214 0.19878174 -0.4869188 0.6202616 0.7889991 1.3447618 0.5839898 1.8141038 1.1985967 -0.53376746 0.37760654 -1.3388838 -1.5506524 0.86640435 0.68374217 -0.19446501 -0.40884697
a14980 1.2954684 0.29012728 -0.72855 0.15289786 -0.25639305 1.128582 -0.93743086 1.607523 -0.25898343 0.58101296 -1.3528537 -0.3246854 0.34630015 -0.12272375 -1.1744567 -1.7922928 1.1690571 -0.5753957 -0.19830307 -0.26344457 -1.5505776 -0.34987712 -0.5583161 -1.9853797 -0.8186074 0.6024139 1.4677006 -0.5913044 -1.2159529 0.22008373 0.59787256 0.6364405 0.9074246 0.2559835 1.5680684 0.15719521 -0.6711886 0.55361044 0.69814456 1.4359351 -0.6745257 0.33676898 1.029238 -0.59847456 0.5256463 -0.62683314 1.3406104 -1.7022102 -0.30007342 0.0379034 -0.80152464 1.1233491 0.025651323 -1.4238334 1.9219054 0.024211219 -0.24725348 0.48011798 1.2952579 1.3890707 1.0882921 1.6775467 -0.41367018 0.9096764
a11559 -0.061954804 0.37152806 0.13661748 0.39002532 -1.4071419 -0.8263337 -0.004349918 -0.17013434 0.17664596 -0.03570929 0.16787662 0.09190487 0.15926732 -0.6012077 -0.64896154 -0.273384 0.44925535 0.8407198 -1.9295607 -0.44695124 -0.22902466 -0.75504935 -0.3394306 -0.24516499 0.8953429 0.21798898 1.4445597 0.39574036 0.7377581 0.26300237 0.27788392 -0.697683 -1.2398205 -0.2506995 0.4728999 -0.32161823 0.29779598 0.5718496 0.18947698 0.0027651899 0.23889655 -0.59503853 0.12721731 -0.13897482 -0.16385844 -0.08643692 -0.96796024 -1.2100455 2.0582957 1.3949555 -1.2425809 -0.38119343 0.34913263 -0.14961562 0.87467307 0.2544372 1.1527798 1.0546316 0.4594836 -1.204058 -0.79203916 0.33131722 -0.28316554 -0.26778027
a14408 1.7627876 -0.8736206 0.7252506 -0.26995927 -0.9804242 0.18013828 0.17629033 0.80255497 0.71320206 0.13263725 1.1832082 -1.6695632 -0.30151796 0.74055016 -0.45776865 -0.44994265 1.2064669 -0.45484275 -0.022116324 -0.3836236 0.29807073 0.8859137 -0.044068243 0.20942812 0.80186373 0.50100166 -0.40388763 1.432468 0.4045563 -0.07444051 0.22810581 -0.15210673 -1.0085329 -1.0937128 0.65630466 0.62732476 1.2495548 -0.7177936 -0.90868706 0.2718892 0.03689073 -2.0685995 0.50755155 0.017713267 -0.21980968 0.95844895 1.2761984 -0.3777252 -1.0233017 -0.708945 -1.0114187 1.3422215 -0.5044941 -0.086124636 0.15667373 -1.858546 0.24433528 0.32918593 -1.1240959 -0.20485781 -0.919153 -0.55048925 0.62867576 0.060121767
c7499 0.33816946 -0.40884343 0.70684737 1.273071 -0.1364284 -0.7406484 -0.22338305 1.4073465 0.8795641 1.0137444 1.416758 -0.7986696 0.9141199 0.68981576 1.4368299 -0.110565975 0.42404878 1.4838271 -1.0393736 0.6409886 -1.8248492 1.03788 -0.27869827 0.6714734 -0.4410134 -0.29230782 -0.33594006 -0.88433975 1.0329785 -0.57411975 -0.4500598 0.6313994 0.5161165 1.1395433 0.593686 0.36287403 0.015790569 -0.66537523 -1.3070687 -0.2438585 -0.8299449 0.38300133 0.1728238 -0.376939 0.30375838 0.7997406 -1.6796056 0.26617303 0.73639226 0.264745 0.6881675 0.058966592 0.34967378 -1.0214008 0.3796025 -0.46989858 0.11947347 -0.3405005 -0.4166787 1.5167044 0.74900514 0.5904407 -0.31471896 0.3922212
a9619 0.4125761 -0.5142553 -0.116277285 -0.45870906 -0.570471 -0.009141909 1.2217878 -0.47900817 -0.72740674 -0.26366445 0.12809782 0.069131754 1.338761 -0.72156274 0.2545817 0.09953312 -0.45235696 0.85197455 -0.027687881 -0.47542068 0.25741404 0.5153618 -0.48099005 0.4408255 -0.49054366 -1.1168097 0.38096187 0.6091379 -0.26088792 0.63325936 -0.7787893 -0.26745135 -0.3470548 -0.02309804 0.5723519 0.8331092 0.4808341 -0.15544254 0.15949205 0.523982 -0.07293159 -0.17666136 -0.6738731 -0.27677602 1.5260997 0.6812489 -0.80202067 -0.39718518 -0.22612582 0.39108956 0.04135954 0.8902863 -0.40080434 0.42967433 0.090368986 -0.2883021 -0.6857728 -0.25374395 -0.61187065 -2.1371012 0.59093773 0.85702866 -0.96950763 0.2544469
c6432 0.1443777 -0.5744796 -0.069907084 -0.3722964 0.700198 -0.0096104415 -0.074028395 0.1783076 -0.6469904 0.20338745 0.3959654 0.35904485 1.0541323 -0.6609932 -0.21335235 -0.6617044 -0.61859274 -0.68829185 -0.0061308714 -0.24361996 0.45558164 0.7391827 -0.42369434 -0.11464765 0.49678528 -0.16340199 0.15878728 -0.9131758 -0.56957465 -0.3291458 0.40220484 0.01480085 0.25333235 0.47358152 0.6282606 -0.65242374 -0.025930144 0.1727437 -1.0570122 -0.087879404 0.16247386 0.24778424 -0.09170621 0.48374853 -0.43606353 -0.3157368 -0.70790726 0.077128395 0.046914555 0.14643443 -0.04290231 1.5089055 -0.14346462 -0.03473177 -0.5747687 -0.25584638 2.0826485 0.4082785 -0.2891106 -0.022878818 0.7286972 -0.27434015 0.8157643 1.0314939
a14967 0.4967689 0.7846241 -1.4888899 0.68568575 -0.2018684 1.0447183 0.38824514 0.81022817 -0.030323762 -0.08064278 0.5117656 -0.35681114 -0.083370745 0.38798806 -0.75722086 -1.7543663 -0.3846003 -0.4106862 -0.69190586 1.0060024 0.39044732 0.29011306 -0.48921642 -1.0741144 -1.8159523 0.57337296 -0.17611785 0.15567048 -0.96521705 -0.672324 1.5311759 0.20453185 0.56236404 0.057643462 -1.0833994 0.45005968 0.061839916 0.5665728 -0.76211905 1.4055856 -0.22065073 -0.52567774 0.10543689 1.0505623 0.0371681 0.9089739 0.6832317 1.1237317 0.47422183 0.5208237 0.20656496 0.90265346 1.8053154 -0.92131877 1.5367161 0.4589105 0.08559047 -0.4109401 -0.58797467 -1.2449722 0.53131676 0.94193554 -0.43392146 -0.8689783
a9446 0.838868 0.69418097 -0.1567027 -0.87982607 -0.12019325 -1.0808748 -0.49015036 0.045927092 0.01410019 -0.28454325 0.47258696 -0.3057402 0.45865962 -0.8997961 0.2563045 -0.3897887 -0.8355165 -0.12812947 -0.18141787 -0.5321189 0.93205285 0.2543308 -0.8886715 -1.6011751 -0.77003497 -0.81211007 -0.26792353 -0.37944892 -0.45509863 0.08313617 -0.79113203 -0.36966646 -0.28110474 -1.3126497 -0.6607537 0.24820584 -1.1045753 -0.61677825 0.040450186 -0.29934943 -0.8463882 0.715253 0.15726545 0.2863247 -0.8111269 0.63678426 0.39437562 0.10679426 -0.00096958387 -0.19295415 -0.62020034 -0.25974336 -0.7339319 -0.51601297 -0.10023472 -0.29239807 -0.19892368 -0.3534059 -0.58483356 0.9833019 -0.10897618 0.3740605 -0.53422606 -0.04794364
a3747 -0.74486095 0.20808443 -0.63391906 0.1814315 1.1370039 0.14557943 -1.0454991 0.3916996 0.41560164 1.0969833 -0.07294288 0.8588612 -1.5136329 1.5574256 -0.66727 -0.24691163 -0.6226198 0.44117904 -0.12712945 0.21870174 -0.13484178 1.0747366 1.5225025 -0.6668184 -1.2736448 -0.505753 -0.7658753 0.53910303 -0.108111784 -0.14342462 -0.44066733 -1.0236152 -0.95337313 -0.6711752 -1.5426918 0.2743114 0.2548167 -1.4946098 0.3863836 1.0215716 1.1135987 -0.94673634 -0.4610691 -0.42034686 -0.11665168 0.5404079 -0.38455656 -1.0767004 -2.023454 -0.13367277 -0.47219732 1.2030023 0.5036616 1.0707426 -2.075944 -0.48751274 0.9034889 0.5374149 -0.24076365 0.85990727 2.4038053 0.19729424 -1.1329973 0.58858883
a12199 -0.23710617 -0.039835285 0.50253564 -0.38802963 0.603135 0.2936597 -0.42333302 0.37968677 -0.7095736 0.13857917 0.27687576 -0.6156896 -0.37734902 0.41737875 0.3426716 -0.7969531 0.05539638 -0.4491489 -0.69709337 -0.9302879 0.82978064 0.6750387 -0.9192639 -0.2751171 0.87389493 -0.9269813 1.6528258 0.15009128 0.676973 -2.5338855 -0.17868288 -0.6470255 0.41698027 -0.3126267 -0.109074436 -0.74322206 -0.7976849 -0.572815 0.4373761 1.370338 -0.5309269 0.34516895 0.07659178 -2.114592 -0.52303076 -1.0212824 0.25225735 1.4679921 -0.03441935 -0.47927287 1.6607322 0.66171306 0.9605431 1.5882025 -0.98319364 0.057745002 0.035188142 1.1193713 -0.6977461 0.27597788 -0.72624016 1.026029 0.40230754 -0.4282841
c7244 -0.89277 -0.7779262 0.2885484 -1.7870668 -0.51744205 0.4976505 1.0282927 -0.46327898 -0.20119934 1.9768726 -0.6448209 0.5384906 -0.12189983 -1.4835366 -0.023450224 -0.57716477 -1.1419936 0.83631426 -0.16091791 -0.36572817 0.657129 -0.61444324 -0.22615229 0.31397074 -0.8981352 0.669299 0.838677 -0.51688135 0.25179005 -0.7012077 -0.16176443 -0.28304526 0.20898648 0.65947133 -0.828488 1.6904154 -1.1593579 -0.40522987 -0.9517559 -1.2172421 -0.0024840184 -0.34354323 -0.6085165 -0.10966456 0.03639106 -0.57630855 0.4231259 -0.33511287 0.0039715115 0.2103405 0.7739344 0.504062 1.3714103 -0.09778514 -0.6234136 1.2685251 0.8157939 0.31320685 0.7594332 0.5490938 0.29826078 0.62970585 0.13689497 0.19834562
a11045 0.6172804 -0.9369898 0.9879604 0.89994645 0.43286133 0.60089564 0.10118195 0.15095405 -0.448719 0.38757667 0.44620925 0.45107484 -0.13458434 -0.9980216 -1.0241518 1.0753009 -0.09591505 0.30045453 1.1838678 -0.15860353 1.3607044 0.50304097 -1.3256294 0.5390148 0.8606396 -2.4504757 -0.88484263 -0.11245154 -0.07624541 -0.3987453 -2.2929208 -0.85932136 -1.219147 -0.9440216 -0.04651833 -0.44955567 -1.2344695 -0.5241304 0.1971576 -1.2608812 -0.89902323 1.0703143 -0.50511825 -0.9157937 -1.3513258 1.2093973 -0.21092594 -2.1599827 -0.51721615 -1.1842067 0.96970487 0.036803037 -0.51931745 -2.2316787 1.2529818 0.63815516 -0.43876112 1.6614634 0.7650254 -0.3803152 -1.0168239 0.76152986 0.21001196 0.3547683
c7597 -0.1131039 -0.3877663 0.011471223 0.23078553 0.33017805 0.54998535 1.1762103 -0.25851297 -0.22696847 0.91912305 0.92590714 0.53935486 -0.5821864 0.012410231 0.075844385 0.9198314 -1.3826696 -0.8518622 0.77801406 -0.09595001 0.036415927 -0.107344046 -0.41028896 -0.051463056 -0.20756453 -0.75526875 -1.277445 0.6855497 -0.034316663 -0.9264265 0.89688 0.21039033 -0.15500113 0.5636862 0.22050124 0.098468855 -0.8184044 0.9505464 0.051005777 0.6629172 0.07133077 0.9359665 -1.191632 0.29497832 -0.037578106 0.118917264 0.110693015 0.40214038 -0.58893836 -0.98482454 0.30157194 0.6587555 0.8677582 -0.4216617 -0.2853473 -1.0430044 -0.22061473 -1.0497967 -0.35808665 0.3904052 1.4769543 -0.39920232 0.041427 -0.38222307
a12506 -0.52049357 0.0050600036 -1.0207387 -1.1615071 -0.9473365 -0.77099526 -0.6908055 -0.22906938 -0.52188325 0.002365049 -0.46607322 -0.39899325 0.9700346 -0.05063351 -0.559646 0.65778434 -0.3323925 -0.96938616 0.5044747 -0.07469364 0.41800457 0.26302359 -0.35302585 0.9256794 0.060826134 -0.2943004 -0.50172085 0.68639725 1.0165544 0.051491123 -0.75314146 0.2581846 -0.3221893 0.4854203 1.1353501 0.48219422 0.40072697 -0.37261355 -0.07530091 0.62338984 0.6860517 -0.043297663 -1.0204568 -0.66639376 0.58365524 -0.6419373 0.45714483 -0.109690584 1.0490144 0.07441961 0.8481258 -0.05124712 0.6632391 -0.4667457 1.4210534 -0.671187 0.1655868 -0.3475735 0.35207373 0.33557475 -0.46255013 0.06434824 0.8575482 -0.16609292
a9811 -0.31936613 -0.9933282 -1.4546474 0.36313456 1.3629286 0.6208593 0.32228106 -0.47352508 -0.60075516 0.326724 1.1837326 0.30746776 1.3837383 -1.352027 0.46168798 0.29679987 -0.2167092 0.14573117 0.24409196 -0.95267636 -2.0991962 -1.072746 -1.0213107 -0.6546227 -0.015497276 -0.2479078 -0.06764751 0.65546554 0.4780329 0.32829785 -0.837441 -0.6051363 -0.0986151 0.5059331 -0.12957646 0.00658165 0.8443054 1.1432288 0.29687405 -0.2563496 0.21261124 -1.1905557 -0.09759498 -0.16982256 0.043643057 1.1110027 0.6501231 -0.37657568 0.11581959 0.79801756 -0.93295574 -0.4551955 -0.16464503 -0.9146133 -0.026847698 0.23181769 0.89200735 -0.3533399 0.608903 -0.009050967 -2.3417215 -1.2026362 0.38007733 -0.044160757
a7855 -0.97577894 -0.1788941 0.15380517 -1.5437799 0.52849394 -0.8588059 0.41194734 0.24380599 0.6972268 -0.078896075 1.6111456 0.4495529 -0.7783547 0.94715536 -0.13027531 0.71560204 0.1917133 0.28545654 1.1352028 -0.43472874 0.23756553 -0.45246542 -0.23421247 1.3085823 1.2117195 0.78248435 0.4956021 0.08709763 0.13367712 -0.7732012 0.8064792 0.14654958 0.528292 -0.030637164 0.39453468 0.35261747 0.94106746 -0.27504653 0.53923804 0.28284365 0.3951107 0.24739888 0.66479605 -1.2874224 0.70081925 -1.1655121 0.028585255 -0.86710334 -0.7301243 -0.49213186 -0.7293071 0.6312404 0.37744716 0.85623777 0.14351052 0.889835 0.974304 1.373274 1.9174032 2.276099 -0.85650337 1.6742779 0.20106716 0.004744324
a10354 0.3726973 0.43156353 0.34607744 -0.1283254 1.0718104 0.32332212 0.3336109 0.047588643 0.32692567 0.08177067 1.1181109 0.070158444 0.6510975 -0.4402667 0.403929 -1.2417439 -0.018776685 0.4435809 0.33180514 0.08663474 0.33056083 -0.6984973 0.02855584 -0.25759083 0.33532587 0.21111599 0.26676193 0.55204636 0.16568145 0.6099054 0.10354671 0.30503112 -0.24551578 0.4815524 0.32243785 0.38656914 -0.18288809 -0.21214116 0.4524922 0.20171347 0.029692942 -0.5218425 0.11607141 0.030098183 -0.42938995 -0.26570436 -0.6295146 -0.2988721 0.2084928 -0.7232809 -0.58181 0.27055293 -0.3250758 0.10744074 -0.3630599 0.038171712 -0.7523191 0.7249422 0.38362843 0.2414603 -0.070254214 -0.32636806 -0.37077284 -0.1648616
a15349 0.2789491 0.5122553 -0.82616687 -1.1370485 -0.56699234 0.4312289 -0.23985618 -0.60194886 0.5002062 -0.29583535 1.9069523 -1.4727741 0.32428738 0.547259 1.0977681 -0.018183911 0.5242544 -0.13086164 -1.2505952 0.95294696 -0.4740643 -0.08922565 -1.6264567 0.02369475 -0.0021999362 -0.41852498 -0.78200275 1.0992477 -0.7844237 0.30640167 0.122076854 -0.67163444 -0.8608556 0.20414062 -0.9026483 0.39971974 -0.76781994 0.3815911 0.27589262 0.6393662 -0.8658722 -0.41196743 -0.0009830766 -0.17668362 1.0552877 -0.026349973 -0.32414326 -0.34786355 -0.573862 -0.7065774 -0.5949464 0.412475 0.0143069 1.2697061 0.3479243 0.24769956 0.7711246 1.0607948 -0.1537958 0.5339372 -0.08948487 -0.009442036 0.06434752 -0.038371257
c5198 0.58177084 -0.4883637 -0.3257876 0.0022732504 -0.38550937 -0.3978295 0.42295554 -0.19869085 0.7533373 0.7213284 0.47097132 -0.08159772 -0.019386917 0.591533 -0.27624258 0.6482454 0.1268198 1.1815004 0.21957959 -0.6448121 -0.14230612 -1.075533 1.3175966 0.21198867 -1.2590446 -0.662623 0.4739377 0.88883406 1.320675 0.11650042 0.02446334 -0.7755964 -0.37606362 -0.17728202 -0.9577552 0.036979325 -2.600405 0.13656622 -0.28679425 0.36675104 -0.10721394 -3.152587 -0.7487298 0.7242009 -0.06607998 -0.16231509 0.6209323 0.073011845 0.83808035 -0.71462744 0.46499574 -1.1074294 0.18058798 0.21577016 -0.30349973 -0.8852466 -1.1779222 -0.9961881 -1.0568178 -0.66923183 0.4467799 -0.030870918 -0.09060998 0.21424042
a4395 0.32497966 -0.39905122 0.0940145 -0.13372326 0.2553997 -0.38282683 -0.7085846 -0.93763995 0.005103971 0.17787401 -0.3746406 0.5434419 0.45843187 0.013284283 -0.040220596 -1.0006298 0.1553408 0.4391322 0.3266142 0.10599371 0.6819136 0.74265826 -0.7574746 -0.1817857 -0.5823839 -0.48947337 0.99401766 0.061471768 -0.042379715 0.102763504 0.63647944 0.2862071 -1.1666812 0.06516333 -0.19616346 -0.36683843 -0.20307852 -0.23765405 -0.98750085 -0.49629956 -0.1633621 0.04409013 -0.077721015 -0.55911994 0.8701164 0.4603264 -0.70028406 -0.21737812 -0.4503242 -0.23208623 -1.025787 -0.016131878 0.181154 0.902256 -0.28673235 -0.54566205 -0.73726785 0.23846897 -0.56505346 0.041809585 -0.48726925 1.245895 0.08159614 -0.34657702
a13523 0.66705775 2.1894276 -0.38577166 -0.25568783 -1.2038004 1.0863447 -0.17668143 -0.27365327 0.031866092 0.34720448 -0.7669276 -0.3822722 -0.20522113 1.1335927 0.2970737 -0.38755873 -0.0066022943 0.8430654 0.4110216 -1.5034741 -1.0111043 -0.24579084 -0.81648535 0.6882126 0.9911273 -0.7117373 0.24759568 0.7683282 0.19209893 -0.5306719 -0.6975403 -0.21452403 0.7385505 -0.45389587 1.3789747 -1.6298785 -0.7242673 0.7435754 -0.32018164 0.5966368 0.8702011 0.15743081 -0.07995824 -0.33343235 0.35045287 -0.43938944 -0.9845198 0.6928056 -0.43436244 0.48226705 -0.80506635 1.2105929 -0.3997797 -0.53226805 -0.7861 -0.57027274 -1.3223338 0.7157778 0.011661531 0.7323753 -0.26864025 -0.26363382 -0.86278284 0.17935489
a11560 -1.223856 -0.41460648 -1.5586783 -1.02935 -0.56764734 0.37261134 -0.64722675 -0.1286148 1.7358152 2.0672944 -0.8710105 -1.3715571 0.7723502 0.29508203 0.15928592 -1.7607208 -1.4086282 -1.243315 0.7810299 -0.23946849 -0.46492186 0.56740946 0.40993577 -0.004062375 -0.2331797 1.0054154 -1.0171195 -0.4237791 -0.18112676 -0.28096554 0.24467814 0.14381865 -2.2083626 1.1378348 1.7054994 -1.4791272 -0.10840471 0.09151081 0.40482706 -0.6144379 0.09901672 -0.284518 1.1163108 -1.3012158 -0.41452932 -0.9530982 0.028824382 0.8520101 -0.011961117 -0.29490367 -0.1254805 -0.31756696 0.14499046 0.089788914 1.4961901 -0.42778742 1.6331669 -0.19045721 0.3416645 0.9476722 -0.6402998 -1.3713182 0.5084995 -0.6278063
c11009 1.1104332 -0.3361026 -0.05772545 -0.87910014 0.6713946 0.5431832 -0.5215556 0.64478487 -1.3658602 -0.7150108 0.2701781 -0.137125 -0.38740477 -0.07782806 0.49444377 0.30993548 -0.3266708 -0.09665244 -0.49232045 0.4306786 -0.15191622 0.004845644 0.16136664 0.12250617 0.36055562 -0.18306988 1.5050533 -0.87539345 0.14628409 -0.068823226 0.26936245 -0.88164455 0.4442717 -0.11889764 -0.05179117 -0.3430586 -0.08307653 -0.12019438 0.770158 0.8538323 0.19065447 -0.64874065 -0.111476414 0.9613537 -0.17595594 0.63172007 -0.45771566 0.74589056 -0.09050834 0.7175979 0.08759929 0.021773241 -0.06931472 0.5190516 0.4350116 -0.54623437 0.1989856 -0.97968394 0.75523496 0.50187576 -0.54405785 0.83199775 -0.5380095 -0.20465365
a10683 -1.1170455 -1.0020992 0.7272437 -0.30134764 1.0060598 -0.81702536 1.230655 0.45855457 0.41724357 -0.81549835 0.5118675 -0.4059364 0.5770504 -0.53387296 -1.4618098 0.2650155 0.24304162 0.7278361 -0.36106807 2.2478037 -0.8605269 0.42204 0.85529315 1.1641423 -0.08936094 -0.002971888 1.1182741 0.90782094 -0.007064865 -0.23845275 0.185699 -0.25218847 0.8042994 -1.1736847 -0.47420955 -0.45502105 -0.9955573 -0.61044735 -0.2709934 0.28539518 1.021789 -1.0673622 -0.36810735 0.16700438 1.2178912 0.15404096 -1.8025395 -2.1088097 0.62535495 -1.520506 1.3758178 0.54638094 0.439189 -0.057589583 0.914504 1.121219 0.18288969 -0.5711159 -0.12888414 -0.37713188 -0.22224315 0.2277037 1.7500494 -0.1333673
a7156 -0.4970884 -0.42751458 -0.98132366 -0.9837234 -0.5197374 0.05885425 1.4222013 0.7133502 1.1013279 -1.0869433 0.22609387 0.05173566 0.53368515 -1.6526911 -0.21895553 -0.46351814 0.44245246 0.8959393 -0.46770963 0.06752843 0.56297284 -0.043548703 -0.5925966 0.34750655 1.5291843 -0.09947916 -1.1710671 -0.5056771 1.07122 0.29551452 -0.09641609 -0.17252395 -0.35158968 0.39072508 1.1814314 -0.077662826 -0.53074473 1.3732991 -1.1413177 0.79358226 -0.4537216 -0.8571727 0.58506584 -0.0074401763 -0.6138811 0.2925345 -0.7543909 -0.37675956 -0.10782215 1.4600444 0.5748397 -0.22195482 0.73532647 1.9896208 -2.6145267 0.78845716 -1.2596214 -0.92853564 -1.218005 -1.3812876 1.7264259 0.20263116 0.5492795 -0.7749315
c3866 0.3492341 -0.6284217 -0.17504616 -0.14089568 -0.24033053 0.45380718 -0.97497857 -0.06346257 -0.11137414 0.19760735 -0.6114986 -0.33574814 -0.012278944 -0.742745 -0.20853665 0.34071147 -0.25809222 -1.5019809 -0.66752034 0.16230513 -0.5438686 0.6942927 -0.06835045 0.66316503 0.36613593 0.17390358 -0.5231821 -0.48048836 0.051155552 0.31614003 0.53210205 -0.19228092 -0.44555628 -0.004804977 0.063332394 0.095746346 0.32582435 -0.36783212 0.84292305 0.5338622 0.43209654 -0.8426669 0.30081868 0.53784 -0.85953385 0.35183266 -0.22353604 0.69726396 0.6281146 0.23032904 -0.023873648 -0.597613 0.056321923 -0.427105 -0.7485445 1.2797389 -0.6593711 0.95952713 0.20690754 1.5830969 -0.20917407 -0.2575014 0.028118322 -0.7392367
a11983 -0.4227702 0.90631163 -0.40739197 0.22002035 0.35938144 -0.6104274 0.05627624 0.42353177 1.3816273 -0.014087007 0.17009705 0.065344885 -1.5443293 0.10513309 -0.101478264 0.061400086 0.28998485 -0.41155246 1.0132722 1.4207517 -0.28582412 -1.316917 -1.5427732 -0.03263309 -0.16316111 0.47662872 -0.52467537 0.94244874 0.35537413 -0.13991122 0.7479561 -0.36075363 0.5748221 0.002694276 0.28037453 0.1010832 0.30763432 -0.8582459 -0.045671716 0.97248924 -0.3899349 0.9395596 0.32972008 0.07597313 0.9563727 0.9195616 0.36643428 0.5130126 -0.8778157 -0.026856588 -0.55326194 -0.43956003 0.24160628 0.10151623 0.1348327 1.1756737 0.10463784 0.3803826 1.3741977 1.3223585 -1.1924953 0.7258931 0.8732855 0.6155609
c483 -1.3249475 0.019950066 -0.47347355 0.6720957 0.9283844 0.45401904 -1.8978746 -0.15803078 0.42597196 -0.13926652 -0.97149664 0.9143367 -0.6534965 0.03216611 -0.49013168 -0.42227942 -0.35766372 0.1463208 -0.85211587 -0.09913168 -0.34122148 0.0577774 0.3358601 -1.0425167 -0.42265683 0.88786817 -1.2712885 0.4607355 1.2488967 0.66344535 -0.45928746 -2.8515236 0.90076494 -1.0767304 -1.1390548 0.45346653 1.5212952 -2.1138186 0.6611675 0.42355186 0.95859927 -0.18896733 -1.5341011 -1.3223064 -0.35581434 -0.34625635 -0.9492481 -0.69806916 -1.4241847 0.5622711 -0.9162992 0.11663868 0.25058165 0.65784043 -0.3246963 -1.1614128 0.09586902 0.33133113 0.16517942 0.023738625 2.2777698 -0.88563913 0.080455944 0.114769645
a12303 0.24351758 -0.13627781 -0.86448354 0.3110559 -0.5128532 0.5823205 -0.5264596 0.65562737 -1.046144 0.28608805 -0.105639204 -0.066594675 -0.40437037 0.5060199 0.007631287 -0.30522868 -0.6828239 1.0712312 -0.10393582 -0.7447834 1.4998736 0.019497402 1.059714 -0.6048283 0.26932353 0.5191271 -1.6600854 0.5476191 1.3636345 1.3362682 -0.21589287 -2.7122478 0.59681517 -0.03818242 -1.2212167 -0.67645293 -0.10897359 -0.24959077 0.9102956 -0.38100076 0.8855028 -0.11847158 0.06493031 0.33644336 1.6173934 -0.011887368 -0.74791604 -0.91955835 0.2564038 1.5748845 1.449113 -0.21691027 -2.2014122 -0.021622693 -0.049023386 -0.08664423 1.6292827 -0.32921398 -1.2757612 1.4293492 0.24139112 0.51665646 -0.46467632 -0.2667437
c5388 -0.08486711 -0.12036016 0.8239927 0.7950507 -0.18929856 -1.1876993 0.5990478 0.23126996 0.5587937 0.1642624 0.46433303 0.6124365 1.317467 -0.16860622 0.5652166 1.1827388 0.13110282 -0.8554246 0.9551946 -0.11165611 0.24366772 0.72218007 -0.9837918 0.6110621 -0.31638294 -0.14614168 -2.2219012 0.9450002 -1.3299319 -0.4959089 -0.28431094 0.28827617 0.89943975 0.8018664 -0.14205943 0.14362372 0.8525806 0.12613589 0.12613977 1.7206858 1.360977 -0.057548627 -0.16337565 0.23676506 0.17464763 -0.53423494 -0.8861594 -0.453565 1.0878897 0.40002725 0.97769326 -0.33436036 0.15132278 -0.7993886 -1.1046168 -0.35408002 0.5646692 -0.24551722 0.016516704 -0.3952197 0.5916497 0.1506016 -0.7040062 -0.66453934
a19945 -0.29829112 0.6732416 -0.65087396 -0.42580524 0.10520353 0.28087938 0.95324534 -0.7172523 0.3351629 1.009213 -0.6611141 -1.2985582 2.3841395 0.048903987 -1.4523475 -0.9028706 -0.22781023 0.78684103 -0.16792838 -0.34183434 0.40670884 -0.8180669 -0.13346744 -0.25738066 0.9892617 0.9558545 0.03405394 0.6967873 0.27341813 0.3920802 0.30356735 0.40072298 0.7249274 -0.7328266 -0.1032444 -0.55774415 0.8557121 -0.30187166 0.019081654 -0.13079906 1.4754666 1.5554364 -0.105802245 0.34236225 -0.66094136 0.35955933 -0.9940752 0.581622 -0.953229 0.037446264 0.10298132 -1.0167092 0.95751774 -1.4328552 0.27555758 -0.98034143 -0.87381756 0.39254868 -0.32274824 0.38770366 -0.9279685 1.0375996 -0.07998639 -0.9284071
c12325 1.6980536 -1.7357134 0.40800083 0.20955132 -1.2497718 0.67238414 -0.5590474 -2.5757782 0.97266406 -1.0631146 -0.6893098 -0.3508912 0.9030957 1.194159 1.4920294 0.27988958 -1.7203541 1.4903415 -0.27184358 0.6866719 1.6708846 0.6211177 1.5190004 -0.5083123 -0.37581515 1.1305087 0.39771733 0.49861073 -0.020719083 0.7051726 -0.61178994 -0.24388647 1.4511052 -0.4352262 0.43635517 0.05942262 0.3998308 1.2557716 -0.7181457 1.7011576 -0.820445 0.73299754 -1.0579959 -0.27470696 -0.9554293 -0.70217246 -0.48613217 0.11453714 -0.495836 -0.9273158 -0.054744907 0.71275276 0.64193064 -0.4600509 -1.0709909 0.863182 1.4439828 -1.1575394 1.8113174 -0.38759974 -0.9023196 0.4119154 0.17800424 1.2665403
a15408 0.20791346 1.0220175 1.0353624 -0.35977212 1.4077945 0.17861918 1.284619 -0.19411494 0.20840307 0.19402562 -0.30807337 -0.95497155 0.07961412 -0.06857499 -1.372381 -0.31357628 -0.28583544 -0.37624463 0.15996176 -0.8722955 -1.0607586 0.17031147 0.72282094 0.6053186 0.6670395 0.21872637 -0.22153096 0.24842095 -0.4123804 0.43128526 -1.0352014 -0.9087691 0.66795194 0.78898734 -1.5000435 -0.32899234 -1.0457261 0.8665516 0.8155337 1.9573704 0.6223474 -1.1347255 0.3402051 -1.2866595 -0.39032686 0.22106616 -0.264659 0.4525534 -0.35895795 -0.6364513 0.066240266 1.0036697 -1.2104691 -1.3952622 1.0879487 0.81211114 -0.2761843 0.6055234 0.70165515 -0.98336893 -0.2541265 0.118056476 -0.022933498 1.0277158
a931 -1.3340997 -0.2619277 -0.5470328 0.66389513 -0.17695798 0.52329195 -1.6341692 -0.5977979 0.49908164 1.3693434 -0.7030702 -0.5862848 0.68341744 -0.72442085 0.8977911 0.18641251 -0.4116928 -1.0767432 -0.43894318 1.3412534 -0.7353119 -1.550227 0.4940832 1.003223 1.5854543 -1.0026969 0.4780079 0.45480412 -1.1460847 -0.43369985 -1.1496004 -0.22623889 0.8398258 0.18582706 -0.29700494 -0.37148446 0.089689225 -0.010684856 -0.2758737 0.16606498 -0.2927851 -0.45133427 0.32081074 0.809018 -0.44181862 -0.110627405 0.10957949 -1.4511302 -0.6694738 -0.677521 1.2309747 0.27039674 0.45940498 0.98576826 0.8942386 0.20756388 -0.8382503 -0.4811255 -0.43653932 -0.45176893 -0.17990889 0.33628395 -0.21066749 0.17510429
c3214 -0.49394423 -1.3066148 -0.42715904 -0.5540493 -1.8170247 -0.72276497 0.23227376 0.26349056 -0.44526568 0.44197863 -0.40585667 0.97058403 -0.12689015 -1.5421025 -0.58463645 -0.4327289 0.05487341 0.21599294 0.65336967 -0.45769766 -0.64078045 -0.44490945 -0.07056849 0.8948861 -0.20051692 0.9760525 -1.6171068 -0.06574765 0.3020345 0.6156021 -1.3014222 -0.72249746 -0.82381946 0.9512031 -0.3695317 0.48860058 0.1823745 1.033016 -0.5612598 0.32580227 0.54478186 0.5383815 -0.078533895 0.42432532 -0.5756992 1.1171777 -0.4576593 -0.5702823 0.2144506 -0.3437011 -0.45189604 0.49728295 -0.41095805 -0.24023466 -0.06964809 0.65201557 0.091269456 -0.38506272 0.00018766991 -0.14506747 -0.11226105 1.1036319 -0.7041585 1.2254074
a5038 0.47486925 0.646168 0.005371888 0.55309266 1.163796 -0.29252476 0.05938879 0.05344944 0.12079338 -0.40224382 -0.48433617 0.09623656 0.075092524 -0.97295135 0.0360685 -0.15783928 -0.10512736 -0.85516995 -0.7386489 0.59112036 -0.08525907 -1.2814333 0.16841339 0.80640954 0.35819337 -0.9022206 -0.58286005 0.03767132 0.7414624 -0.6436783 0.6837762 -0.95732325 -0.7625388 1.5018141 -0.40529215 -0.26998734 -0.3166254 1.3699383 0.5756847 -0.43783388 0.17186823 -0.015130365 -0.37891474 -1.4183745 0.18260044 -0.52566475 0.37823996 0.1734859 -0.019861776 -0.42105076 0.5948683 0.08294519 -0.4107516 0.15643364 0.59865767 0.48930156 0.3913345 -0.12060812 -0.3243671 -0.3844182 1.0022264 1.17668 0.3534553 -0.9412744
a2875 1.5260065 -0.05564838 -0.9368532 -0.9429558 0.20713143 0.12893413 -0.9024527 -0.99127877 -0.5778448 -0.037720233 -0.0067992276 0.30398852 -1.4362503 -1.3725767 -0.8963979 0.9887629 -0.12132126 -0.12014882 0.18013987 0.2969721 0.5115816 -1.4641912 0.79980576 1.3788507 0.09119516 0.1832579 0.7403609 -0.83017087 1.6928749 -0.48390543 -0.71640086 0.24141759 0.66107744 0.06688604 0.15107062 -0.33835036 -0.10126893 -0.6145356 -0.14688976 0.7502471 -0.37755713 0.42840752 1.3608091 -0.57662183 -0.7936424 1.4129629 -0.23044837 -0.6536164 -0.37063217 -0.29370692 0.45077986 -0.6901062 -0.37792158 -1.2444018 0.61420304 -1.0070497 0.40621752 -0.16732039 0.06944281 0.28701293 0.53903323 0.7330899 0.35426626 -0.8551684
a14665 0.35703424 0.338321 -1.6727514 0.7661512 0.55348676 -0.25297567 -0.75316924 -0.73052764 0.013505468 0.96569186 -0.83728087 0.13397612 0.16777252 -0.6216503 -0.6952727 0.39584726 0.008777564 -1.652964 -0.9151451 -1.0837914 -0.2709632 0.7855388 0.4380324 -0.09804075 0.015655842 -0.07916222 -0.28467903 0.91657794 -0.9971026 -0.36801308 0.66866237 -0.35083604 0.3629066 -0.047829807 -0.75037414 0.114113726 -0.34760526 -3.7809868 2.2925665 0.056929372 0.37357217 -0.8231146 0.35896227 -1.5998313 0.9058185 0.5975436 -1.4032491 0.986349 0.7960042 0.24807625 -1.0816303 0.5325124 0.036624905 0.6222927 -0.6192288 -0.13035718 0.833904 -1.0910918 0.85643387 -0.24872807 0.91147774 -0.7268791 -0.35556763 -0.21836817
a2587 -0.18176006 -0.14085202 0.8627777 -1.0595989 0.057468086 1.9208452 -0.31027046 -0.21573299 -0.47281364 -0.20309517 -0.32345107 0.29881802 -1.7328117 0.37892914 -0.17771947 -0.64043045 0.6798239 -0.7472362 -0.7395289 -0.8748449 -0.2567849 -2.3301113 1.5132316 -1.0255563 0.81661624 -0.21925141 -0.8647783 0.63528174 -1.7058052 0.8758925 0.10661816 -0.32845646 -0.10337896 0.0051078815 -0.028802475 -1.7056959 0.2678945 -0.9087879 -0.021439454 1.037898 -0.8955838 0.7545673 -0.9737835 -0.54362166 1.0773463 1.0507736 0.33494675 -0.54292 0.8594527 0.11934709 1.9551754 -0.39588737 -0.4696862 -0.33628094 0.13156731 1.3398725 0.21675867 -1.0521827 -1.3743337 0.1634481 -0.795385 -1.3371862 0.27826205 0.53337675
c9969 0.21539548 -1.1731061 -0.38387918 0.1013635 -0.1742601 0.052824024 0.10807903 -0.22219513 0.42752212 -0.5213695 0.7457907 -0.83043075 -0.91453356 -1.2424984 -0.2855963 1.6466069 -0.69188964 0.3903543 0.0036705171 0.30635118 0.3338463 -0.38045886 -0.6027904 -1.8011277 0.43881074 1.0704949 -0.3625294 -0.37174118 0.45200524 0.04250768 -0.05654641 0.9606683 -0.37657636 0.7685353 -0.10264425 -1.4842174 0.13674727 -1.0915507 0.93786454 1.0146936 0.6190204 0.84286267 0.52708495 0.045223124 -0.053374734 0.26707435 -0.20937389 -0.24232315 1.7325741 0.6374838 0.15962991 1.0299248 -0.06252463 0.07507811 1.8359234 -0.37608072 0.8047043 0.674896 -0.87384415 -0.53790057 0.68270475 0.105934 -0.10953113 0.2714681
a2591 -1.3295938 -0.66493064 -0.058729064 -0.35612413 -0.2195017 -0.34827223 -0.10298492 -0.5866345 1.1398567 0.9683376 -0.34085757 -0.13137795 0.19795735 0.08178247 0.016536027 1.5027736 1.2163589 -1.0511131 0.37410653 -1.2541113 0.8324544 -0.06491554 0.41483238 -0.8253644 -0.64918506 -0.7508787 -0.80032647 -0.35913703 -0.2969541 -0.42637348 0.35158587 0.30214846 0.6773336 0.17677897 -0.0009944733 0.5766753 0.51081556 0.23707104 0.9474958 0.3086185 -0.071212895 -0.20933527 -0.4824505 -0.38749868 1.0066297 0.66847193 -0.40959027 0.44057876 0.07414645 0.20540102 0.44601086 0.57132286 -0.24560836 0.017560583 -0.30507907 -0.33442903 -0.13002749 0.208175 0.26374286 -0.31304482 -0.74608105 0.8793374 -0.37835643 0.07512502
c4104 -0.63893086 0.36419132 -0.5247074 0.5911991 0.37958142 0.31137136 0.46632937 -0.9745317 -0.32716113 0.91479903 0.82680047 0.03701365 0.5160798 -0.87878245 1.3003438 0.63471985 1.2161708 0.87652767 0.033313822 1.125869 -0.092889026 0.36548853 0.77780163 0.018715207 -0.5593153 -0.021426568 0.28826842 -0.39191172 -0.85997945 -0.066066384 0.8623865 -0.48562485 -0.46649584 -1.5382856 0.2630883 -0.9487232 -0.15959936 -0.21563043 -0.1744318 0.033543278 0.2864825 0.46784922 -0.52398646 -1.4565557 -0.7550375 -0.3655619 1.4904597 0.74284494 0.075445294 0.93216234 -0.32628393 0.1711849 -0.50280726 -0.5000026 0.6694582 0.16941287 -0.23403627 0.1038329 0.012758148 0.0153622255 0.09696963 -0.04577083 0.58602536 0.3922047
a9115 -0.62589306 -0.14517422 0.67774534 0.71238345 0.38892734 1.16398 0.22871673 -0.19411108 -0.08408421 2.063482 0.6231059 -0.6459341 -1.3213904 -0.49849698 -1.6140996 0.1443931 -0.51222676 1.2028275 -1.0074645 0.3552484 -0.3025915 0.32726228 -0.016116396 -1.5060899 -0.66212445 -0.887468 0.827352 0.81070805 -1.7651488 -0.7487829 0.4126906 0.07240391 -0.44529086 0.52173454 -0.26440096 -0.28867456 1.0994655 0.46476674 0.840535 -1.0263612 -0.025313541 -0.34588733 0.5607252 -0.01363336 -0.7988899 0.32942733 -0.24421902 0.3949412 0.62193346 -1.7635173 0.088018805 -2.2680602 -1.2893316 0.6518929 -0.60494477 -0.3907795 1.7056649 0.14420237 1.7067975 0.12198798 0.96883637 0.65619683 0.0026756786 0.3988468
a5604 -0.17895989 -0.41533545 0.61958784 0.914141 -0.5142791 0.4977279 0.9088949 -1.1736922 0.74021363 1.1765076 -2.1833766 -0.96767396 -0.18157904 -0.3374544 -0.64113617 1.3938063 0.14765774 -1.5251673 0.30657253 1.0402647 1.2844793 -0.73037267 -1.3247821 1.4567704 0.010853052 1.6382552 1.187143 1.4263723 -1.0333693 0.5285893 1.1643802 -0.58041835 0.4455786 -0.41426066 -0.484133 -1.2732594 0.7284722 -0.20228265 -0.88179475 -0.67169124 -1.4584603 0.430357 -0.053034954 0.86399853 -0.36531046 -0.43598348 -2.3519342 -0.18822944 -0.45226884 0.15941189 -1.2755756 -1.3359684 -1.5912526 -0.4013301 1.1547322 -1.0539038 -1.8346678 -0.07989822 -0.50891906 0.5558729 0.12861185 0.9283365 0.5800511 0.03477691
a11783 -0.14953128 -0.18748488 -0.0335326 0.21513169 -0.14958031 -0.97754544 -0.35812297 -0.3563234 0.22969557 0.3581133 -0.7312575 0.24541765 0.2636914 -0.71427065 1.1540112 -0.6837672 0.16411556 -0.9883569 1.3769085 0.34853768 -0.14473502 -1.084205 0.21554805 -0.18529221 1.37052 0.9437979 0.00022890745 0.31107458 0.14275944 0.4292036 -0.60349 -0.39484784 -0.8075449 0.8452392 -0.13249011 -0.39679545 0.4340366 0.17861775 0.3151226 -0.3490556 -0.37537682 -0.22455418 0.80761147 -1.1002438 0.19162244 0.35041595 1.2253469 0.42882293 0.043980096 -0.73442096 -0.39281294 0.43679032 0.42698905 -0.9865213 -0.7444181 -0.17200682 -0.24797618 0.3582472 -0.111864485 0.30527216 0.8465056 0.99738944 -0.826873 0.31925464
a9199 1.64079 -0.49962896 0.40318716 1.0375566 0.43192685 0.26491484 -0.4487897 0.4600422 0.45218176 0.22788227 0.5220403 -1.3051152 0.39231104 -0.12958151 -0.4289038 0.6471112 0.7272599 -0.07038928 0.25831798 0.26985356 -0.9278369 0.15880975 -0.3934455 0.0043310802 -0.39779767 -0.13396208 0.276819 -0.5987519 1.2318565 -1.4328094 0.4593758 -0.5450957 0.2878765 -0.459128 1.0332525 -1.9378355 -0.6634922 -0.5057755 -0.62607896 1.1736059 0.26181015 0.63725 0.1976329 -0.7977184 0.76100796 -0.08919147 -0.9888891 -1.0656475 0.47138074 -0.6950799 0.4943836 -0.740848 0.3655621 -0.9540824 -1.1283249 0.110408485 0.7986088 0.96352005 -0.6306696 0.46997282 1.0638404 0.6318757 -1.1416467 0.7260109
a16051 -0.7768994 0.104060814 0.5209856 0.09137058 0.6027966 1.1587692 -0.6219565 -0.22082466 0.36840922 -0.6104181 0.30190977 0.13090436 0.27382547 0.42292717 -0.053893592 0.16455066 0.35232297 -0.55522263 0.8030656 0.10046994 0.036753666 -0.66902846 -0.9337583 0.0028572984 0.36948794 1.3528329 0.5539118 0.24313961 -0.45870298 -0.01311559 0.63563746 -0.59448045 0.68679744 -0.077259 -0.3881211 0.3253344 -1.3510615 0.16040336 0.24291842 -0.41320515 -0.9100745 -0.72670716 0.31866467 -0.3107593 -1.2217042 -0.65263355 -0.78104305 0.23256126 1.0331001 -0.18065888 0.057239465 0.59298044 -0.3089104 -0.25053775 -0.18490577 -0.60065424 -0.0005409077 0.14474605 -0.111391544 0.82832384 -0.15339014 0.8972074 -1.4335018 -0.12813598
a2592 0.2307996 0.16404821 -1.012175 0.051031377 0.36606574 0.7238317 0.17376679 -0.0023459326 0.113043144 0.27261105 -0.37058157 -1.406577 -0.68258166 -0.9903269 -0.016231358 0.93468684 0.64480186 -0.26251954 -2.049133 0.48268977 -0.6666588 -0.39683715 -0.18507695 0.120493345 0.47366235 0.036335535 1.1401476 0.7606868 -0.517522 0.42768773 -0.017658187 0.002512093 -0.5751059 0.11126017 -0.4634231 0.111567974 0.10108371 0.3636706 -0.66478634 -0.1574045 -0.4132222 0.38980237 0.55547154 0.928185 0.632363 -0.45520556 -0.6387419 0.20490496 -0.81164706 0.14082684 -1.215734 -0.6981889 -0.35462993 1.4532084 0.21190546 0.13662529 0.31160146 0.08733012 -1.2138777 0.6201867 0.9461556 1.0673965 -1.1700132 1.0940698
a19695 0.8498487 -0.38724062 -0.98907375 0.07651082 -0.07469141 -0.6024351 -1.6932834 0.30910715 2.2536728 0.27684313 0.9061118 0.023413217 -0.25852415 0.39360014 -0.15834744 -0.5011381 -0.07909606 -0.8449724 0.4153976 0.8508401 0.36678162 0.62499386 -0.62289 0.12447541 0.56800246 0.58489096 0.7205592 1.2175406 0.5780903 -0.18460196 1.8335922 -0.6200748 -1.5258471 -0.83563066 0.21212536 0.026880119 -0.29826784 -0.4627662 -0.027789528 -0.8451803 1.3590492 -0.24343732 1.8978547 0.64958304 -0.29201028 0.4433204 -0.2035178 0.48405263 -0.50081974 -0.34112778 -0.19402339 0.060050715 0.06486476 -0.6111189 -0.27288246 -0.9033098 1.4499747 0.17500614 -0.3949716 -2.221072 -0.836517 -0.5023793 -0.2414238 0.37898797
a1045 -0.075514376 -1.2229129 -1.5480412 0.0228355 -0.0690517 0.7104791 0.96601063 1.0210552 0.27386782 0.5276638 -0.14416492 0.4123631 -0.12289085 1.1076008 -0.041646935 -0.051569488 0.4772335 0.3712048 0.19086224 -0.29091313 -0.10071226 -0.6354081 0.5729365 0.481014 -0.7815345 0.23752879 0.43487334 0.798853 0.5044341 0.34785417 0.41099477 -0.37019622 -0.45387843 -0.3815156 0.9132512 -0.12449031 -0.21367545 -1.2536366 0.28059915 0.8197834 0.44157058 -0.44507283 0.28978616 0.06649314 0.028848158 -0.7251927 0.44958076 0.63124233 0.9716639 0.15855256 0.8723054 -2.0229142 0.13489945 -0.71311474 0.12231507 -0.2704876 -2.1687794 -0.39692357 -0.30011472 -0.41065902 0.68781793 1.2497478 -0.5468513 1.0255688
a8766 -1.8080946 0.91164374 0.4807674 0.10055801 -0.43643898 1.3786118 -0.06548917 -1.1442707 1.0289698 0.38506556 0.61488336 0.28523886 -0.09373026 -0.9609209 0.649599 0.33359578 0.6615009 0.23940437 -0.3139697 -0.45794168 -0.3096479 1.6863892 -0.26074117 -0.83426636 -0.51734906 0.5382219 -0.15320927 0.25646937 -0.44909462 -0.8461702 1.3583751 -0.9742375 -1.604729 -1.0669172 0.68565685 0.010654473 0.01238795 0.5238527 0.0077516944 -0.7645553 0.31164882 -0.9742969 -0.45840448 -0.79837734 -0.5237402 -0.09407214 0.052823104 0.8069033 -0.39185092 0.9753509 1.1140155 0.98348916 0.24096149 -0.8475171 1.3213205 0.6095564 -0.9066052 -1.2826669 0.18753213 0.63685423 -0.6378581 0.2120807 -1.2224969 1.2517341
a15462 -0.56969804 -0.28984982 0.2000622 -0.16247453 -0.13823299 -0.21228203 -0.8446741 -0.49158752 -0.16578208 1.25895 0.7795 0.1845058 -0.5011205 -0.4371596 -0.39323324 -0.3225534 0.35870826 0.5574504 0.2826766 0.05784115 0.10120621 -0.3868583 0.1493837 -0.46413735 0.61254805 0.1389638 1.2112794 0.64699495 0.44333595 0.09871903 0.2308715 1.5846559 0.99823016 1.3716927 -0.6442064 -0.2294242 0.9452538 0.3847352 -1.0576175 0.4967586 -0.1686168 -0.6125994 1.5448834 -1.9717665 0.30091545 -0.41034615 -0.8165081 -0.20757745 -1.3766483 1.7144318 0.8623312 0.32147557 -0.35367182 0.71633726 -0.18246631 -0.33850446 -0.71502465 -1.4579247 0.22809339 -0.2025633 -0.02534025 -0.91742235 -0.018068125 -0.329006
c5768 0.27504462 -0.32111043 -0.7935196 1.1861988 0.085530266 0.032640126 -1.9169449 -1.2698936 -0.89086354 -2.0695918 -0.10659998 -1.4481137 1.2700179 -0.88161135 0.9327799 -0.4924352 -1.1926531 0.40499905 0.18325362 -1.2435068 2.4503067 -0.1753434 0.49873486 0.31209683 1.0230687 -0.18247946 0.8523594 -0.46606955 1.1059071 -1.2863859 0.76568484 -0.32743013 0.2650249 0.4302495 0.06465051 0.06828421 -0.68240416 -0.44290173 -0.34934375 1.2281983 0.12728804 -0.37627995 -0.19596191 -0.26421738 0.5597292 0.045670304 -0.80413145 0.8683946 -0.114461735 -0.47635624 0.9594029 -0.93617254 0.9890152 0.6576428 1.000698 0.6643109 0.29884377 0.15859717 0.5054586 1.0411065 -0.38565445 -0.27157965 0.8053579 2.262898
a11659 -0.5530625 -0.9357234 1.1893586 1.4894357 0.41315156 0.3151889 0.53414947 0.5048917 -0.3463228 -0.3231706 -1.2163458 -1.0927932 -0.040335327 -0.26666254 -0.00915085 -0.6884305 -0.9368508 -0.8740957 0.009386834 -0.505716 -1.6263704 0.95807874 -0.27091148 0.10891266 0.7138108 -0.41390815 0.7461448 0.10868946 0.3389459 0.44874278 -1.1440177 0.000773767 0.99196494 0.021797221 -1.2857223 -0.83647245 -0.91019976 0.59070796 -0.16370215 0.7653042 1.1194731 -0.5659135 0.08991146 -0.4424707 1.3167536 0.565946 -0.23838377 0.023340806 -0.378798 -0.3388852 0.30371585 0.0030921535 -0.5087564 1.41298 0.64360124 -0.112047754 -0.81582445 1.0299685 0.12455038 -0.104906835 -0.9334235 0.6283374 -0.87610406 0.14509924
a19334 -0.31216195 1.3868011 0.00459636 1.0935698 -0.33840796 -0.97393245 0.99522877 -0.5338441 -0.5381963 1.281814 -0.15965384 -0.54133403 -0.4258439 -0.78053313 1.0348506 0.24964848 -0.5576426 -0.39620396 0.6662727 -1.0154344 1.3055589 -0.15320562 0.30986768 0.7326435 -0.10420973 -1.0205743 -0.12470734 -0.9873753 0.47872245 0.08954934 0.32108527 1.7126215 -0.27236673 0.050716963 -0.4343038 -1.2967803 0.6522336 -0.22700536 -0.42794362 1.436241 0.24099517 -0.95745045 0.77683485 1.334151 -0.34653193 1.082896 0.7245445 -0.5957065 0.5789022 1.6427362 -0.10050909 -0.2721353 -0.2114642 -0.39131072 -1.3660729 -0.3428848 0.35304162 0.28267214 1.0790665 -0.65070015 -1.4924073 0.9291575 0.1272318 0.18676658
c13834 -0.33223802 -1.0836815 -0.32051215 -0.565504 -0.51805097 0.6124643 1.1879019 -0.17692283 0.7283427 -0.28052053 -1.3292465 1.6601939 -1.6430702 0.68679947 -0.02960457 -0.6720866 -1.2612516 1.0628985 -0.23750569 -0.19102219 0.4948281 0.010056884 -0.99972093 0.6200348 -0.03497217 -1.4632728 1.538128 -0.4572525 1.2046585 -0.28417102 -0.14002427 0.14507422 0.5018166 0.19922265 -0.55865157 -0.65489215 1.6528747 -0.42617962 -0.6380372 0.049029924 0.2351593 -0.10389216 1.4160585 -0.19890082 -0.20966208 0.7069958 1.0128669 0.97292066 2.0412533 0.3738189 -0.6707102 0.22693017 -0.0029878635 -0.74594605 1.140687 1.1383171 -0.1724946 1.1992753 -1.2149397 0.4644171 1.311735 -1.448541 0.5496375 0.8317281
a2443 0.8286961 0.14175497 1.489638 0.8969075 -1.5666668 -0.29472396 0.31925845 -0.8087484 0.30318776 1.6087521 0.23073176 0.59886706 -0.78612643 0.81298125 -0.07452548 -0.47140452 -1.1243192 0.9615725 0.7125503 0.29460904 0.038647808 0.07515948 0.16848472 0.7785106 1.1896961 -0.18478738 1.4769824 0.29278588 0.017612336 -0.38083422 0.0050029303 0.17110904 0.9079732 -0.43121117 1.1573188 -0.3552591 0.63239306 -0.7204185 0.47712457 -1.4621272 0.62784255 -1.0077149 0.14827801 0.17501006 -1.1962776 1.2232934 -0.35385975 0.33706546 -0.10096318 0.07515552 0.12745987 0.32990676 0.695357 0.6393204 0.76145285 -0.27149275 1.1470915 1.7493347 -1.2620504 -0.9350634 0.8538255 -1.0530075 -0.588737 -0.4262234
a8223 1.4541382 1.1385453 -1.0949049 -1.0474331 -1.1286806 0.54996663 -0.099487685 0.85936224 0.39108652 -0.46709573 0.31358767 0.38134837 0.54922783 -0.21220694 0.78757805 0.6382411 -2.0527036 0.25530836 -0.014878544 -0.75009537 0.7856656 1.1666595 -0.70396525 -0.7053268 0.43749645 -1.1456949 -0.71401775 0.2154416 -0.92517734 -0.38875166 -0.093865275 -0.56603724 1.0034405 -0.47744498 -1.0188751 -0.65540516 -0.81393796 -0.36912656 -0.9056625 -1.2517474 0.031446133 0.2680079 -0.11593292 -0.16541772 -0.57809025 1.784101 0.17780033 -1.747649 1.2761308 0.46340784 -1.9177842 -0.31666535 0.05988706 -0.9591472 2.172356 -0.2714424 -0.69629616 0.17725965 1.9742838 -0.116767354 0.651737 0.5347773 -0.06152487 -0.10250022
a15326 -0.12144754 0.45911112 1.3570248 -0.75919586 0.08346565 -0.5532849 0.4711806 -0.7132029 -1.0450771 0.49414903 -0.31004998 -1.005097 0.8559233 -0.9244814 -0.4353672 -1.1192904 -0.29545075 -0.35958412 0.8207214 0.67291874 0.6363098 -0.67328346 -0.454276 0.9180359 0.57970506 0.489865 -0.7543688 1.8270742 -0.5725676 1.2772868 0.66055554 -1.0878648 0.10886826 -0.28773296 0.86783 -0.90541095 0.7369251 0.9988331 -0.0810337 -0.016210202 -0.106065184 0.7681405 -0.26790878 0.7578318 -0.47101808 -0.7825056 -0.64616203 -0.28302646 -0.36181194 -0.26717502 -0.9226122 -0.013900244 -1.293987 -1.3078264 0.9563317 -0.36990714 -1.0031992 0.9659625 0.41420808 0.010919262 0.49510404 0.6838055 -0.79149413 0.20674923
a11480 -2.1834214 -1.4603354 0.5839555 0.8604182 0.48961374 -1.4246602 -0.08432387 0.5308051 -0.12150968 0.2919649 -0.9873165 0.5956113 -0.2392645 -0.00094114506 -0.5947142 -0.8086829 0.3001937 0.22188939 1.0131471 1.3091898 1.226355 -0.49538764 0.34162965 1.078374 -1.0311797 0.6881059 0.36105576 1.4143977 -2.8504379 1.825548 0.20331971 0.5967237 1.4003345 0.6427468 1.2152398 -0.6682895 0.35547853 0.46303567 0.3951739 1.1552367 0.24753903 -0.29509145 -1.5889248 1.0855262 0.7730933 -0.5517667 -0.110956356 0.8851659 1.3277621 1.2533004 -0.55198723 -0.23718812 -1.0025829 -1.6084262 -0.18038787 -0.5682847 0.31985664 -0.45621294 -0.42377153 -0.13381831 0.20796347 -1.3058054 -1.335763 -1.2337856
a16274 -0.85859525 -0.1846144 0.4659672 0.5919393 -0.45826578 0.80452013 -0.27338985 -0.49734116 0.9715727 0.54873854 0.36317226 1.2120756 0.23084395 -0.43739375 -1.1107174 -0.48086917 1.3319961 -0.33862892 1.3934443 1.2250909 1.0661138 0.55865693 -1.0849869 -0.66926366 0.16979556 -0.7476731 -0.021365715 -0.1500704 -0.1466339 -0.14863084 0.04545315 0.23149404 -0.18047522 0.48964158 -2.293851 -1.8259484 -0.088322625 0.43427885 0.06625577 0.06568619 -0.8465291 -0.6262523 -0.8793435 -0.84933555 -0.65170115 0.68671435 0.08777667 -1.0760376 0.015421752 0.47572017 -0.83360904 -0.89051336 -0.08528311 -0.869752 -0.73000175 0.0713719 0.33003235 0.49731526 -0.069789134 0.06764999 -0.8149075 1.2533909 1.078106 -1.0190927
c13625 0.49519822 -1.2886666 -0.5230011 0.43706596 0.01853489 1.2013146 0.12862085 -0.32863936 -1.758728 0.8455515 1.0532933 0.7542138 0.5752057 0.122889765 1.4887749 0.21969855 -0.02910963 -0.34558907 0.68222386 0.31238908 -0.4491719 -1.0956528 0.26075923 -0.54215735 -0.21264833 0.25326425 0.45329195 -0.53203267 0.12133644 0.38155496 0.3789158 -0.15091749 0.12499772 0.22150314 -0.47211292 -0.18654634 0.26255876 0.6393489 0.5004935 -0.066474326 0.72084147 -0.25412926 -1.0481716 0.042707674 0.18462104 0.47140554 0.33447903 0.4415255 -0.32188332 -0.4630731 -0.34969497 0.30992746 -0.80154127 0.030921504 0.8510797 -0.6888591 0.08341849 -0.29762343 0.5345067 1.5620003 -0.30660757 0.5548377 -0.4647961 -0.4097344
a4876 -0.63444155 0.25445914 1.0220822 -0.054233264 0.16184466 0.60075724 -2.08487 0.5421854 0.24420537 1.396132 -1.6849328 -0.3455205 -0.12275686 1.411773 -1.3634613 -0.037306905 0.85420674 -0.0872863 0.98695 0.6004099 0.118075535 0.14927103 0.33358967 -0.24114871 -0.261915 0.9424463 0.7244584 -1.3253888 -0.39856255 -1.3755679 -1.4490545 0.16756766 0.531476 0.42633548 1.32671 0.21532552 -1.21611 -0.674299 0.820985 0.26018175 0.7895331 0.18088643 -0.36115026 1.2302637 -1.16341 -0.88356596 0.90159476 0.13747542 0.12982364 0.82746524 -0.67535967 -0.97418946 -0.57425815 -0.9628158 2.895038 -0.23023693 1.1714501 -0.8573203 0.51547885 0.33246666 -0.7558567 -0.19023025 0.65134466 -0.20477271
c12770 -0.54008514 -0.18909423 0.8490377 -0.16569269 -0.9758612 0.38653424 0.09968659 0.6942283 -1.1898154 0.021243228 0.3702887 0.3284642 -0.018459592 1.4845854 -0.7243763 -1.3719238 1.2282789 -0.012907802 0.6083112 -1.4175419 -0.1898441 -1.8269668 0.81457907 -0.72755384 0.45523438 0.023531415 -1.0881156 -0.48213297 -1.8410888 -0.3011209 -0.40031925 -0.52329093 0.5546666 0.6516419 -0.97078586 -0.96840906 0.18780468 -0.26945627 -0.90549976 0.25482666 -0.4294301 1.5489199 -1.2720459 -0.21642457 0.0959306 0.43413737 1.1588813 -0.96786195 1.5151645 0.23636973 -1.0129262 0.198169 0.14678979 0.83757293 -0.15959473 0.30898443 0.5320988 -1.0056621 -0.8290732 0.22039703 -0.49940374 0.49856246 -1.0046306 0.9708396
a4877 0.02788527 0.21491717 1.2932115 -1.0138651 -0.95359015 1.0022787 -0.5129563 1.403837 -0.15802847 1.412991 0.13310765 0.36870372 0.40206286 -0.09348651 0.52989715 0.17409362 -0.07008329 -0.22373812 1.0515479 1.3300477 0.2315912 0.538857 -0.6816397 -0.1610756 0.8038962 -0.48648128 -1.0180737 -0.28211784 -0.9517071 0.8508898 -0.02028858 -0.99667746 1.0182308 -1.3172791 -0.052218836 0.31417504 -0.2783127 -0.49761912 -0.7045401 -0.12689185 0.9694351 -0.5516392 1.0940388 0.82541186 0.5892747 0.051314257 -0.35829476 0.45683903 1.371232 -0.87994725 -0.43805033 -0.15205073 2.456395 0.49190873 0.2432871 -0.16448712 -0.63219565 0.37227666 0.08810021 0.1356605 -0.14316374 -0.7988277 -0.25214118 0.48789346
c12771 0.1105918 0.1871393 -0.48303443 0.82406133 -0.7931549 -0.17593473 -0.8564129 -0.50124156 -1.0091302 -1.2306393 1.9513799 1.8146123 0.4267403 1.5824283 -1.7550647 -0.034183655 -0.66848505 -0.903806 0.99551195 0.8186307 -0.37051016 0.3465213 0.272912 0.9759312 0.47407737 -0.31809345 0.51629275 0.20515706 -0.05495494 -0.30559424 0.21171327 -0.08845206 0.14975984 0.6560584 -0.6678847 0.40261886 -0.10220683 0.2940521 1.0109715 0.6627848 0.7347029 0.48470902 0.9584071 0.3980408 0.9013254 0.49419415 -0.19442938 1.5698625 1.2830815 -0.13845861 -0.6573424 0.4289656 -0.23412742 1.3502568 1.2848653 0.24853346 -0.19878036 -0.5733445 -1.2543824 0.005072097 0.26585662 -0.41593942 -0.61644006 0.53888243
c10363 0.095505856 0.83775514 -0.8016714 0.4125122 -0.0556388 -0.66649127 -1.7137332 -2.331686 -1.1549617 -0.35004696 0.77086735 -0.7637966 0.64959913 0.09411813 -1.0339174 -0.0050985697 -0.33096537 -0.15443458 0.76189137 1.3301193 1.0822706 -1.7137051 -0.18014653 1.0011922 1.1052291 1.3539441 -0.45796898 -0.2755911 0.80954516 -0.6302209 -0.8335792 0.8841716 -0.22991368 1.1330851 -1.1039412 0.23870179 -0.12914798 -0.90130705 0.02039688 1.1703378 1.2224666 0.07158588 -0.27263942 0.48778892 0.24121456 0.81979257 -0.48858202 0.21539332 0.9758153 -0.73796564 0.8063223 0.27277535 2.026536 -0.85342413 0.9008711 -1.428637 -0.6843566 -1.2178308 -0.9344356 0.48099956 -0.541475 1.128494 -0.25955126 0.49580708
